{"learner":{"attributes":{"scikit_learn":"{\"_estimator_type\": \"classifier\"}"},"feature_names":["age","sex","cp","trtbps","chol","fbs","restecg","thalachh","exng","oldpeak","slp","caa","thall"],"feature_types":["int","int","int","int","int","int","int","int","int","float","int","int","int"],"gradient_booster":{"model":{"gbtree_model_param":{"num_parallel_tree":"1","num_trees":"100"},"iteration_indptr":[0,1,2,3,4,5,6,7,8,9,10,11,12,13,14,15,16,17,18,19,20,21,22,23,24,25,26,27,28,29,30,31,32,33,34,35,36,37,38,39,40,41,42,43,44,45,46,47,48,49,50,51,52,53,54,55,56,57,58,59,60,61,62,63,64,65,66,67,68,69,70,71,72,73,74,75,76,77,78,79,80,81,82,83,84,85,86,87,88,89,90,91,92,93,94,95,96,97,98,99,100],"tree_info":[0,0,0,0,0,0,0,0,0,0,0,0,0,0,0,0,0,0,0,0,0,0,0,0,0,0,0,0,0,0,0,0,0,0,0,0,0,0,0,0,0,0,0,0,0,0,0,0,0,0,0,0,0,0,0,0,0,0,0,0,0,0,0,0,0,0,0,0,0,0,0,0,0,0,0,0,0,0,0,0,0,0,0,0,0,0,0,0,0,0,0,0,0,0,0,0,0,0,0,0],"trees":[{"base_weights":[-0E0,-1.0120482E0,9.767442E-1,-5.4054055E-2,-1.7083334E0,1.4615384E0,2.2222222E-1,7.5555557E-1,-1.1515151E0,-6.666667E-2,-5.3406596E-1,1.6705883E0,4.347826E-1,-4.390244E-1,9.714286E-1,1.3103448E0,-2E-1,-0E0,-4.9565217E-1,8.8E-1,5.625E-1,8.888889E-1,-2.0000002E-1,2.6086956E-1,-1.0909091E0,1.1764706E-1,4.3636367E-1,-0E0,4.56E-1,-3E-1,6.666667E-1,-2.0000002E-1,2.0000002E-1,4.0000004E-1,3.529412E-1,-0E0,3.4285718E-1,-5.714286E-1,3.2307696E-1,-6.666667E-2,-3.8823533E-1,2.4000001E-1,-1.6363637E-1,3E-1,-0E0,2.7272728E-1,-1.20000005E-1,6.666667E-2,-3.3333337E-1],"categories":[],"categories_nodes":[],"categories_segments":[],"categories_sizes":[],"default_left":[0,0,0,0,0,0,0,0,0,0,0,0,0,0,0,0,0,0,0,0,0,0,0,0,0,0,0,0,0,0,0,0,0,0,0,0,0,0,0,0,0,0,0,0,0,0,0,0,0],"id":0,"left_children":[1,3,5,7,9,11,13,15,17,-1,-1,19,21,23,25,27,29,31,-1,33,-1,35,-1,37,39,41,-1,-1,-1,-1,43,-1,-1,-1,45,-1,-1,47,-1,-1,-1,-1,-1,-1,-1,-1,-1,-1,-1],"loss_changes":[8.352928E1,2.7589695E1,1.5404095E1,1.7307562E1,2.1683502E0,4.8543777E0,9.3438635E0,6.226053E0,4.756258E0,0E0,0E0,1.7841187E0,3.4685988E0,4.961149E0,3.4380445E0,1.991724E0,4.1333337E0,2E0,0E0,1.0227451E0,0E0,1.0158732E0,0E0,4.5207834E0,6.8330383E-1,2.3593583E0,0E0,0E0,0E0,0E0,6.666666E-1,0E0,0E0,0E0,2.1433156E0,0E0,0E0,1.7460316E0,0E0,0E0,0E0,0E0,0E0,0E0,0E0,0E0,0E0,0E0,0E0],"parents":[2147483647,0,0,1,1,2,2,3,3,4,4,5,5,6,6,7,7,8,8,11,11,12,12,13,13,14,14,15,15,16,16,17,17,19,19,21,21,23,23,24,24,25,25,30,30,34,34,37,37],"right_children":[2,4,6,8,10,12,14,16,18,-1,-1,20,22,24,26,28,30,32,-1,34,-1,36,-1,38,40,42,-1,-1,-1,-1,44,-1,-1,-1,46,-1,-1,48,-1,-1,-1,-1,-1,-1,-1,-1,-1,-1,-1],"split_conditions":[1E0,1E0,5.7E1,3E0,1.1E2,3E0,2E0,1E0,5.1284003E-1,-6.666667E-2,-5.3406596E-1,1.54E2,1E0,2.44E2,6E1,1.23E2,1.45E2,4.9E1,-4.9565217E-1,1E0,5.625E-1,1.11E2,-2.0000002E-1,6.2E1,1E0,2.22E2,4.3636367E-1,-0E0,4.56E-1,-3E-1,5.2E1,-2.0000002E-1,2.0000002E-1,4.0000004E-1,2.23E2,-0E0,3.4285718E-1,1.1E0,3.2307696E-1,-6.666667E-2,-3.8823533E-1,2.4000001E-1,-1.6363637E-1,3E-1,-0E0,2.7272728E-1,-1.20000005E-1,6.666667E-2,-3.3333337E-1],"split_indices":[2,11,0,12,3,12,10,8,9,0,0,7,11,4,0,7,7,0,0,1,0,3,0,0,1,4,0,0,0,0,0,0,0,0,4,0,0,9,0,0,0,0,0,0,0,0,0,0,0],"split_type":[0,0,0,0,0,0,0,0,0,0,0,0,0,0,0,0,0,0,0,0,0,0,0,0,0,0,0,0,0,0,0,0,0,0,0,0,0,0,0,0,0,0,0,0,0,0,0,0,0],"sum_hessian":[8.25E1,4.05E1,4.2E1,1.75E1,2.3E1,2.5E1,1.7E1,1.025E1,7.25E0,1.25E0,2.175E1,2.025E1,4.75E0,9.25E0,7.75E0,6.25E0,4E0,2.5E0,4.75E0,5.25E0,1.5E1,3.5E0,1.25E0,4.75E0,4.5E0,3.25E0,4.5E0,1E0,5.25E0,2E0,2E0,1.25E0,1.25E0,2E0,3.25E0,1E0,2.5E0,2.5E0,2.25E0,1.25E0,3.25E0,1.5E0,1.75E0,1E0,1E0,1.75E0,1.5E0,1.25E0,1.25E0],"tree_param":{"num_deleted":"0","num_feature":"13","num_nodes":"49","size_leaf_vector":"1"}},{"base_weights":[8.9150015E-3,-7.6980597E-1,7.527433E-1,-4.1886322E-2,-1.3131044E0,1.8580498E-1,1.1688668E0,5.901597E-1,-9.053141E-1,-5.5593953E-2,-4.111791E-1,5.828928E-1,-6.657444E-1,1.2812805E0,3.201466E-1,1.0229547E0,-1.4233911E-1,-3.4303195E-8,-3.944945E-1,1.0124881E0,-4.3185058E-1,9.221456E-2,-3.5084665E-1,4.1493997E-1,6.0067255E-2,-1.6155759E-1,2.9879662E-1,4.0416065E-1,3.3605162E-2,-2.4405256E-1,1.7149013E-1,-1.6770285E-1,1.6770284E-1,1.2405833E0,-9.359584E-2,-2.453509E-1,4.5014694E-2,4.1976812E-1,1.1805826E-1],"categories":[],"categories_nodes":[],"categories_segments":[],"categories_sizes":[],"default_left":[0,0,0,0,0,0,0,0,0,0,0,0,0,0,0,0,0,0,0,0,0,0,0,0,0,0,0,0,0,0,0,0,0,0,0,0,0,0,0],"id":1,"left_children":[1,3,5,7,9,11,13,15,17,-1,-1,19,21,23,25,27,29,31,-1,33,35,-1,-1,-1,-1,-1,-1,-1,-1,-1,-1,-1,-1,37,-1,-1,-1,-1,-1],"loss_changes":[4.668774E1,1.5520206E1,9.507E0,1.0283537E1,1.2061081E0,6.6898465E0,1.8397179E0,3.6074116E0,2.9466133E0,0E0,0E0,6.210272E0,3.4936612E0,1.9792862E0,2.9106247E0,1.9126186E0,2.829146E0,1.3984516E0,0E0,3.2882042E0,1.1648679E0,0E0,0E0,0E0,0E0,0E0,0E0,0E0,0E0,0E0,0E0,0E0,0E0,5.772457E-1,0E0,0E0,0E0,0E0,0E0],"parents":[2147483647,0,0,1,1,2,2,3,3,4,4,5,5,6,6,7,7,8,8,11,11,12,12,13,13,14,14,15,15,16,16,17,17,19,19,20,20,33,33],"right_children":[2,4,6,8,10,12,14,16,18,-1,-1,20,22,24,26,28,30,32,-1,34,36,-1,-1,-1,-1,-1,-1,-1,-1,-1,-1,-1,-1,38,-1,-1,-1,-1,-1],"split_conditions":[1E0,1E0,2E0,3E0,1.1E2,1E0,2E0,1E0,5.1284003E-1,-5.5593953E-2,-4.111791E-1,2.59E2,5.1284003E-1,1.54E2,1.38E2,6E1,1.45E2,4.9E1,-3.944945E-1,2.4275508E0,1.51E2,9.221456E-2,-3.5084665E-1,4.1493997E-1,6.0067255E-2,-1.6155759E-1,2.9879662E-1,4.0416065E-1,3.3605162E-2,-2.4405256E-1,1.7149013E-1,-1.6770285E-1,1.6770284E-1,3E0,-9.359584E-2,-2.453509E-1,4.5014694E-2,4.1976812E-1,1.1805826E-1],"split_indices":[2,11,10,12,3,11,11,8,9,0,0,4,9,3,3,0,7,0,0,9,7,0,0,0,0,0,0,0,0,0,0,0,0,12,0,0,0,0,0],"split_type":[0,0,0,0,0,0,0,0,0,0,0,0,0,0,0,0,0,0,0,0,0,0,0,0,0,0,0,0,0,0,0,0,0,0,0,0,0,0,0],"sum_hessian":[7.860206E1,3.8383293E1,4.021876E1,1.6864744E1,2.1518549E1,1.7636633E1,2.2582129E1,9.91977E0,6.944974E0,1.2486122E0,2.0269936E1,1.2243045E1,5.3935885E0,1.9490883E1,3.0912464E0,5.986271E0,3.9334998E0,2.4751658E0,4.469808E0,8.603109E0,3.6399355E0,1.9726521E0,3.4209363E0,1.755728E1,1.9336023E0,1.4509554E0,1.640291E0,4.061622E0,1.9246488E0,1.9556665E0,1.9778333E0,1.2375829E0,1.2375829E0,7.39322E0,1.2098897E0,1.9445901E0,1.6953454E0,5.6779375E0,1.7152827E0],"tree_param":{"num_deleted":"0","num_feature":"13","num_nodes":"39","size_leaf_vector":"1"}},{"base_weights":[7.3663555E-3,-6.2842995E-1,5.9972847E-1,6.677452E-2,-1.0315717E0,9.567955E-1,8.225328E-2,5.575993E-1,-6.0240394E-1,-4.765513E-1,-3.8980532E-1,9.498167E-2,1.1070503E0,7.3886305E-1,-3.4961158E-1,-7.3085226E-2,7.178394E-1,1.0536104E-2,-8.8228387E-1,1.6061936E-1,-9.593382E-1,2.3457012E-1,-3.6704934E-1,4.1825244E-1,1.2052352E0,-1.0581846E-1,3.4297976E-1,1.9415249E-1,-3.1162298E-1,-8.608514E-2,9.503671E-1,-3.0708322E-1,-5.9653316E-2,-2.646288E-1,7.273316E-1,-2.7911788E-2,-3.56103E-1,-2.916097E-1,1.3109158E-1,2.6735258E-1,-7.1611956E-2,3.973172E-1,4.1171545E-1,6.0349673E-1,-2.1214068E-1,3.3788124E-1,3.603107E-2,2.7674755E-1,3.8293954E-2,1.7522517E-1,1.1376176E-2,3.123551E-1,3.4440767E-2],"categories":[],"categories_nodes":[],"categories_segments":[],"categories_sizes":[],"default_left":[0,0,0,0,0,0,0,0,0,0,0,0,0,0,0,0,0,0,0,0,0,0,0,0,0,0,0,0,0,0,0,0,0,0,0,0,0,0,0,0,0,0,0,0,0,0,0,0,0,0,0,0,0],"id":2,"left_children":[1,3,5,7,9,11,13,15,17,19,-1,21,23,25,27,-1,29,-1,31,33,35,-1,37,39,41,-1,-1,43,-1,-1,45,-1,-1,-1,47,-1,-1,-1,-1,-1,-1,-1,49,51,-1,-1,-1,-1,-1,-1,-1,-1,-1],"loss_changes":[2.7670734E1,1.0002056E1,6.9479065E0,4.917104E0,2.723915E0,2.7964535E0,4.971368E0,1.2745864E0,1.1698E0,2.8918314E0,0E0,1.6899818E0,7.7999496E-1,3.456109E0,4.213107E0,0E0,1.9996407E0,0E0,2.2855401E-1,3.4148123E0,9.164953E-1,0E0,2.0413349E0,1.4245212E0,9.7576714E-1,0E0,0E0,2.945164E0,0E0,0E0,7.7521944E-1,0E0,0E0,0E0,3.0224168E-1,0E0,0E0,0E0,0E0,0E0,0E0,0E0,2.0666534E-1,9.9992883E-1,0E0,0E0,0E0,0E0,0E0,0E0,0E0,0E0,0E0],"parents":[2147483647,0,0,1,1,2,2,3,3,4,4,5,5,6,6,7,7,8,8,9,9,11,11,12,12,13,13,14,14,16,16,18,18,19,19,20,20,22,22,23,23,24,24,27,27,30,30,34,34,42,42,43,43],"right_children":[2,4,6,8,10,12,14,16,18,20,-1,22,24,26,28,-1,30,-1,32,34,36,-1,38,40,42,-1,-1,44,-1,-1,46,-1,-1,-1,48,-1,-1,-1,-1,-1,-1,-1,50,52,-1,-1,-1,-1,-1,-1,-1,-1,-1],"split_conditions":[1E0,6.8814313E-1,5.7E1,1E0,3E0,1.48E2,1E0,4.3E1,1.48E2,1E0,-3.8980532E-1,4.1352648E-1,1.11E2,2E0,2.46E2,-7.3085226E-2,1.37E2,1.0536104E-2,2.98E2,1.11E2,1.11E2,2.3457012E-1,5E1,2.28E2,3E0,-1.0581846E-1,3.4297976E-1,1.847116E0,-3.1162298E-1,-8.608514E-2,2.73E2,-3.0708322E-1,-5.9653316E-2,-2.646288E-1,1.7279617E0,-2.7911788E-2,-3.56103E-1,-2.916097E-1,1.3109158E-1,2.6735258E-1,-7.1611956E-2,3.973172E-1,1.74E2,1.47E2,-2.1214068E-1,3.3788124E-1,3.603107E-2,2.7674755E-1,3.8293954E-2,1.7522517E-1,1.1376176E-2,3.123551E-1,3.4440767E-2],"split_indices":[2,9,0,11,12,7,1,0,7,8,0,9,3,2,4,0,7,0,4,7,3,0,0,4,12,0,0,9,0,0,4,0,0,0,9,0,0,0,0,0,0,0,7,7,0,0,0,0,0,0,0,0,0],"split_type":[0,0,0,0,0,0,0,0,0,0,0,0,0,0,0,0,0,0,0,0,0,0,0,0,0,0,0,0,0,0,0,0,0,0,0,0,0,0,0,0,0,0,0,0,0,0,0,0,0,0,0,0,0],"sum_hessian":[7.147021E1,3.4441956E1,3.702825E1,1.2947974E1,2.149398E1,2.1407637E1,1.5620615E1,7.565569E0,5.3824053E0,7.8998237E0,1.3594156E1,3.4205558E0,1.7987082E1,5.9156146E0,9.705001E0,1.1741871E0,6.3913817E0,1.9088496E0,3.4735558E0,3.6930852E0,4.2067385E0,1.097118E0,2.3234377E0,2.900314E0,1.5086767E1,1.6336733E0,4.2819414E0,5.826123E0,3.8788772E0,1.1571405E0,5.2342415E0,2.4659035E0,1.0076524E0,1.1044503E0,2.588635E0,1.168648E0,3.0380907E0,1.2065842E0,1.1168536E0,1.4790672E0,1.4212469E0,1.2535432E1,2.5513353E0,4.2336864E0,1.5924367E0,4.0249696E0,1.2092719E0,1.5469162E0,1.0417187E0,1.3611076E0,1.1902277E0,1.6370032E0,2.5966835E0],"tree_param":{"num_deleted":"0","num_feature":"13","num_nodes":"53","size_leaf_vector":"1"}},{"base_weights":[6.3989093E-3,-5.361681E-1,5.034747E-1,-7.549966E-3,-9.712916E-1,7.956697E-2,8.3268297E-1,4.384819E-1,-6.6200656E-1,-4.31947E-1,-1.1260024E0,4.0207663E-1,-5.5741864E-1,9.2688775E-1,1.9011635E-1,7.714177E-1,-1.7794918E-1,-6.936269E-2,-2.9286554E-1,-2.239223E-1,7.070157E-2,-3.5694885E-1,-1.228417E-1,7.148271E-1,-2.824003E-1,4.2282432E-2,-2.7608195E-1,1.0268147E0,2.0113915E-2,-1.4082451E-1,2.3592739E-1,3.18995E-1,-1.1143249E-1,-1.4403206E-1,1.05329126E-1,-1.4742969E-1,1.18635125E-1,9.243064E-1,-8.806698E-2,-2.1897963E-1,8.730657E-2,1.1733553E-1,1.1011376E0,3.2096323E-1,8.627577E-2,-9.029423E-2,1.3071553E-1,3.4784287E-1,7.938957E-2],"categories":[],"categories_nodes":[],"categories_segments":[],"categories_sizes":[],"default_left":[0,0,0,0,0,0,0,0,0,0,0,0,0,0,0,0,0,0,0,0,0,0,0,0,0,0,0,0,0,0,0,0,0,0,0,0,0,0,0,0,0,0,0,0,0,0,0,0,0],"id":3,"left_children":[1,3,5,7,9,11,13,15,17,19,21,23,25,27,29,31,33,35,-1,-1,-1,-1,-1,37,39,-1,-1,41,-1,-1,-1,-1,-1,-1,-1,-1,-1,43,-1,-1,45,-1,47,-1,-1,-1,-1,-1,-1],"loss_changes":[1.7842691E1,7.269725E0,4.7511387E0,4.7541256E0,9.6097755E-1,3.5511892E0,9.935608E-1,2.1271248E0,1.1606259E0,1.3282269E0,1.007843E-1,2.6278448E0,1.6153264E0,1.3570824E0,1.8356847E0,2.5576444E0,8.4199345E-1,8.539084E-1,0E0,0E0,0E0,0E0,0E0,1.9742455E0,7.7038014E-1,0E0,0E0,2.684822E-1,0E0,0E0,0E0,0E0,0E0,0E0,0E0,0E0,0E0,3.33354E-1,0E0,0E0,5.683807E-1,0E0,3.1284237E-1,0E0,0E0,0E0,0E0,0E0,0E0],"parents":[2147483647,0,0,1,1,2,2,3,3,4,4,5,5,6,6,7,7,8,8,9,9,10,10,11,11,12,12,13,13,14,14,15,15,16,16,17,17,23,23,24,24,27,27,37,37,40,40,42,42],"right_children":[2,4,6,8,10,12,14,16,18,20,22,24,26,28,30,32,34,36,-1,-1,-1,-1,-1,38,40,-1,-1,42,-1,-1,-1,-1,-1,-1,-1,-1,-1,44,-1,-1,46,-1,48,-1,-1,-1,-1,-1,-1],"split_conditions":[1E0,1E0,2E0,3E0,4E-1,1E0,2E0,5.9E1,5.1284003E-1,1E-1,3E2,2.59E2,5.1284003E-1,1.54E2,1.38E2,1.6E0,2.5E2,4.9E1,-2.9286554E-1,-2.239223E-1,7.070157E-2,-3.5694885E-1,-1.228417E-1,2.4275508E0,1.36E2,4.2282432E-2,-2.7608195E-1,1.1E2,2.0113915E-2,-1.4082451E-1,2.3592739E-1,3.18995E-1,-1.1143249E-1,-1.4403206E-1,1.05329126E-1,-1.4742969E-1,1.18635125E-1,3E0,-8.806698E-2,-2.1897963E-1,2E0,1.1733553E-1,3.18E2,3.2096323E-1,8.627577E-2,-9.029423E-2,1.3071553E-1,3.4784287E-1,7.938957E-2],"split_indices":[2,11,10,12,9,11,11,0,9,9,4,4,9,3,3,9,4,0,0,0,0,0,0,9,7,0,0,3,0,0,0,0,0,0,0,0,0,12,0,0,2,0,4,0,0,0,0,0,0],"split_type":[0,0,0,0,0,0,0,0,0,0,0,0,0,0,0,0,0,0,0,0,0,0,0,0,0,0,0,0,0,0,0,0,0,0,0,0,0,0,0,0,0,0,0,0,0,0,0,0,0],"sum_hessian":[6.415738E1,3.0637432E1,3.3519943E1,1.4291942E1,1.634549E1,1.5195293E1,1.8324652E1,8.6956215E0,5.596321E0,4.4888086E0,1.1856681E1,1.0332612E1,4.862682E0,1.559573E1,2.7289212E0,5.4828796E0,3.2127414E0,2.3620129E0,3.234308E0,2.9712715E0,1.5175372E0,1.0280382E1,1.5762985E0,7.061663E0,3.2709486E0,1.871779E0,2.990903E0,1.3797997E1,1.797733E0,1.3968116E0,1.3321096E0,4.4228377E0,1.0600419E0,2.1037295E0,1.1090119E0,1.207911E0,1.1541018E0,5.9160542E0,1.1456088E0,1.0389462E0,2.2320023E0,2.0998702E0,1.1698127E1,4.2614756E0,1.6545787E0,1.1199783E0,1.1120241E0,1.05745535E1,1.1235732E0],"tree_param":{"num_deleted":"0","num_feature":"13","num_nodes":"49","size_leaf_vector":"1"}},{"base_weights":[1.455414E-3,-3.958096E-1,5.054203E-1,-6.8012404E-1,2.0541671E-1,9.7156256E-1,2.3949887E-1,-5.5144798E-2,-8.963927E-1,3.1910002E-1,-4.659345E-2,3.5875526E-1,2.262763E-1,5.8164173E-1,-3.2909092E-1,2.2233589E-1,-2.2361578E-1,-2.259499E-1,-1.0187038E0,2.0577492E-1,-3.48394E-1,-1.3032436E-1,2.366337E-1,9.971811E-1,-9.193605E-2,-8.3089036E-1,3.9484122E-1,5.2313375E-1,-8.861713E-2,1.3219509E-1,-2.4252339E-1,-3.403297E-1,-4.596843E-1,-6.349987E-2,-2.2781263E-1,6.2713735E-2,3.4454957E-1,-2.1933748E-1,2.0670277E-1,-5.607392E-2,-3.044273E-1,2.3895982E-1,-4.8621204E-2,4.080411E-3,2.3979077E-1,4.3330792E-2,-2.4129462E-1,1.6987231E-1,-1.2112666E-1],"categories":[],"categories_nodes":[],"categories_segments":[],"categories_sizes":[],"default_left":[0,0,0,0,0,0,0,0,0,0,0,0,0,0,0,0,0,0,0,0,0,0,0,0,0,0,0,0,0,0,0,0,0,0,0,0,0,0,0,0,0,0,0,0,0,0,0,0,0],"id":4,"left_children":[1,3,5,7,9,11,13,15,17,-1,19,-1,21,23,25,27,-1,29,31,-1,33,-1,-1,35,37,39,41,43,-1,-1,-1,-1,45,47,-1,-1,-1,-1,-1,-1,-1,-1,-1,-1,-1,-1,-1,-1,-1],"loss_changes":[1.1873559E1,5.809001E0,3.0076904E0,3.0254717E0,2.5187833E0,1.2620173E0,3.6877697E0,1.4899578E0,1.1503801E0,0E0,2.4017355E0,0E0,1.5892545E0,3.3334508E0,3.012825E0,1.0424703E0,0E0,1.8636843E0,3.8120174E-1,0E0,8.4065765E-1,0E0,0E0,6.242299E-1,3.166607E0,3.6530805E-1,9.575867E-1,5.4739726E-1,0E0,0E0,0E0,0E0,9.64456E-1,1.423163E0,0E0,0E0,0E0,0E0,0E0,0E0,0E0,0E0,0E0,0E0,0E0,0E0,0E0,0E0,0E0],"parents":[2147483647,0,0,1,1,2,2,3,3,4,4,5,5,6,6,7,7,8,8,10,10,12,12,13,13,14,14,15,15,17,17,18,18,20,20,23,23,24,24,25,25,26,26,27,27,32,32,33,33],"right_children":[2,4,6,8,10,12,14,16,18,-1,20,-1,22,24,26,28,-1,30,32,-1,34,-1,-1,36,38,40,42,44,-1,-1,-1,-1,46,48,-1,-1,-1,-1,-1,-1,-1,-1,-1,-1,-1,-1,-1,-1,-1],"split_conditions":[2E0,2E0,1E0,6.8814313E-1,1E0,3.09E2,1E0,1.4E2,1.16E2,3.1910002E-1,1E0,3.5875526E-1,1E0,2.4E2,2E0,1E0,-2.2361578E-1,1E0,2.94E2,2.0577492E-1,2E0,-1.3032436E-1,2.366337E-1,4.2E1,1.59E2,5.3E1,2.6179546E-1,1.26E2,-8.861713E-2,1.3219509E-1,-2.4252339E-1,-3.403297E-1,1E0,1.22E2,-2.2781263E-1,6.2713735E-2,3.4454957E-1,-2.1933748E-1,2.0670277E-1,-5.607392E-2,-3.044273E-1,2.3895982E-1,-4.8621204E-2,4.080411E-3,2.3979077E-1,4.3330792E-2,-2.4129462E-1,1.6987231E-1,-1.2112666E-1],"split_indices":[10,2,1,9,10,4,11,3,3,0,1,0,6,4,2,11,0,11,4,0,9,0,0,0,7,0,9,3,0,0,0,0,8,3,0,0,0,0,0,0,0,0,0,0,0,0,0,0,0],"split_type":[0,0,0,0,0,0,0,0,0,0,0,0,0,0,0,0,0,0,0,0,0,0,0,0,0,0,0,0,0,0,0,0,0,0,0,0,0,0,0,0,0,0,0,0,0,0,0,0,0],"sum_hessian":[5.7307014E1,3.216591E1,2.5141104E1,2.1749527E1,1.0416383E1,8.168577E0,1.6972528E1,5.9140167E0,1.5835511E1,1.6332908E0,8.783092E0,5.8142653E0,2.3543117E0,1.0581979E1,6.3905487E0,4.7017674E0,1.2122494E0,2.88251E0,1.2953001E1,2.191437E0,6.591655E0,1.1873794E0,1.1669322E0,6.2474294E0,4.3345494E0,3.6870759E0,2.7034729E0,2.9673176E0,1.7344496E0,1.4577037E0,1.4248062E0,9.878604E0,3.0743973E0,4.5748534E0,2.016801E0,1.3898604E0,4.8575687E0,2.4186914E0,1.915858E0,1.2667993E0,2.4202766E0,1.3206457E0,1.3828272E0,1.411797E0,1.5555207E0,1.3277746E0,1.7466227E0,1.3717929E0,3.2030606E0],"tree_param":{"num_deleted":"0","num_feature":"13","num_nodes":"49","size_leaf_vector":"1"}},{"base_weights":[7.596751E-3,-4.1499132E-1,3.7351474E-1,-2.6942084E-2,-7.6673573E-1,6.7694014E-1,-7.796461E-3,3.3187225E-1,-5.721087E-1,-1.398649E-1,-9.095356E-1,1.29278E-1,8.775556E-1,4.2357373E-1,-2.6893353E-1,2.7661106E-1,5.4454107E-2,-9.460119E-2,-2.7676585E-1,1.472954E-1,-2.038217E-1,-3.3245318E-2,-9.861582E-1,-3.092055E-1,1.9091877E-1,3.1468597E-1,3.034153E-1,-1.1646977E-1,2.4039592E-1,1.3703492E-1,-7.718193E-1,-5.5846477E-1,4.9514136E-1,-1.282119E-1,9.493561E-2,-3.1530303E-1,-9.984728E-2,1.2410509E-1,-2.53399E-1,2.2765593E-1,-3.2459646E-2,1.9907609E-1,-2.377835E-1,-3.070569E-1,-7.7712335E-2,-2.2021575E-1,-4.5884714E-2,1.9965927E-1,-8.79679E-3,1.0177968E-1,-2.3571621E-1],"categories":[],"categories_nodes":[],"categories_segments":[],"categories_sizes":[],"default_left":[0,0,0,0,0,0,0,0,0,0,0,0,0,0,0,0,0,0,0,0,0,0,0,0,0,0,0,0,0,0,0,0,0,0,0,0,0,0,0,0,0,0,0,0,0,0,0,0,0,0,0],"id":5,"left_children":[1,3,5,7,9,11,13,15,17,19,21,23,25,27,29,-1,31,33,-1,-1,-1,-1,35,37,-1,-1,39,-1,-1,41,43,45,47,-1,-1,-1,-1,-1,-1,-1,-1,-1,49,-1,-1,-1,-1,-1,-1,-1,-1],"loss_changes":[8.26337E0,3.3654284E0,3.317612E0,2.699881E0,1.034368E0,1.6394067E0,1.6543349E0,1.3203444E0,8.264482E-1,1.5552365E0,5.263891E-1,1.4086708E0,8.1378555E-1,2.0114994E0,1.9696741E0,0E0,2.1016743E0,6.03795E-1,0E0,0E0,0E0,0E0,4.6401024E-2,1.7412869E0,0E0,0E0,8.4165657E-1,0E0,0E0,1.322405E0,2.8068256E-1,1.2243235E-1,4.18159E-1,0E0,0E0,0E0,0E0,0E0,0E0,0E0,0E0,0E0,1.5892817E0,0E0,0E0,0E0,0E0,0E0,0E0,0E0,0E0],"parents":[2147483647,0,0,1,1,2,2,3,3,4,4,5,5,6,6,7,7,8,8,9,9,10,10,11,11,12,12,13,13,14,14,16,16,17,17,22,22,23,23,26,26,29,29,30,30,31,31,32,32,42,42],"right_children":[2,4,6,8,10,12,14,16,18,20,22,24,26,28,30,-1,32,34,-1,-1,-1,-1,36,38,-1,-1,40,-1,-1,42,44,46,48,-1,-1,-1,-1,-1,-1,-1,-1,-1,50,-1,-1,-1,-1,-1,-1,-1,-1],"split_conditions":[1E0,1E0,5.7E1,3E0,1E0,1.54E2,1E0,1.16E2,2.35E2,1.32E2,1.06E2,5E1,3E0,2E0,2.46E2,2.7661106E-1,1.45E2,5.1E1,-2.7676585E-1,1.472954E-1,-2.038217E-1,-3.3245318E-2,1E0,4.6E1,1.9091877E-1,3.1468597E-1,1.63E2,-1.1646977E-1,2.4039592E-1,1.47E2,7E-1,1.26E2,6.8814313E-1,-1.282119E-1,9.493561E-2,-3.1530303E-1,-9.984728E-2,1.2410509E-1,-2.53399E-1,2.2765593E-1,-3.2459646E-2,1.9907609E-1,1E0,-3.070569E-1,-7.7712335E-2,-2.2021575E-1,-4.5884714E-2,1.9965927E-1,-8.79679E-3,1.0177968E-1,-2.3571621E-1],"split_indices":[2,11,0,12,1,7,1,3,4,3,7,0,12,2,4,0,7,0,0,0,0,0,5,0,0,0,7,0,0,7,9,3,9,0,0,0,0,0,0,0,0,0,11,0,0,0,0,0,0,0,0],"split_type":[0,0,0,0,0,0,0,0,0,0,0,0,0,0,0,0,0,0,0,0,0,0,0,0,0,0,0,0,0,0,0,0,0,0,0,0,0,0,0,0,0,0,0,0,0,0,0,0,0,0,0],"sum_hessian":[5.1436325E1,2.3807556E1,2.7628769E1,1.18314905E1,1.1976067E1,1.4953968E1,1.26748E1,7.371204E0,4.460287E0,2.589218E0,9.386848E0,4.4500737E0,1.0503894E1,4.544968E0,8.129832E0,1.6140099E0,5.757194E0,2.4254155E0,2.0348713E0,1.2350962E0,1.3541217E0,1.0358082E0,8.35104E0,2.5958343E0,1.8542397E0,7.4521985E0,3.0516956E0,1.4344531E0,3.110515E0,4.9009266E0,3.2289054E0,2.2962513E0,3.4609425E0,1.318395E0,1.1070206E0,7.0432224E0,1.3078179E0,1.2013651E0,1.394469E0,1.0482441E0,2.0034513E0,1.7175949E0,3.1833317E0,1.497704E0,1.7312014E0,1.037043E0,1.2592083E0,2.409246E0,1.0516968E0,1.7359655E0,1.4473664E0],"tree_param":{"num_deleted":"0","num_feature":"13","num_nodes":"51","size_leaf_vector":"1"}},{"base_weights":[1.4975581E-3,-3.2836887E-1,4.2867878E-1,-5.2059735E-3,-7.4507E-1,7.9442656E-1,2.2116458E-1,3.4672508E-1,-4.9831846E-1,2.5488615E-2,-9.0969473E-1,3.1400326E-1,1.0352509E-1,4.8435077E-1,-2.247148E-1,2.3835234E-1,1.2421236E-2,-6.6810524E-1,1.9285407E-2,1.1367846E-1,-1.01519205E-1,-3.41492E-2,-2.9774976E-1,-2.8733652E-2,7.660955E-2,8.452688E-1,-6.910357E-2,2.9365224E-1,-1.9960546E-1,-1.8959948E-1,3.0140543E-1,-8.431785E-1,-3.995774E-3,4.1822467E-2,3.008287E-1,-1.5450628E-1,1.6644359E-1,-2.8420193E-2,1.5011156E-1,-6.2161036E-2,1.8237597E-1,-5.0975394E-2,-3.010405E-1],"categories":[],"categories_nodes":[],"categories_segments":[],"categories_sizes":[],"default_left":[0,0,0,0,0,0,0,0,0,0,0,0,0,0,0,0,0,0,0,0,0,0,0,0,0,0,0,0,0,0,0,0,0,0,0,0,0,0,0,0,0,0,0],"id":6,"left_children":[1,3,5,7,9,11,13,15,17,19,21,-1,23,25,27,-1,29,31,-1,-1,-1,-1,-1,-1,-1,33,35,37,-1,-1,39,41,-1,-1,-1,-1,-1,-1,-1,-1,-1,-1,-1],"loss_changes":[6.809215E0,3.6682918E0,1.4222388E0,3.0128846E0,1.5332322E0,1.152637E0,1.8477652E0,1.5079795E0,7.3319364E-1,5.2284056E-1,5.3520584E-1,0E0,1.1660484E-1,1.983038E0,1.6077108E0,0E0,1.4607949E0,6.351526E-1,0E0,0E0,0E0,0E0,0E0,0E0,0E0,5.169387E-1,1.6010166E0,3.3120394E-1,0E0,0E0,9.6569467E-1,3.078859E-1,0E0,0E0,0E0,0E0,0E0,0E0,0E0,0E0,0E0,0E0,0E0],"parents":[2147483647,0,0,1,1,2,2,3,3,4,4,5,5,6,6,7,7,8,8,9,9,10,10,12,12,13,13,14,14,16,16,17,17,25,25,26,26,27,27,30,30,31,31],"right_children":[2,4,6,8,10,12,14,16,18,20,22,-1,24,26,28,-1,30,32,-1,-1,-1,-1,-1,-1,-1,34,36,38,-1,-1,40,42,-1,-1,-1,-1,-1,-1,-1,-1,-1,-1,-1],"split_conditions":[2E0,1E0,1E0,1E0,1.11E2,3.09E2,1E0,1E0,6.4E1,2.23E2,1.09E2,3.1400326E-1,6.2E1,2.4E2,5.4E1,2.3835234E-1,1.41E2,3E0,1.9285407E-2,1.1367846E-1,-1.01519205E-1,-3.41492E-2,-2.9774976E-1,-2.8733652E-2,7.660955E-2,4.2E1,1.59E2,1E0,-1.9960546E-1,-1.8959948E-1,2.32E2,5.5E1,-3.995774E-3,4.1822467E-2,3.008287E-1,-1.5450628E-1,1.6644359E-1,-2.8420193E-2,1.5011156E-1,-6.2161036E-2,1.8237597E-1,-5.0975394E-2,-3.010405E-1],"split_indices":[10,8,1,11,3,4,11,1,0,4,7,0,0,4,0,0,7,11,0,0,0,0,0,0,0,0,7,6,0,0,4,0,0,0,0,0,0,0,0,0,0,0,0],"split_type":[0,0,0,0,0,0,0,0,0,0,0,0,0,0,0,0,0,0,0,0,0,0,0,0,0,0,0,0,0,0,0,0,0,0,0,0,0,0,0,0,0,0,0],"sum_hessian":[4.632326E1,2.6269468E1,2.0053791E1,1.536556E1,1.0903909E1,6.235429E0,1.3818363E1,9.139573E0,6.225987E0,2.0682456E0,8.835664E0,4.190511E0,2.0449173E0,8.635099E0,5.183264E0,3.3182902E0,5.8212824E0,4.638592E0,1.5873953E0,1.0282128E0,1.0400329E0,1.0564481E0,7.7792153E0,1.0439069E0,1.0010104E0,4.90754E0,3.7275598E0,2.5348394E0,2.6484241E0,1.4347968E0,4.3864856E0,3.4329824E0,1.2056092E0,1.2391291E0,3.6684108E0,2.275661E0,1.4518988E0,1.068695E0,1.4661446E0,1.7713053E0,2.6151805E0,1.0563006E0,2.3766818E0],"tree_param":{"num_deleted":"0","num_feature":"13","num_nodes":"43","size_leaf_vector":"1"}},{"base_weights":[5.6925104E-3,-3.472502E-1,3.032975E-1,1.7201371E-2,-6.3312685E-1,5.641064E-1,8.2177814E-4,-2.4448256E-1,2.9420656E-1,-2.0056789E-1,-2.8055808E-1,-4.581629E-2,6.986529E-1,-3.6277723E-1,1.6663584E-1,-4.807177E-1,1.2090501E-1,5.445863E-1,-7.7749126E-2,2.1983546E-1,-5.441646E-1,3.5962082E-2,-5.971978E-2,2.7452093E-2,8.295769E-1,3.5509586E-2,-1.9427916E-1,1.9547437E-1,-1.1376269E-1,-6.781863E-3,-1.8884385E-1,4.7296524E-2,1.8858011E-1,1.7285374E-1,-5.3146977E-2,-4.908638E-3,-2.2638692E-1,2.8314152E-1,3.7668627E-2,1.5808706E-1,-1.7809185E-1,-8.863944E-2,1.9594E-1],"categories":[],"categories_nodes":[],"categories_segments":[],"categories_sizes":[],"default_left":[0,0,0,0,0,0,0,0,0,0,0,0,0,0,0,0,0,0,0,0,0,0,0,0,0,0,0,0,0,0,0,0,0,0,0,0,0,0,0,0,0,0,0],"id":7,"left_children":[1,3,5,7,9,11,13,15,17,19,-1,21,23,25,27,29,-1,31,-1,33,35,-1,-1,-1,37,-1,-1,-1,39,-1,-1,-1,-1,-1,-1,-1,-1,-1,-1,41,-1,-1,-1],"loss_changes":[4.6536946E0,2.1233788E0,1.894963E0,7.8857946E-1,1.3005595E0,1.0906653E0,7.915361E-1,1.0549138E0,8.694401E-1,9.7997713E-1,0E0,1.0689295E-1,7.691126E-1,6.4025545E-1,1.2997565E0,2.9796648E-1,0E0,2.9026031E-2,0E0,5.817705E-1,3.8367343E-1,0E0,0E0,0E0,5.747695E-1,0E0,0E0,0E0,9.499611E-1,0E0,0E0,0E0,0E0,0E0,0E0,0E0,0E0,0E0,0E0,1.310912E0,0E0,0E0,0E0],"parents":[2147483647,0,0,1,1,2,2,3,3,4,4,5,5,6,6,7,7,8,8,9,9,11,11,12,12,13,13,14,14,15,15,17,17,19,19,20,20,24,24,28,28,39,39],"right_children":[2,4,6,8,10,12,14,16,18,20,-1,22,24,26,28,30,-1,32,-1,34,36,-1,-1,-1,38,-1,-1,-1,40,-1,-1,-1,-1,-1,-1,-1,-1,-1,-1,42,-1,-1,-1],"split_conditions":[1E0,6.8814313E-1,5.7E1,1E0,3E0,1.48E2,2E0,1.33E2,1.36E2,1E0,-2.8055808E-1,9E-1,1.11E2,2.46E2,1E0,1E0,1.2090501E-1,2.3668423E-2,-7.7749126E-2,1E0,2.26E2,3.5962082E-2,-5.971978E-2,2.7452093E-2,1.81E2,3.5509586E-2,-1.9427916E-1,1.9547437E-1,2.71E2,-6.781863E-3,-1.8884385E-1,4.7296524E-2,1.8858011E-1,1.7285374E-1,-5.3146977E-2,-4.908638E-3,-2.2638692E-1,2.8314152E-1,3.7668627E-2,2.31E2,-1.7809185E-1,-8.863944E-2,1.9594E-1],"split_indices":[2,9,0,6,12,7,2,3,3,8,0,9,3,4,1,1,0,9,0,1,4,0,0,0,7,0,0,0,4,0,0,0,0,0,0,0,0,0,0,4,0,0,0],"split_type":[0,0,0,0,0,0,0,0,0,0,0,0,0,0,0,0,0,0,0,0,0,0,0,0,0,0,0,0,0,0,0,0,0,0,0,0,0,0,0,0,0,0,0],"sum_hessian":[4.2302383E1,1.927569E1,2.3026695E1,8.886505E0,1.0389184E1,1.190053E1,1.1126165E1,4.63E0,4.256505E0,4.956076E0,5.4331083E0,2.2699463E0,9.630584E0,3.1127143E0,8.013452E0,3.5810568E0,1.0489432E0,2.941471E0,1.315034E0,2.3909063E0,2.5651696E0,1.1953503E0,1.0745959E0,2.0097082E0,7.6208754E0,1.3747643E0,1.7379498E0,2.4508946E0,5.5625567E0,1.1601969E0,2.42086E0,1.0379001E0,1.903571E0,1.0220993E0,1.3688071E0,1.0384977E0,1.526672E0,6.2639327E0,1.3569428E0,3.9790156E0,1.583541E0,2.2869308E0,1.6920848E0],"tree_param":{"num_deleted":"0","num_feature":"13","num_nodes":"43","size_leaf_vector":"1"}},{"base_weights":[3.2239496E-3,-2.7237272E-1,3.5951534E-1,1.3048324E-2,-6.2086695E-1,4.663177E-1,-9.194899E-2,2.6014936E-1,-3.6423904E-1,-3.7774185E-3,-8.283327E-1,8.055609E-1,2.6688758E-1,-1.6801174E-1,1.2823261E-1,1.9307995E-1,5.1119545E-4,1.7950009E-1,-7.0692015E-1,-1.338149E-1,1.4483231E-1,-9.127061E-1,-4.3471374E-2,2.8715315E-1,3.821505E-2,6.117774E-1,-8.2026094E-2,-1.5379238E-1,2.2285365E-1,-6.454544E-2,-2.4659051E-1,-2.9807156E-1,-7.385346E-2,4.049836E-2,2.543516E-1,1.1556337E-1,-2.7746734E-1,-2.4760492E-2,1.8917778E-1,-1.7845075E-1,-1.4738764E-3],"categories":[],"categories_nodes":[],"categories_segments":[],"categories_sizes":[],"default_left":[0,0,0,0,0,0,0,0,0,0,0,0,0,0,0,0,0,0,0,0,0,0,0,0,0,0,0,0,0,0,0,0,0,0,0,0,0,0,0,0,0],"id":8,"left_children":[1,3,5,7,9,11,13,15,17,19,21,23,25,-1,-1,-1,27,-1,29,-1,-1,31,-1,-1,-1,33,35,-1,37,-1,-1,-1,-1,-1,-1,-1,39,-1,-1,-1,-1],"loss_changes":[4.028922E0,2.3099737E0,9.0556407E-1,1.3721372E0,1.3334861E0,7.750356E-1,1.2746323E0,8.8201714E-1,2.3490226E0,9.967868E-1,3.180256E-1,3.8418603E-1,1.3391366E0,0E0,0E0,0E0,8.313625E-1,0E0,9.271312E-2,0E0,0E0,1.1987066E-1,0E0,0E0,0E0,5.051229E-1,6.736295E-1,0E0,6.848751E-1,0E0,0E0,0E0,0E0,0E0,0E0,0E0,4.258775E-1,0E0,0E0,0E0,0E0],"parents":[2147483647,0,0,1,1,2,2,3,3,4,4,5,5,6,6,7,7,8,8,9,9,10,10,11,11,12,12,16,16,18,18,21,21,25,25,26,26,28,28,36,36],"right_children":[2,4,6,8,10,12,14,16,18,20,22,24,26,-1,-1,-1,28,-1,30,-1,-1,32,-1,-1,-1,34,36,-1,38,-1,-1,-1,-1,-1,-1,-1,40,-1,-1,-1,-1],"split_conditions":[2E0,1E0,2E0,1E0,5.1284003E-1,1E0,1E0,1E0,1.11E2,5.8E1,2.99E2,1.69E2,2.29E2,-1.6801174E-1,1.2823261E-1,1.9307995E-1,1.41E2,1.7950009E-1,1E0,-1.338149E-1,1.4483231E-1,3E0,-4.3471374E-2,2.8715315E-1,3.821505E-2,1E0,4.6E1,-1.5379238E-1,3E0,-6.454544E-2,-2.4659051E-1,-2.9807156E-1,-7.385346E-2,4.049836E-2,2.543516E-1,1.1556337E-1,2.44E2,-2.4760492E-2,1.8917778E-1,-1.7845075E-1,-1.4738764E-3],"split_indices":[10,11,11,8,9,1,6,1,3,0,4,7,4,0,0,0,7,0,6,0,0,11,0,0,0,2,0,0,2,0,0,0,0,0,0,0,4,0,0,0,0],"split_type":[0,0,0,0,0,0,0,0,0,0,0,0,0,0,0,0,0,0,0,0,0,0,0,0,0,0,0,0,0,0,0,0,0,0,0,0,0,0,0,0,0],"sum_hessian":[3.903352E1,2.2141937E1,1.6891582E1,1.2701672E1,9.440266E0,1.3633436E1,3.258146E0,7.862603E0,4.8390684E0,2.631449E0,6.8088164E0,3.9222052E0,9.71123E0,1.6725421E0,1.585604E0,2.577359E0,5.285244E0,1.0745841E0,3.7644842E0,1.4220544E0,1.2093945E0,5.761983E0,1.0468338E0,2.8693292E0,1.0528761E0,4.504903E0,5.206328E0,1.2030476E0,4.0821967E0,1.2578697E0,2.5066144E0,4.700974E0,1.0610087E0,2.0123453E0,2.4925575E0,1.2491142E0,3.9572139E0,2.7900681E0,1.2921284E0,1.281989E0,2.6752248E0],"tree_param":{"num_deleted":"0","num_feature":"13","num_nodes":"41","size_leaf_vector":"1"}},{"base_weights":[6.739443E-3,-2.2925034E-1,3.079907E-1,1.5169913E-2,-5.404912E-1,1.4941329E-2,4.758077E-1,2.4192216E-1,-3.2280293E-1,-6.691338E-4,-7.4570256E-1,2.4616607E-1,-2.9662E-1,5.6761074E-1,2.9015625E-3,5.730658E-1,-1.890284E-1,-2.2565211E-1,1.0930786E-1,-1.1281003E-1,1.2045435E-1,-8.331444E-1,-3.7422474E-2,1.5838584E-1,-2.9164512E-2,6.717234E-2,-1.9127464E-1,6.6740876E-1,-8.297843E-3,2.2270243E-1,-3.24399E-3,-3.7388852E-1,5.648325E-2,-6.5839685E-2,1.0102422E-1,-2.761887E-1,-6.3976474E-2,1.8774377E-1,2.4402109E-1,-3.453564E-2,-1.3628754E-1,8.297586E-2,1.4380248E-3],"categories":[],"categories_nodes":[],"categories_segments":[],"categories_sizes":[],"default_left":[0,0,0,0,0,0,0,0,0,0,0,0,0,0,0,0,0,0,0,0,0,0,0,0,0,0,0,0,0,0,0,0,0,0,0,0,0,0,0,0,0,0,0],"id":9,"left_children":[1,3,5,7,9,11,13,15,17,19,21,23,25,27,-1,29,31,-1,33,-1,-1,35,-1,-1,-1,-1,-1,37,-1,-1,-1,39,-1,-1,-1,-1,-1,41,-1,-1,-1,-1,-1],"loss_changes":[2.7033794E0,1.6315479E0,8.138801E-1,1.0686424E0,1.0423429E0,5.8531874E-1,4.4737387E-1,1.2938023E0,1.1246078E0,6.935276E-1,2.663839E-1,4.9916762E-1,7.6090515E-1,5.426731E-1,0E0,4.9682796E-1,3.746072E-1,0E0,3.4858057E-1,0E0,0E0,1.18323326E-1,0E0,0E0,0E0,0E0,0E0,3.792925E-1,0E0,0E0,0E0,1.5576184E-2,0E0,0E0,0E0,0E0,0E0,4.861851E-2,0E0,0E0,0E0,0E0,0E0],"parents":[2147483647,0,0,1,1,2,2,3,3,4,4,5,5,6,6,7,7,8,8,9,9,10,10,11,11,12,12,13,13,15,15,16,16,18,18,21,21,27,27,31,31,37,37],"right_children":[2,4,6,8,10,12,14,16,18,20,22,24,26,28,-1,30,32,-1,34,-1,-1,36,-1,-1,-1,-1,-1,38,-1,-1,-1,40,-1,-1,-1,-1,-1,42,-1,-1,-1,-1,-1],"split_conditions":[2E0,1E0,1E0,3E0,5.1284003E-1,5.8E1,2E0,5.8E1,2E0,5.8E1,2.99E2,3E0,1.55E2,1.54E2,2.9015625E-3,1.7279617E0,2E0,-2.2565211E-1,1.51E2,-1.1281003E-1,1.2045435E-1,3E0,-3.7422474E-2,1.5838584E-1,-2.9164512E-2,6.717234E-2,-1.9127464E-1,1.54E2,-8.297843E-3,2.2270243E-1,-3.24399E-3,1.25E2,5.648325E-2,-6.5839685E-2,1.0102422E-1,-2.761887E-1,-6.3976474E-2,1.43E2,2.4402109E-1,-3.453564E-2,-1.3628754E-1,8.297586E-2,1.4380248E-3],"split_indices":[10,11,2,12,9,0,11,0,2,0,4,12,7,3,0,9,2,0,7,0,0,11,0,0,0,0,0,7,0,0,0,3,0,0,0,0,0,7,0,0,0,0,0],"split_type":[0,0,0,0,0,0,0,0,0,0,0,0,0,0,0,0,0,0,0,0,0,0,0,0,0,0,0,0,0,0,0,0,0,0,0,0,0,0,0,0,0,0,0],"sum_hessian":[3.6033203E1,2.0339191E1,1.5694011E1,1.1925359E1,8.413832E0,6.111273E0,9.582738E0,7.307092E0,4.618267E0,2.5938356E0,5.8199964E0,3.6283753E0,2.4828975E0,7.824123E0,1.7586149E0,3.945549E0,3.361543E0,1.944952E0,2.673315E0,1.3752829E0,1.2185527E0,4.80208E0,1.0179163E0,1.6976942E0,1.9306811E0,1.1185602E0,1.3643374E0,6.596948E0,1.227175E0,2.8483675E0,1.0971814E0,2.2622275E0,1.0993155E0,1.107474E0,1.5658411E0,3.7830331E0,1.0190469E0,2.0727859E0,4.524162E0,1.1127435E0,1.1494839E0,1.0507311E0,1.0220549E0],"tree_param":{"num_deleted":"0","num_feature":"13","num_nodes":"43","size_leaf_vector":"1"}},{"base_weights":[1.4808498E-3,1.9072564E-1,-2.8583354E-1,4.2761484E-1,-8.061798E-2,1.6353165E-1,-3.9464128E-1,6.0097927E-1,8.435186E-3,-3.826092E-1,2.4941507E-1,-6.057555E-1,-9.562016E-3,2.4040541E-1,2.534249E-1,-1.1823351E-1,1.2613761E-1,-5.1637137E-1,2.9337317E-2,6.757822E-1,-2.3195994E-1,-1.984369E-1,-2.6635408E-1,-2.9439875E-1,2.5829944E-1,1.8647861E-1,-4.6832606E-2,-1.9528173E-1,-2.0737913E-2,3.965988E-2,2.591791E-1,-1.4788562E-1,4.3963056E-2,-4.7322303E-1,1.0814183E-1,-1.763556E-1,4.4300392E-2,1.2288159E-1,5.331523E-3,9.2015505E-2,-1.11894704E-1,2.9413212E-2,-2.2352491E-1],"categories":[],"categories_nodes":[],"categories_segments":[],"categories_sizes":[],"default_left":[0,0,0,0,0,0,0,0,0,0,0,0,0,0,0,0,0,0,0,0,0,0,0,0,0,0,0,0,0,0,0,0,0,0,0,0,0,0,0,0,0,0,0],"id":10,"left_children":[1,3,5,7,9,-1,11,13,15,17,19,21,23,25,-1,-1,-1,27,-1,29,31,33,-1,35,37,-1,39,-1,-1,-1,-1,-1,-1,41,-1,-1,-1,-1,-1,-1,-1,-1,-1],"loss_changes":[1.93504E0,1.4133298E0,1.4930539E0,8.3874106E-1,1.1758114E0,0E0,1.0573905E0,5.1767063E-1,8.9738697E-1,4.3959105E-1,1.3440526E0,7.925463E-1,5.068904E-1,5.443109E-1,0E0,0E0,0E0,2.4963856E-1,0E0,2.2566986E-1,4.1419953E-1,8.9818823E-1,0E0,5.0246423E-1,1.1801794E-1,0E0,5.310519E-1,0E0,0E0,0E0,0E0,0E0,0E0,6.3346297E-1,0E0,0E0,0E0,0E0,0E0,0E0,0E0,0E0,0E0],"parents":[2147483647,0,0,1,1,2,2,3,3,4,4,6,6,7,7,8,8,9,9,10,10,11,11,12,12,13,13,17,17,19,19,20,20,21,21,23,23,24,24,26,26,33,33],"right_children":[2,4,6,8,10,-1,12,14,16,18,20,22,24,26,-1,-1,-1,28,-1,30,32,34,-1,36,38,-1,40,-1,-1,-1,-1,-1,-1,42,-1,-1,-1,-1,-1,-1,-1,-1,-1],"split_conditions":[3E0,5.8E1,1.1E2,1E0,6.4E1,1.6353165E-1,2E0,1.57E2,2.37E2,1E0,1E0,5.1284003E-1,1.51E2,1E0,2.534249E-1,-1.1823351E-1,1.2613761E-1,1.63E2,2.9337317E-2,1E0,1.33E2,5.8E1,-2.6635408E-1,1.2695856E0,1.63E2,1.8647861E-1,2.23E2,-1.9528173E-1,-2.0737913E-2,3.965988E-2,2.591791E-1,-1.4788562E-1,4.3963056E-2,2.27E2,1.0814183E-1,-1.763556E-1,4.4300392E-2,1.2288159E-1,5.331523E-3,9.2015505E-2,-1.11894704E-1,2.9413212E-2,-2.2352491E-1],"split_indices":[12,0,3,11,0,0,2,7,4,5,1,9,7,6,0,0,0,7,0,6,7,0,0,9,7,0,4,0,0,0,0,0,0,4,0,0,0,0,0,0,0,0,0],"split_type":[0,0,0,0,0,0,0,0,0,0,0,0,0,0,0,0,0,0,0,0,0,0,0,0,0,0,0,0,0,0,0,0,0,0,0,0,0,0,0,0,0,0,0],"sum_hessian":[3.358578E1,2.0451324E1,1.3134455E1,1.0611407E1,9.839918E0,1.0564896E0,1.2077966E1,7.1999483E0,3.4114592E0,5.0550623E0,4.784856E0,7.4309735E0,4.646992E0,3.7053552E0,3.494593E0,1.7475632E0,1.6638961E0,3.8955202E0,1.159542E0,2.3232398E0,2.4616158E0,3.7376044E0,3.693369E0,2.2041192E0,2.442873E0,1.0920571E0,2.613298E0,2.644421E0,1.251099E0,1.0351632E0,1.2880765E0,1.2780097E0,1.1836061E0,2.6084692E0,1.1291351E0,1.1265261E0,1.077593E0,1.0680579E0,1.374815E0,1.2825613E0,1.3307368E0,1.0472378E0,1.5612316E0],"tree_param":{"num_deleted":"0","num_feature":"13","num_nodes":"43","size_leaf_vector":"1"}},{"base_weights":[8.287325E-3,1.8736318E-1,-2.4136885E-1,3.2207647E-1,-1.8907113E-1,-5.3303105E-1,1.1021652E-1,4.9637777E-1,-2.002781E-2,1.5085444E-1,-4.731464E-1,-7.558998E-1,2.4933739E-2,4.4824913E-1,-2.53211E-1,2.4371278E-1,2.4146736E-1,-1.3596947E-1,2.262399E-1,-2.1018071E-1,-1.7609836E-3,-8.6287275E-2,-2.5650463E-1,-5.9848815E-2,7.6254785E-2,2.149868E-1,2.182974E-2,-1.9231611E-1,7.948417E-2,4.077007E-1,-8.850281E-2,-2.001102E-1,2.30538E-1,1.7904352E-1,2.2740904E-2,9.527043E-2,-1.7572258E-1],"categories":[],"categories_nodes":[],"categories_segments":[],"categories_sizes":[],"default_left":[0,0,0,0,0,0,0,0,0,0,0,0,0,0,0,0,0,0,0,0,0,0,0,0,0,0,0,0,0,0,0,0,0,0,0,0,0],"id":11,"left_children":[1,3,5,7,9,11,13,15,17,-1,19,21,23,25,27,29,-1,-1,31,-1,-1,-1,-1,-1,-1,-1,-1,-1,-1,33,-1,35,-1,-1,-1,-1,-1],"loss_changes":[1.4875152E0,1.0420868E0,1.4853323E0,8.8167906E-1,1.3640938E0,9.857271E-1,9.902361E-1,5.618026E-1,7.3151016E-1,0E0,4.8236072E-1,1.3433218E-2,2.1469708E-1,3.5682487E-1,9.894049E-1,7.192445E-1,0E0,0E0,1.1769274E0,0E0,0E0,0E0,0E0,0E0,0E0,0E0,0E0,0E0,0E0,3.0735016E-1,0E0,8.3902484E-1,0E0,0E0,0E0,0E0,0E0],"parents":[2147483647,0,0,1,1,2,2,3,3,4,4,5,5,6,6,7,7,8,8,10,10,11,11,12,12,13,13,14,14,15,15,18,18,29,29,31,31],"right_children":[2,4,6,8,10,12,14,16,18,-1,20,22,24,26,28,30,-1,-1,32,-1,-1,-1,-1,-1,-1,-1,-1,-1,-1,34,-1,36,-1,-1,-1,-1,-1],"split_conditions":[1E0,2.73E2,1E0,3E0,1.22E2,2E0,4.1352648E-1,1.57E2,1.45E2,1.5085444E-1,8E-1,1E0,1.51E2,1.55E2,6.2E1,1.53E2,2.4146736E-1,-1.3596947E-1,2.32E2,-2.1018071E-1,-1.7609836E-3,-8.6287275E-2,-2.5650463E-1,-5.9848815E-2,7.6254785E-2,2.149868E-1,2.182974E-2,-1.9231611E-1,7.948417E-2,2.29E2,-8.850281E-2,2.12E2,2.30538E-1,1.7904352E-1,2.2740904E-2,9.527043E-2,-1.7572258E-1],"split_indices":[11,4,6,12,3,2,9,7,7,0,9,1,7,7,0,7,0,0,4,0,0,0,0,0,0,0,0,0,0,4,0,4,0,0,0,0,0],"split_type":[0,0,0,0,0,0,0,0,0,0,0,0,0,0,0,0,0,0,0,0,0,0,0,0,0,0,0,0,0,0,0,0,0,0,0,0,0],"sum_hessian":[3.1260695E1,1.83488E1,1.2911894E1,1.3619307E1,4.7294946E0,6.775288E0,6.1366057E0,8.723666E0,4.8956404E0,1.1524242E0,3.5770702E0,4.587965E0,2.187323E0,3.058463E0,3.078143E0,5.7799697E0,2.9436963E0,1.4697812E0,3.4258595E0,2.0700846E0,1.5069858E0,1.4830661E0,3.104899E0,1.1708599E0,1.016463E0,1.2537919E0,1.8046712E0,1.6247993E0,1.4533437E0,4.617579E0,1.1623908E0,2.2710586E0,1.1548008E0,2.433068E0,2.184511E0,1.0448859E0,1.2261727E0],"tree_param":{"num_deleted":"0","num_feature":"13","num_nodes":"37","size_leaf_vector":"1"}},{"base_weights":[9.960198E-3,-1.8590102E-1,2.5078058E-1,4.5874664E-3,-4.6673143E-1,-1.3030289E-2,4.041756E-1,-1.6442795E-1,1.1980224E-1,2.7785828E-2,-6.0961235E-1,9.555211E-2,-1.9918385E-1,4.9185333E-1,3.1952271E-3,3.281953E-1,-2.0085008E-1,-1.252784E-2,-2.2922744E-1,1.0064384E-1,-1.6523853E-1,4.4274693E-3,5.7396626E-1,2.0703948E-1,-4.402732E-2,-4.8901975E-1,7.43525E-2,1.3178551E-1,-7.992619E-2,6.714471E-1,1.7798332E-2,-1.2392635E-1,6.6641584E-2,-4.8215017E-2,-1.7400512E-1,2.2311263E-1,6.1509587E-2],"categories":[],"categories_nodes":[],"categories_segments":[],"categories_sizes":[],"default_left":[0,0,0,0,0,0,0,0,0,0,0,0,0,0,0,0,0,0,0,0,0,0,0,0,0,0,0,0,0,0,0,0,0,0,0,0,0],"id":12,"left_children":[1,3,5,7,9,11,13,-1,15,-1,17,-1,19,21,-1,23,25,-1,-1,27,-1,-1,29,-1,31,33,-1,-1,-1,35,-1,-1,-1,-1,-1,-1,-1],"loss_changes":[1.4745607E0,9.2598206E-1,5.719789E-1,7.8395337E-1,6.150633E-1,4.4100842E-1,3.0137515E-1,0E0,7.4449044E-1,0E0,4.6803594E-1,0E0,5.333297E-1,2.7536464E-1,0E0,9.1072243E-1,7.186188E-1,0E0,0E0,5.26271E-1,0E0,0E0,2.6894093E-1,0E0,5.0055426E-1,8.819699E-4,0E0,0E0,0E0,1.8658638E-2,0E0,0E0,0E0,0E0,0E0,0E0,0E0],"parents":[2147483647,0,0,1,1,2,2,3,3,4,4,5,5,6,6,8,8,10,10,12,12,13,13,15,15,16,16,19,19,22,22,24,24,25,25,29,29],"right_children":[2,4,6,8,10,12,14,-1,16,-1,18,-1,20,22,-1,24,26,-1,-1,28,-1,-1,30,-1,32,34,-1,-1,-1,36,-1,-1,-1,-1,-1,-1,-1],"split_conditions":[2E0,1E0,1E0,1.15E2,1.11E2,1.55E2,2E0,-1.6442795E-1,1.56E2,2.7785828E-2,2.6179546E-1,9.555211E-2,5.8E1,1.1E2,3.1952271E-3,6.8814313E-1,1.1E0,-1.252784E-2,-2.2922744E-1,3E0,-1.6523853E-1,4.4274693E-3,1.54E2,2.0703948E-1,2.2E2,5.7E1,7.43525E-2,1.3178551E-1,-7.992619E-2,2.78E2,1.7798332E-2,-1.2392635E-1,6.6641584E-2,-4.8215017E-2,-1.7400512E-1,2.2311263E-1,6.1509587E-2],"split_indices":[10,8,2,7,3,7,11,0,7,0,9,0,0,3,0,9,9,0,0,12,0,0,3,0,4,0,0,0,0,4,0,0,0,0,0,0,0],"split_type":[0,0,0,0,0,0,0,0,0,0,0,0,0,0,0,0,0,0,0,0,0,0,0,0,0,0,0,0,0,0,0,0,0,0,0,0,0],"sum_hessian":[2.9273901E1,1.6269684E1,1.3004217E1,1.0280227E1,5.989457E0,5.117729E0,7.8864875E0,1.1252595E0,9.154967E0,1.2902299E0,4.6992273E0,1.5845945E0,3.533135E0,6.2451878E0,1.6413E0,5.5345316E0,3.6204355E0,1.2766583E0,3.422569E0,2.2922444E0,1.2408905E0,1.0902594E0,5.154928E0,2.3730135E0,3.161518E0,2.1498365E0,1.470599E0,1.0899458E0,1.2022986E0,4.0778255E0,1.0771028E0,1.0934157E0,2.0681024E0,1.0668806E0,1.082956E0,3.0160317E0,1.0617938E0],"tree_param":{"num_deleted":"0","num_feature":"13","num_nodes":"37","size_leaf_vector":"1"}},{"base_weights":[4.381992E-3,-1.6282374E-1,2.0880912E-1,1.6662413E-2,-4.0335542E-1,5.1794237E-1,4.8607554E-2,1.8276927E-1,-2.4687397E-1,-5.84565E-1,1.4115236E-2,2.3752522E-1,-7.569946E-3,-5.997401E-2,1.4255394E-1,1.4872733E-1,-1.2312368E-2,4.281325E-2,-1.2743643E-1,-2.1115182E-1,-2.248048E-2,1.7299062E-1,-3.8835627E-1,-2.018017E-1,9.6953906E-2,5.014545E-1,-1.7567387E-1,-2.0165424E-1,2.4214499E-2,8.006722E-2,-1.4039722E-1,5.0841376E-2,1.8066883E-1,-1.4296177E-1,4.8858937E-2],"categories":[],"categories_nodes":[],"categories_segments":[],"categories_sizes":[],"default_left":[0,0,0,0,0,0,0,0,0,0,0,0,0,0,0,0,0,0,0,0,0,0,0,0,0,0,0,0,0,0,0,0,0,0,0],"id":13,"left_children":[1,3,5,7,9,11,13,15,17,19,-1,-1,-1,21,-1,-1,23,-1,-1,-1,-1,25,27,29,-1,31,33,-1,-1,-1,-1,-1,-1,-1,-1],"loss_changes":[1.0185233E0,7.149911E-1,6.3830197E-1,4.984309E-1,6.029376E-1,6.846944E-1,4.8833308E-1,4.2902088E-1,3.6760476E-1,2.57393E-1,0E0,0E0,0E0,7.40502E-1,0E0,0E0,3.9850742E-1,0E0,0E0,0E0,0E0,7.56975E-1,5.8157736E-1,6.196999E-1,0E0,7.233441E-3,4.4160855E-1,0E0,0E0,0E0,0E0,0E0,0E0,0E0,0E0],"parents":[2147483647,0,0,1,1,2,2,3,3,4,4,5,5,6,6,7,7,8,8,9,9,13,13,16,16,21,21,22,22,23,23,25,25,26,26],"right_children":[2,4,6,8,10,12,14,16,18,20,-1,-1,-1,22,-1,-1,24,-1,-1,-1,-1,26,28,30,-1,32,34,-1,-1,-1,-1,-1,-1,-1,-1],"split_conditions":[2E0,1E0,1E0,1E0,6.4E1,3.09E2,1E0,1E0,1.22E2,3E0,1.4115236E-2,2.3752522E-1,-7.569946E-3,1E0,1.4255394E-1,1.4872733E-1,3E0,4.281325E-2,-1.2743643E-1,-2.1115182E-1,-2.248048E-2,2.4E2,2E0,7E-1,9.6953906E-2,4.4E1,1.54E2,-2.0165424E-1,2.4214499E-2,8.006722E-2,-1.4039722E-1,5.0841376E-2,1.8066883E-1,-1.4296177E-1,4.8858937E-2],"split_indices":[10,11,1,8,0,4,5,1,3,11,0,0,0,11,0,0,2,0,0,0,0,4,2,9,0,0,7,0,0,0,0,0,0,0,0],"split_type":[0,0,0,0,0,0,0,0,0,0,0,0,0,0,0,0,0,0,0,0,0,0,0,0,0,0,0,0,0,0,0,0,0,0,0],"sum_hessian":[2.7802935E1,1.5405736E1,1.23972E1,9.355405E0,6.050331E0,3.4693992E0,8.9278E0,5.9264445E0,3.4289608E0,4.1020947E0,1.948236E0,2.0023866E0,1.4670126E0,7.8014016E0,1.1263983E0,1.6837528E0,4.2426915E0,1.1370308E0,2.29193E0,3.0153096E0,1.0867853E0,4.8405604E0,2.9608412E0,2.965971E0,1.2767205E0,2.2668397E0,2.5737207E0,1.5749007E0,1.3859406E0,1.0733802E0,1.8925909E0,1.1523451E0,1.1144948E0,1.1468482E0,1.4268724E0],"tree_param":{"num_deleted":"0","num_feature":"13","num_nodes":"35","size_leaf_vector":"1"}},{"base_weights":[1.1061086E-2,1.5545969E-1,-2.0449728E-1,2.5603616E-1,-2.924544E-1,-4.4512096E-1,1.5237514E-2,-1.07761405E-1,3.373257E-1,-1.2511533E-1,-9.062768E-3,-1.2442476E-1,-2.1730044E-1,2.9548907E-1,-3.3700347E-1,5.613667E-1,1.6530208E-1,-1.3569559E-1,5.503717E-2,1.78928E-1,-2.3559673E-2,-1.859262E-1,2.0672508E-2,2.4204423E-1,-4.511343E-2,3.6859173E-1,-2.0089523E-1,4.24176E-2,-5.3241994E-2,5.411925E-2,1.798088E-1,4.963766E-2,-1.5085484E-1],"categories":[],"categories_nodes":[],"categories_segments":[],"categories_sizes":[],"default_left":[0,0,0,0,0,0,0,0,0,0,0,0,0,0,0,0,0,0,0,0,0,0,0,0,0,0,0,0,0,0,0,0,0],"id":14,"left_children":[1,3,5,7,9,11,13,-1,15,-1,-1,17,-1,19,21,23,25,-1,-1,-1,27,-1,-1,-1,-1,29,31,-1,-1,-1,-1,-1,-1],"loss_changes":[8.7991863E-1,8.3555937E-1,6.07558E-1,8.374659E-1,1.0382405E-1,3.984717E-1,7.813095E-1,0E0,4.1464698E-1,0E0,0E0,4.6125442E-1,0E0,4.3447745E-1,4.47523E-1,1.0474398E0,7.340134E-1,0E0,0E0,0E0,1.03478335E-1,0E0,0E0,0E0,0E0,1.547733E-1,5.048768E-1,0E0,0E0,0E0,0E0,0E0,0E0],"parents":[2147483647,0,0,1,1,2,2,3,3,4,4,5,5,6,6,8,8,11,11,13,13,14,14,15,15,16,16,20,20,25,25,26,26],"right_children":[2,4,6,8,10,12,14,-1,16,-1,-1,18,-1,20,22,24,26,-1,-1,-1,28,-1,-1,-1,-1,30,32,-1,-1,-1,-1,-1,-1],"split_conditions":[3E0,3.09E2,1E0,1.21E2,2.3668423E-2,1E0,9E-1,-1.07761405E-1,1E0,-1.2511533E-1,-9.062768E-3,1E0,-2.1730044E-1,1.22E2,1.45E2,1E0,1E0,-1.3569559E-1,5.503717E-2,1.78928E-1,2E0,-1.859262E-1,2.0672508E-2,2.4204423E-1,-4.511343E-2,1.61E2,5.5E1,4.24176E-2,-5.3241994E-2,5.411925E-2,1.798088E-1,4.963766E-2,-1.5085484E-1],"split_indices":[12,4,6,7,9,11,9,0,1,0,0,2,0,3,7,8,11,0,0,0,10,0,0,0,0,7,0,0,0,0,0,0,0],"split_type":[0,0,0,0,0,0,0,0,0,0,0,0,0,0,0,0,0,0,0,0,0,0,0,0,0,0,0,0,0,0,0,0,0],"sum_hessian":[2.6247917E1,1.588539E1,1.0362528E1,1.3322322E1,2.5630684E0,4.456574E0,5.9059534E0,1.1558E0,1.2166522E1,1.3373587E0,1.2257097E0,2.747038E0,1.7095361E0,3.3788078E0,2.5271456E0,4.3012824E0,7.8652396E0,1.103104E0,1.643934E0,1.2913613E0,2.0874465E0,1.1790339E0,1.3481117E0,3.0990076E0,1.2022746E0,5.0533824E0,2.8118575E0,1.0468625E0,1.040584E0,3.7648525E0,1.2885299E0,1.4746901E0,1.3371674E0],"tree_param":{"num_deleted":"0","num_feature":"13","num_nodes":"33","size_leaf_vector":"1"}},{"base_weights":[8.5229886E-4,-1.4179374E-1,2.0763233E-1,5.659786E-2,-4.2737156E-1,1.7734344E-1,5.6734227E-2,2.6558378E-1,-2.4302512E-1,-1.5691416E-1,-2.1577056E-1,-1.2883054E-1,1.4937347E-1,3.9868292E-1,-6.8481527E-3,8.1756935E-2,-5.1314104E-1,5.40081E-2,-1.09710716E-1,1.6402908E-1,-3.813718E-1,1.6311935E-1,1.8743545E-2,-6.4974055E-2,5.862296E-2,-1.444857E-2,-2.0803745E-1,7.5932205E-2,-5.424744E-2,-1.2409378E-1,1.7073172E-1,-1.6757055E-1,6.5831016E-3],"categories":[],"categories_nodes":[],"categories_segments":[],"categories_sizes":[],"default_left":[0,0,0,0,0,0,0,0,0,0,0,0,0,0,0,0,0,0,0,0,0,0,0,0,0,0,0,0,0,0,0,0,0],"id":15,"left_children":[1,3,5,7,9,-1,11,13,15,17,-1,19,-1,21,23,-1,25,27,-1,29,31,-1,-1,-1,-1,-1,-1,-1,-1,-1,-1,-1,-1],"loss_changes":[7.9143876E-1,9.239906E-1,6.002591E-1,7.066486E-1,4.1027904E-1,0E0,7.981327E-1,2.3910385E-1,7.993279E-1,2.275596E-1,0E0,5.8807456E-1,0E0,1.8040985E-1,1.7478403E-1,0E0,2.5623304E-1,1.9626065E-1,0E0,1.1689332E0,3.064223E-1,0E0,0E0,0E0,0E0,0E0,0E0,0E0,0E0,0E0,0E0,0E0,0E0],"parents":[2147483647,0,0,1,1,2,2,3,3,4,4,6,6,7,7,8,8,9,9,11,11,13,13,14,14,16,16,17,17,19,19,20,20],"right_children":[2,4,6,8,10,-1,12,14,16,18,-1,20,-1,22,24,-1,26,28,-1,30,32,-1,-1,-1,-1,-1,-1,-1,-1,-1,-1,-1,-1],"split_conditions":[2E0,7.571656E-1,1E0,1E0,3E0,1.7734344E-1,1E0,3E0,1.48E2,1E0,-2.1577056E-1,1.32E2,1.4937347E-1,5.9E1,4.9E1,8.1756935E-2,1E0,1E0,-1.09710716E-1,5E1,3E0,1.6311935E-1,1.8743545E-2,-6.4974055E-2,5.862296E-2,-1.444857E-2,-2.0803745E-1,7.5932205E-2,-5.424744E-2,-1.2409378E-1,1.7073172E-1,-1.6757055E-1,6.5831016E-3],"split_indices":[2,9,1,11,12,0,5,12,7,8,0,3,0,0,0,0,1,1,0,0,2,0,0,0,0,0,0,0,0,0,0,0,0],"split_type":[0,0,0,0,0,0,0,0,0,0,0,0,0,0,0,0,0,0,0,0,0,0,0,0,0,0,0,0,0,0,0,0,0],"sum_hessian":[2.4833628E1,1.4881788E1,9.95184E0,9.254486E0,5.6273017E0,1.9862391E0,7.9656014E0,5.5187707E0,3.7357154E0,3.718841E0,1.9084605E0,6.105525E0,1.8600763E0,3.3961353E0,2.1226354E0,1.2812967E0,2.4544187E0,2.2187443E0,1.5000968E0,2.9893777E0,3.1161473E0,1.9413275E0,1.4548079E0,1.0073009E0,1.1153346E0,1.039914E0,1.4145045E0,1.1586136E0,1.0601307E0,1.2234606E0,1.7659171E0,1.8975267E0,1.2186205E0],"tree_param":{"num_deleted":"0","num_feature":"13","num_nodes":"33","size_leaf_vector":"1"}},{"base_weights":[-2.1714082E-3,-1.4481181E-1,1.7559165E-1,-2.9470012E-1,6.7959584E-2,7.8873456E-2,1.4864856E-1,-1.2429366E-1,-2.0455821E-1,2.8826976E-1,-1.2695694E-1,2.642991E-1,-3.1735015E-1,7.984782E-2,-1.3408461E-1,1.2139448E-1,7.132912E-3,2.943194E-2,-9.1975644E-2,-4.2722285E-2,4.357693E-1,6.910265E-3,-1.5069285E-1,-1.10289186E-1,1.3084248E-1,4.249137E-2,-2.6261948E-2,-1.55163435E-2,5.6658804E-1,-1.0207071E-1,9.154183E-2,2.0194507E-1,6.6970326E-2],"categories":[],"categories_nodes":[],"categories_segments":[],"categories_sizes":[],"default_left":[0,0,0,0,0,0,0,0,0,0,0,0,0,0,0,0,0,0,0,0,0,0,0,0,0,0,0,0,0,0,0,0,0],"id":16,"left_children":[1,3,5,7,9,11,-1,13,-1,15,17,19,21,23,-1,-1,-1,25,-1,-1,27,-1,-1,29,-1,-1,-1,-1,31,-1,-1,-1,-1],"loss_changes":[6.461641E-1,4.7066557E-1,3.1210896E-1,4.7455007E-1,3.2227612E-1,8.115827E-1,0E0,5.0397074E-1,0E0,9.5917344E-2,1.2768337E-1,5.706455E-1,2.3897088E-1,4.0056926E-1,0E0,0E0,0E0,5.401122E-2,0E0,0E0,3.72167E-1,0E0,0E0,5.041363E-1,0E0,0E0,0E0,0E0,7.882118E-3,0E0,0E0,0E0,0E0],"parents":[2147483647,0,0,1,1,2,2,3,3,4,4,5,5,7,7,9,9,10,10,11,11,12,12,13,13,17,17,20,20,23,23,28,28],"right_children":[2,4,6,8,10,12,-1,14,-1,16,18,20,22,24,-1,-1,-1,26,-1,-1,28,-1,-1,30,-1,-1,-1,-1,32,-1,-1,-1,-1],"split_conditions":[2E0,2E0,6.5E1,1.41E2,3E0,5.8E1,1.4864856E-1,1.54E2,-2.0455821E-1,1.2695856E0,1E0,1.54E2,1E0,1.44E2,-1.3408461E-1,1.2139448E-1,7.132912E-3,5.9E1,-9.1975644E-2,-4.2722285E-2,4.2E1,6.910265E-3,-1.5069285E-1,6.4E1,1.3084248E-1,4.249137E-2,-2.6261948E-2,-1.55163435E-2,1E0,-1.0207071E-1,9.154183E-2,2.0194507E-1,6.6970326E-2],"split_indices":[10,2,0,3,12,0,0,7,0,9,11,7,1,7,0,0,0,0,0,0,0,0,0,0,0,0,0,0,11,0,0,0,0],"split_type":[0,0,0,0,0,0,0,0,0,0,0,0,0,0,0,0,0,0,0,0,0,0,0,0,0,0,0,0,0,0,0,0,0],"sum_hessian":[2.3480661E1,1.313015E1,1.0350512E1,7.47751E0,5.6526403E0,8.904822E0,1.4456896E0,6.1094923E0,1.3680179E0,2.4286487E0,3.2239914E0,6.2928395E0,2.6119828E0,4.2028856E0,1.9066063E0,1.3185711E0,1.1100777E0,2.170475E0,1.0535164E0,1.9165366E0,4.376303E0,1.2278358E0,1.384147E0,3.1906447E0,1.012241E0,1.0001764E0,1.1702986E0,1.053842E0,3.3224611E0,2.1703317E0,1.020313E0,1.8025212E0,1.5199398E0],"tree_param":{"num_deleted":"0","num_feature":"13","num_nodes":"33","size_leaf_vector":"1"}},{"base_weights":[6.070028E-4,-1.1855396E-1,1.698414E-1,3.4969397E-2,-3.4489742E-1,1.5332325E-1,4.2556964E-2,2.1218356E-1,-2.1542007E-1,-1.0789652E-1,-1.9125247E-1,-1.1629598E-1,3.704526E-1,3.1519923E-1,-3.30334E-2,-1.4487633E-1,6.802561E-2,4.8128784E-2,-2.3720577E-1,-3.819333E-1,2.2832654E-1,1.6798933E-1,-1.5739711E-3,3.099007E-2,1.5826203E-1,-1.17120676E-1,1.5562851E-2,-1.5236119E-2,-1.4522158E-1,1.1327761E-1,-1.3715099E-2,4.0610205E-2,-2.7338358E-2],"categories":[],"categories_nodes":[],"categories_segments":[],"categories_sizes":[],"default_left":[0,0,0,0,0,0,0,0,0,0,0,0,0,0,0,0,0,0,0,0,0,0,0,0,0,0,0,0,0,0,0,0,0],"id":17,"left_children":[1,3,5,7,9,-1,11,13,15,17,-1,19,21,23,-1,-1,-1,-1,25,27,29,-1,-1,31,-1,-1,-1,-1,-1,-1,-1,-1,-1],"loss_changes":[4.9604893E-1,5.137502E-1,4.1963226E-1,4.6771517E-1,3.4224576E-1,0E0,4.8541605E-1,2.3633298E-1,6.3440317E-1,1.9344153E-1,0E0,6.805785E-1,2.1727622E-1,2.7699664E-1,0E0,0E0,0E0,0E0,1.7195524E-1,1.11873746E-1,1.5827431E-1,0E0,0E0,5.237255E-2,0E0,0E0,0E0,0E0,0E0,0E0,0E0,0E0,0E0],"parents":[2147483647,0,0,1,1,2,2,3,3,4,4,6,6,7,7,8,8,9,9,11,11,12,12,13,13,18,18,19,19,20,20,23,23],"right_children":[2,4,6,8,10,-1,12,14,16,18,-1,20,22,24,-1,-1,-1,-1,26,28,30,-1,-1,32,-1,-1,-1,-1,-1,-1,-1,-1,-1],"split_conditions":[2E0,7.571656E-1,1E0,1E0,3E0,1.5332325E-1,1.64E2,1.65E2,1E-1,2.29E2,-1.9125247E-1,9E-1,9E-1,1.27E2,-3.30334E-2,-1.4487633E-1,6.802561E-2,4.8128784E-2,3E2,5.5E1,1.847116E0,1.6798933E-1,-1.5739711E-3,2.36E2,1.5826203E-1,-1.17120676E-1,1.5562851E-2,-1.5236119E-2,-1.4522158E-1,1.1327761E-1,-1.3715099E-2,4.0610205E-2,-2.7338358E-2],"split_indices":[2,9,1,11,12,0,7,7,9,4,0,9,9,3,0,0,0,0,4,0,9,0,0,4,0,0,0,0,0,0,0,0,0],"split_type":[0,0,0,0,0,0,0,0,0,0,0,0,0,0,0,0,0,0,0,0,0,0,0,0,0,0,0,0,0,0,0,0,0],"sum_hessian":[2.2599644E1,1.3437516E1,9.162127E0,8.5105295E0,4.926986E0,1.6699439E0,7.492183E0,5.072812E0,3.4377177E0,3.4783912E0,1.4485948E0,5.4817905E0,2.0103924E0,3.8607957E0,1.2120163E0,2.0845006E0,1.3532172E0,1.0528954E0,2.4254959E0,3.0345068E0,2.4472837E0,1.0103086E0,1.0000838E0,2.1410444E0,1.7197514E0,1.3562651E0,1.0692308E0,1.0682718E0,1.9662352E0,1.3397161E0,1.1075677E0,1.0958753E0,1.0451692E0],"tree_param":{"num_deleted":"0","num_feature":"13","num_nodes":"33","size_leaf_vector":"1"}},{"base_weights":[3.5843195E-3,-1.1264723E-1,1.4991532E-1,7.460673E-3,-2.969808E-1,9.472034E-3,3.4384513E-1,1.488707E-1,-1.9396219E-1,-9.1215864E-2,-1.6878685E-1,-3.229425E-1,2.575434E-1,1.3996184E-1,-7.815657E-3,2.681675E-1,-3.4901533E-2,1.2362778E-2,-1.2352709E-1,-7.9963036E-2,2.879581E-2,-2.8855498E-3,-1.6188473E-1,-3.2928658E-3,3.6056635E-1,1.7589484E-1,-5.7057044E-3,1.5984496E-1,4.1874284E-3,-1.02323934E-1,9.573486E-2],"categories":[],"categories_nodes":[],"categories_segments":[],"categories_sizes":[],"default_left":[0,0,0,0,0,0,0,0,0,0,0,0,0,0,0,0,0,0,0,0,0,0,0,0,0,0,0,0,0,0,0],"id":18,"left_children":[1,3,5,7,9,11,13,15,17,19,-1,21,23,-1,-1,25,-1,-1,-1,-1,-1,-1,-1,-1,27,-1,29,-1,-1,-1,-1],"loss_changes":[4.0220547E-1,2.943933E-1,2.8157476E-1,2.8425434E-1,2.3460105E-1,6.6813433E-1,2.102195E-1,2.157614E-1,2.286295E-1,1.6150445E-1,0E0,2.3073468E-1,1.3172281E-1,0E0,0E0,3.802933E-1,0E0,0E0,0E0,0E0,0E0,0E0,0E0,0E0,1.9360891E-1,0E0,4.6999234E-1,0E0,0E0,0E0,0E0],"parents":[2147483647,0,0,1,1,2,2,3,3,4,4,5,5,6,6,7,7,8,8,9,9,11,11,12,12,15,15,24,24,26,26],"right_children":[2,4,6,8,10,12,14,16,18,20,-1,22,24,-1,-1,26,-1,-1,-1,-1,-1,-1,-1,-1,28,-1,30,-1,-1,-1,-1],"split_conditions":[2E0,1E0,1.38E2,1E0,2.64E2,1E0,3E0,2.73E2,1.5E2,5.7E1,-1.6878685E-1,5.8E1,1.1E2,1.3996184E-1,-7.815657E-3,6.8814313E-1,-3.4901533E-2,1.2362778E-2,-1.2352709E-1,-7.9963036E-2,2.879581E-2,-2.8855498E-3,-1.6188473E-1,-3.2928658E-3,1.23E2,1.7589484E-1,1.3E0,1.5984496E-1,4.1874284E-3,-1.02323934E-1,9.573486E-2],"split_indices":[10,8,3,11,4,6,12,4,7,0,0,0,3,0,0,9,0,0,0,0,0,0,0,0,3,0,9,0,0,0,0],"split_type":[0,0,0,0,0,0,0,0,0,0,0,0,0,0,0,0,0,0,0,0,0,0,0,0,0,0,0,0,0,0,0],"sum_hessian":[2.1654728E1,1.2196872E1,9.457856E0,7.9659505E0,4.2309213E0,6.0936785E0,3.364178E0,4.8334823E0,3.1324682E0,3.141168E0,1.089753E0,2.475161E0,3.6185174E0,2.33004E0,1.034138E0,3.3261526E0,1.5073297E0,1.8959929E0,1.2364755E0,1.4031717E0,1.7379965E0,1.4388622E0,1.0362988E0,1.2511003E0,2.367417E0,1.0109444E0,2.3152082E0,1.2226033E0,1.1448138E0,1.1144757E0,1.2007324E0],"tree_param":{"num_deleted":"0","num_feature":"13","num_nodes":"31","size_leaf_vector":"1"}},{"base_weights":[-1.2286747E-4,4.7542572E-2,-9.125088E-2,-1.6319659E-2,3.3152264E-1,1.7053798E-1,-1.5481676E-1,-2.5203233E-3,1.6183563E-1,3.7180433E-1,-1.3508461E-1,1.3143346E-1,-3.4665957E-1,1.2497897E-2,4.6891168E-1,4.7483575E-2,-1.224384E-1,-1.0326865E-1,1.38205E-1,-1.8482561E-1,-1.4702289E-1,2.1110816E-1,7.0455386E-3,1.0292524E-1,-1.5665706E-1,3.6244687E-2,-1.1805344E-1],"categories":[],"categories_nodes":[],"categories_segments":[],"categories_sizes":[],"default_left":[0,0,0,0,0,0,0,0,0,0,0,0,0,0,0,0,0,0,0,0,0,0,0,0,0,0,0],"id":19,"left_children":[1,3,-1,5,7,9,11,-1,-1,13,15,17,19,-1,21,-1,-1,23,-1,-1,25,-1,-1,-1,-1,-1,-1],"loss_changes":[3.3232722E-1,3.649574E-1,0E0,4.6993864E-1,2.651144E-1,5.2825874E-1,6.148808E-1,0E0,0E0,1.3923013E-1,3.705231E-1,4.2507505E-1,2.580775E-1,0E0,3.7346023E-1,0E0,0E0,8.651994E-1,0E0,0E0,3.8006252E-1,0E0,0E0,0E0,0E0,0E0,0E0],"parents":[2147483647,0,0,1,1,3,3,4,4,5,5,6,6,9,9,10,10,11,11,12,12,14,14,17,17,20,20],"right_children":[2,4,-1,6,8,10,12,-1,-1,14,16,18,20,-1,22,-1,-1,24,-1,-1,26,-1,-1,-1,-1,-1,-1],"split_conditions":[2.3920069E0,1.7E2,-9.125088E-2,2.37E2,2E0,1E0,1E0,-2.5203233E-3,1.6183563E-1,2.01E2,1.48E2,6.4E1,5.4E1,1.2497897E-2,6.8814313E-1,4.7483575E-2,-1.224384E-1,5.9E1,1.38205E-1,-1.8482561E-1,1.29E2,2.1110816E-1,7.0455386E-3,1.0292524E-1,-1.5665706E-1,3.6244687E-2,-1.1805344E-1],"split_indices":[9,7,0,4,2,11,1,0,0,4,7,0,0,0,9,0,0,0,0,0,3,0,0,0,0,0,0],"split_type":[0,0,0,0,0,0,0,0,0,0,0,0,0,0,0,0,0,0,0,0,0,0,0,0,0,0,0],"sum_hessian":[2.093312E1,1.8825481E1,2.107639E0,1.6138699E1,2.6867833E0,6.7714467E0,9.367252E0,1.3839287E0,1.3028545E0,3.9521978E0,2.819249E0,3.8851213E0,5.4821315E0,1.2230592E0,2.7291386E0,1.5616734E0,1.2575754E0,2.668945E0,1.2161762E0,1.4454064E0,4.036725E0,1.4074554E0,1.321683E0,1.3798121E0,1.2891331E0,2.1789236E0,1.8578012E0],"tree_param":{"num_deleted":"0","num_feature":"13","num_nodes":"27","size_leaf_vector":"1"}},{"base_weights":[2.3911763E-3,-1.0385539E-1,1.5322241E-1,-1.8962309E-1,1.6477026E-1,-6.016831E-2,2.4911104E-1,6.630065E-2,-2.9592764E-1,-5.299857E-2,1.1749556E-1,3.5141474E-1,-3.756446E-2,-7.889832E-2,9.766502E-2,-4.5137085E-2,-4.847632E-1,4.729759E-1,-1.4599726E-2,5.40222E-2,-7.640712E-2,-2.2909836E-1,-1.9342342E-1,2.4051102E-1,1.9752885E-1,-1.4054687E-1,3.2662418E-2,1.2858437E-1,-3.814324E-2],"categories":[],"categories_nodes":[],"categories_segments":[],"categories_sizes":[],"default_left":[0,0,0,0,0,0,0,0,0,0,0,0,0,0,0,0,0,0,0,0,0,0,0,0,0,0,0,0,0],"id":20,"left_children":[1,3,5,7,9,-1,11,13,15,-1,-1,17,-1,-1,-1,19,21,23,-1,-1,-1,25,-1,27,-1,-1,-1,-1,-1],"loss_changes":[3.5418236E-1,3.3031076E-1,3.59612E-1,2.9995227E-1,3.539924E-1,0E0,3.3609298E-1,4.13518E-1,3.3156055E-1,0E0,0E0,3.2712597E-1,0E0,0E0,0E0,2.4919112E-1,2.2227585E-2,5.2416325E-2,0E0,0E0,0E0,3.0589485E-1,0E0,3.1349367E-1,0E0,0E0,0E0,0E0,0E0],"parents":[2147483647,0,0,1,1,2,2,3,3,4,4,6,6,7,7,8,8,11,11,15,15,16,16,17,17,21,21,23,23],"right_children":[2,4,6,8,10,-1,12,14,16,-1,-1,18,-1,-1,-1,20,22,24,-1,-1,-1,26,-1,28,-1,-1,-1,-1,-1],"split_conditions":[2E0,6.4E1,1.36E2,2.23E2,1.27E2,-6.016831E-2,2E0,2.01E2,5.7E1,-5.299857E-2,1.1749556E-1,6.4E1,-3.756446E-2,-7.889832E-2,9.766502E-2,3E0,1E0,9E-1,-1.4599726E-2,5.40222E-2,-7.640712E-2,1.57E2,-1.9342342E-1,5.5E1,1.9752885E-1,-1.4054687E-1,3.2662418E-2,1.2858437E-1,-3.814324E-2],"split_indices":[2,0,7,4,3,0,9,4,0,0,0,0,0,0,0,12,2,9,0,0,0,7,0,0,0,0,0,0,0],"split_type":[0,0,0,0,0,0,0,0,0,0,0,0,0,0,0,0,0,0,0,0,0,0,0,0,0,0,0,0,0],"sum_hessian":[2.010846E1,1.1980652E1,8.127808E0,9.304105E0,2.676547E0,1.5004089E0,6.627399E0,2.8409507E0,6.4631543E0,1.1568942E0,1.5196527E0,5.2529645E0,1.3744347E0,1.2450544E0,1.5958965E0,3.30837E0,3.1547842E0,3.8890932E0,1.3638711E0,1.6624157E0,1.6459545E0,2.1503546E0,1.0044297E0,2.7450588E0,1.1440344E0,1.0327024E0,1.117652E0,1.7062722E0,1.0387866E0],"tree_param":{"num_deleted":"0","num_feature":"13","num_nodes":"29","size_leaf_vector":"1"}},{"base_weights":[-1.1962082E-3,1.08707644E-1,-3.937819E-2,3.2655537E-2,-2.2123902E-1,1.0144148E-1,-8.807373E-2,1.31015815E-2,-1.6967732E-1,-1.2431694E-2,2.075E-1,7.126245E-2,-4.6071194E-2,-1.1020041E-1,6.54786E-2,-9.342511E-2,5.5095404E-2],"categories":[],"categories_nodes":[],"categories_segments":[],"categories_sizes":[],"default_left":[0,0,0,0,0,0,0,0,0,0,0,0,0,0,0,0,0],"id":21,"left_children":[1,-1,3,5,7,9,-1,11,-1,13,-1,-1,-1,-1,15,-1,-1],"loss_changes":[2.9864684E-1,0E0,2.6190883E-1,3.6182973E-1,4.6289107E-1,8.7988675E-1,0E0,1.986833E-1,0E0,3.516922E-1,0E0,0E0,0E0,0E0,5.277452E-1,0E0,0E0],"parents":[2147483647,0,0,2,2,3,3,4,4,5,5,7,7,9,9,14,14],"right_children":[2,-1,4,6,8,10,-1,12,-1,14,-1,-1,-1,-1,16,-1,-1],"split_conditions":[1.08E2,1.08707644E-1,1E0,3.11E2,1.6E0,2.98E2,-8.807373E-2,1.27E2,-1.6967732E-1,1.29E2,2.075E-1,7.126245E-2,-4.6071194E-2,-1.1020041E-1,1.14E2,-9.342511E-2,5.5095404E-2],"split_indices":[3,0,8,4,9,4,0,7,0,7,0,0,0,0,3,0,0],"split_type":[0,0,0,0,0,0,0,0,0,0,0,0,0,0,0,0,0],"sum_hessian":[1.9486471E1,1.0450996E0,1.8441372E1,1.3796942E1,4.6444297E0,1.1963511E1,1.8334297E0,3.3360875E0,1.3083421E0,1.0849278E1,1.114233E0,1.2404726E0,2.095615E0,1.284263E0,9.565016E0,1.8928292E0,7.672187E0],"tree_param":{"num_deleted":"0","num_feature":"13","num_nodes":"17","size_leaf_vector":"1"}},{"base_weights":[-4.1758367E-3,1.8245868E-1,-8.170353E-2,1.4562656E-1,2.2297997E-2,1.2276291E-2,-3.687541E-1,-1.5713044E-1,1.0198994E-1,-2.193144E-1,1.3776372E-1,2.8765243E-3,-1.58793E-1,5.8523837E-2,-1.1702341E-1,7.584637E-2,-1.5550427E-1,2.621023E-1,-8.401043E-2,1.2076805E-1,-7.671237E-2,4.5785272E-1,-4.7308407E-3,4.2540904E-2,1.5544558E-1,6.902293E-2,-9.429549E-2],"categories":[],"categories_nodes":[],"categories_segments":[],"categories_sizes":[],"default_left":[0,0,0,0,0,0,0,0,0,0,0,0,0,0,0,0,0,0,0,0,0,0,0,0,0,0,0],"id":22,"left_children":[1,3,5,-1,7,9,11,13,-1,15,17,-1,-1,-1,-1,19,-1,21,-1,-1,-1,23,25,-1,-1,-1,-1],"loss_changes":[3.0417868E-1,2.8888434E-1,4.0420014E-1,0E0,3.4347117E-1,3.8270262E-1,2.290045E-1,3.9901888E-1,0E0,4.4958508E-1,5.139572E-1,0E0,0E0,0E0,0E0,4.5083335E-1,0E0,3.705215E-1,0E0,0E0,0E0,4.2442083E-3,3.612033E-1,0E0,0E0,0E0,0E0],"parents":[2147483647,0,0,1,1,2,2,4,4,5,5,6,6,7,7,9,9,10,10,15,15,17,17,21,21,22,22],"right_children":[2,4,6,-1,8,10,12,14,-1,16,18,-1,-1,-1,-1,20,-1,22,-1,-1,-1,24,26,-1,-1,-1,-1],"split_conditions":[1E0,1.23E2,2.74E2,1.4562656E-1,6.4E1,5.1E1,1.25E2,5.8E1,1.0198994E-1,4.6E1,6.6E1,2.8765243E-3,-1.58793E-1,5.8523837E-2,-1.1702341E-1,3E0,-1.5550427E-1,1E0,-8.401043E-2,1.2076805E-1,-7.671237E-2,1.42E2,1.55E2,4.2540904E-2,1.5544558E-1,6.902293E-2,-9.429549E-2],"split_indices":[1,3,4,0,0,0,3,0,0,0,0,0,0,0,0,12,0,11,0,0,0,7,7,0,0,0,0],"split_type":[0,0,0,0,0,0,0,0,0,0,0,0,0,0,0,0,0,0,0,0,0,0,0,0,0,0,0],"sum_hessian":[1.8992004E1,5.1766496E0,1.3815354E1,1.0879048E0,4.0887446E0,1.112898E1,2.6863744E0,2.9358528E0,1.1528921E0,3.6482778E0,7.480702E0,1.0805018E0,1.6058726E0,1.2334594E0,1.7023934E0,2.2116394E0,1.4366381E0,6.0522003E0,1.4285016E0,1.0060835E0,1.205556E0,3.078164E0,2.9740362E0,1.0301954E0,2.0479686E0,1.8373345E0,1.1367017E0],"tree_param":{"num_deleted":"0","num_feature":"13","num_nodes":"27","size_leaf_vector":"1"}},{"base_weights":[-2.2474783E-3,-1.066956E-1,1.3029104E-1,5.8836635E-2,-1.6661973E-1,-4.3533124E-2,2.4277213E-1,5.0471514E-2,-2.49701E-1,-2.80209E-1,8.929695E-2,1.32846E-1,7.1733266E-2,-3.3834228E-1,4.808758E-2,-1.0384059E-1,-2.2089327E-2,-5.4431885E-2,1.06309526E-1,-9.808877E-2,-1.474657E-1,-7.92754E-2,5.8344785E-2],"categories":[],"categories_nodes":[],"categories_segments":[],"categories_sizes":[],"default_left":[0,0,0,0,0,0,0,0,0,0,0,0,0,0,0,0,0,0,0,0,0,0,0],"id":23,"left_children":[1,3,5,-1,7,9,11,-1,13,15,-1,-1,17,19,-1,-1,-1,-1,-1,21,-1,-1,-1],"loss_changes":[2.8080228E-1,2.3831707E-1,1.85511E-1,0E0,3.2024154E-1,4.3573982E-1,1.5931004E-1,0E0,3.60071E-1,1.6613275E-2,0E0,0E0,3.650955E-1,2.1831727E-1,0E0,0E0,0E0,0E0,0E0,2.4919593E-1,0E0,0E0,0E0],"parents":[2147483647,0,0,1,1,2,2,4,4,5,5,6,6,8,8,9,9,12,12,13,13,19,19],"right_children":[2,4,6,-1,8,10,12,-1,14,16,-1,-1,18,20,-1,-1,-1,-1,-1,22,-1,-1,-1],"split_conditions":[2E0,1E0,1E0,5.8836635E-2,1.2E2,1.38E2,2.12E2,5.0471514E-2,2.98E2,1.59E2,8.929695E-2,1.32846E-1,2.62E2,6.8814313E-1,4.808758E-2,-1.0384059E-1,-2.2089327E-2,-5.4431885E-2,1.06309526E-1,6.1E1,-1.474657E-1,-7.92754E-2,5.8344785E-2],"split_indices":[10,10,6,0,3,3,4,0,4,7,0,0,4,9,0,0,0,0,0,0,0,0,0],"split_type":[0,0,0,0,0,0,0,0,0,0,0,0,0,0,0,0,0,0,0,0,0,0,0],"sum_hessian":[1.8280005E1,1.0332429E1,7.947575E0,1.3314258E0,9.001003E0,3.363193E0,4.584382E0,1.5855354E0,7.4154677E0,2.0912602E0,1.2719327E0,1.380611E0,3.203771E0,6.2409277E0,1.17454E0,1.0731975E0,1.0180628E0,1.8788186E0,1.3249524E0,3.0688274E0,3.1721005E0,2.0189722E0,1.049855E0],"tree_param":{"num_deleted":"0","num_feature":"13","num_nodes":"23","size_leaf_vector":"1"}},{"base_weights":[5.4606986E-3,-9.791843E-2,1.5335603E-1,3.1505335E-2,-2.642401E-1,4.0895484E-2,1.1880221E-1,1.8971482E-1,-2.5288537E-1,-1.5555769E-1,7.837433E-2,1.1675301E-1,-9.4610125E-2,3.194462E-1,1.9826733E-3,2.6067121E-2,-1.3874252E-1,-3.6470935E-2,7.1616255E-2,1.4799947E-1,-3.0239752E-1,1.16454564E-1,3.10674E-2,-5.842422E-2,6.1978437E-2,-3.3895455E-2,1.06907696E-1,-1.0997161E-1,-2.8321581E-2],"categories":[],"categories_nodes":[],"categories_segments":[],"categories_sizes":[],"default_left":[0,0,0,0,0,0,0,0,0,0,0,0,0,0,0,0,0,0,0,0,0,0,0,0,0,0,0,0,0],"id":24,"left_children":[1,3,5,7,9,11,-1,13,15,-1,17,-1,19,21,23,-1,-1,-1,-1,25,27,-1,-1,-1,-1,-1,-1,-1,-1],"loss_changes":[3.0259043E-1,2.5976658E-1,2.0560794E-1,3.837413E-1,4.9526602E-1,3.515624E-1,0E0,1.3006389E-1,2.6067328E-1,0E0,1.2814353E-1,0E0,3.273384E-1,6.799072E-3,1.6901319E-1,0E0,0E0,0E0,0E0,2.1740095E-1,1.0083169E-2,0E0,0E0,0E0,0E0,0E0,0E0,0E0,0E0],"parents":[2147483647,0,0,1,1,2,2,3,3,4,4,5,5,7,7,8,8,10,10,12,12,13,13,14,14,19,19,20,20],"right_children":[2,4,6,8,10,12,-1,14,16,-1,18,-1,20,22,24,-1,-1,-1,-1,26,28,-1,-1,-1,-1,-1,-1,-1,-1],"split_conditions":[2E0,1E0,1E0,3E0,1E0,1E0,1.1880221E-1,5.8E1,2.3668423E-2,-1.5555769E-1,1.26E2,1.1675301E-1,1.32E2,4.7E1,1.32E2,2.6067121E-2,-1.3874252E-1,-3.6470935E-2,7.1616255E-2,5.2E1,3E0,1.16454564E-1,3.10674E-2,-5.842422E-2,6.1978437E-2,-3.3895455E-2,1.06907696E-1,-1.0997161E-1,-2.8321581E-2],"split_indices":[2,11,5,12,6,1,0,0,9,0,3,0,3,0,3,0,0,0,0,0,12,0,0,0,0,0,0,0,0],"split_type":[0,0,0,0,0,0,0,0,0,0,0,0,0,0,0,0,0,0,0,0,0,0,0,0,0,0,0,0,0],"sum_hessian":[1.7808857E1,1.0680845E1,7.128011E0,6.462559E0,4.218286E0,5.66911E0,1.4589014E0,4.366396E0,2.0961635E0,2.126545E0,2.091741E0,1.0635368E0,4.605573E0,2.1671743E0,2.1992216E0,1.0230596E0,1.0731039E0,1.0385509E0,1.0531902E0,2.2574928E0,2.3480802E0,1.0384715E0,1.1287029E0,1.1457856E0,1.053436E0,1.205395E0,1.0520977E0,1.2117671E0,1.1363132E0],"tree_param":{"num_deleted":"0","num_feature":"13","num_nodes":"29","size_leaf_vector":"1"}},{"base_weights":[8.336542E-3,-8.72926E-2,1.2929685E-1,3.9030742E-2,-2.6205814E-1,1.933343E-1,-3.7704583E-2,1.715936E-1,-1.6838574E-1,-1.1689309E-1,3.1785374E-3,-4.8152998E-2,3.119076E-1,2.8809077E-1,-2.1161227E-2,-6.3615697E-3,-6.788537E-2,-1.0212715E-1,8.5339844E-2,4.511081E-1,7.181223E-3,1.8198404E-2,1.262442E-1,3.8050614E-2,1.6288319E-1],"categories":[],"categories_nodes":[],"categories_segments":[],"categories_sizes":[],"default_left":[0,0,0,0,0,0,0,0,0,0,0,0,0,0,0,0,0,0,0,0,0,0,0,0,0],"id":25,"left_children":[1,3,5,7,9,11,-1,13,15,-1,-1,17,19,21,-1,-1,-1,-1,-1,23,-1,-1,-1,-1,-1],"loss_changes":[2.2197044E-1,2.4797301E-1,1.6218677E-1,2.2469436E-1,1.6580874E-1,2.1956864E-1,0E0,1.5683955E-1,2.3163833E-2,0E0,0E0,4.0975016E-1,1.8661687E-1,7.904348E-2,0E0,0E0,0E0,0E0,0E0,2.833587E-2,0E0,0E0,0E0,0E0,0E0],"parents":[2147483647,0,0,1,1,2,2,3,3,4,4,5,5,7,7,8,8,11,11,12,12,13,13,19,19],"right_children":[2,4,6,8,10,12,-1,14,16,-1,-1,18,20,22,-1,-1,-1,-1,-1,24,-1,-1,-1,-1,-1],"split_conditions":[2E0,1E0,3.11E2,1E0,6.4E1,5E1,-3.7704583E-2,1.41E2,1.26E2,-1.1689309E-1,3.1785374E-3,1.59E2,1.6E2,1.25E2,-2.1161227E-2,-6.3615697E-3,-6.788537E-2,-1.0212715E-1,8.5339844E-2,1.43E2,7.181223E-3,1.8198404E-2,1.262442E-1,3.8050614E-2,1.6288319E-1],"split_indices":[10,11,4,8,0,0,0,3,3,0,0,7,7,3,0,0,0,0,0,7,0,0,0,0,0],"split_type":[0,0,0,0,0,0,0,0,0,0,0,0,0,0,0,0,0,0,0,0,0,0,0,0,0],"sum_hessian":[1.7213692E1,9.768902E0,7.4447894E0,6.121124E0,3.6477783E0,6.143599E0,1.3011901E0,3.839777E0,2.2813468E0,2.1926622E0,1.455116E0,2.2187574E0,3.924842E0,2.4643054E0,1.3754716E0,1.0298032E0,1.2515436E0,1.1685201E0,1.0502373E0,2.263965E0,1.6608769E0,1.4450959E0,1.0192096E0,1.0251755E0,1.2387894E0],"tree_param":{"num_deleted":"0","num_feature":"13","num_nodes":"25","size_leaf_vector":"1"}},{"base_weights":[1.12345675E-2,-8.6572215E-2,1.4811862E-1,-2.660271E-3,-2.7604318E-1,-3.2296803E-2,2.1513385E-1,1.5919496E-1,-2.2643302E-1,-1.1459328E-1,-9.52475E-3,3.0308348E-1,-2.6826443E-2,-4.5422915E-2,3.3014068E-1,-1.3901574E-4,-1.1204182E-1,2.1103475E-2,1.4484718E-1,4.7633044E-2,-6.8556815E-2,1.3556129E-1,1.6924122E-2,5.019312E-2,-4.150466E-2],"categories":[],"categories_nodes":[],"categories_segments":[],"categories_sizes":[],"default_left":[0,0,0,0,0,0,0,0,0,0,0,0,0,0,0,0,0,0,0,0,0,0,0,0,0],"id":26,"left_children":[1,3,5,7,9,-1,11,13,15,-1,-1,17,-1,19,21,-1,-1,23,-1,-1,-1,-1,-1,-1,-1],"loss_changes":[2.5145185E-1,1.7458135E-1,1.5680575E-1,3.494141E-1,7.521114E-2,0E0,2.0152137E-1,2.1114898E-1,1.3420323E-1,0E0,0E0,2.574396E-1,0E0,1.6458671E-1,8.0343336E-2,0E0,0E0,9.544771E-2,0E0,0E0,0E0,0E0,0E0,0E0,0E0],"parents":[2147483647,0,0,1,1,2,2,3,3,4,4,6,6,7,7,8,8,11,11,13,13,14,14,17,17],"right_children":[2,4,6,8,10,-1,12,14,16,-1,-1,18,-1,20,22,-1,-1,24,-1,-1,-1,-1,-1,-1,-1],"split_conditions":[2E0,1.63E2,1.36E2,1E0,1.7E2,-3.2296803E-2,6.4E1,1.25E2,2.6179546E-1,-1.1459328E-1,-9.52475E-3,2.35E2,-2.6826443E-2,2.36E2,1.36E2,-1.3901574E-4,-1.1204182E-1,2.24E2,1.4484718E-1,4.7633044E-2,-6.8556815E-2,1.3556129E-1,1.6924122E-2,5.019312E-2,-4.150466E-2],"split_indices":[2,7,7,8,7,0,0,3,9,0,0,4,0,4,3,0,0,4,0,0,0,0,0,0,0],"split_type":[0,0,0,0,0,0,0,0,0,0,0,0,0,0,0,0,0,0,0,0,0,0,0,0,0],"sum_hessian":[1.682384E1,1.0026923E1,6.796915E0,7.6520586E0,2.3748648E0,1.2852201E0,5.511695E0,4.6078086E0,3.0442498E0,1.2634085E0,1.1114562E0,4.2804246E0,1.2312703E0,2.431567E0,2.1762419E0,1.5954791E0,1.4487705E0,2.101292E0,2.1791327E0,1.2123495E0,1.2192174E0,1.0558716E0,1.1203703E0,1.0704659E0,1.0308259E0],"tree_param":{"num_deleted":"0","num_feature":"13","num_nodes":"25","size_leaf_vector":"1"}},{"base_weights":[7.8363735E-3,1.7973615E-1,-6.4131625E-2,2.7973068E-1,-2.9285692E-2,1.5913976E-2,-3.0870697E-1,1.4006977E-1,-3.2791678E-2,-1.8682232E-1,1.2200818E-1,-1.2430819E-2,-1.3418846E-1,-1.0856484E-1,2.4365513E-2,2.3130752E-1,-7.271942E-2,3.937769E-1,-6.275049E-2,3.4999203E-2,1.6194063E-1,6.056818E-2,-9.207143E-2],"categories":[],"categories_nodes":[],"categories_segments":[],"categories_sizes":[],"default_left":[0,0,0,0,0,0,0,0,0,0,0,0,0,0,0,0,0,0,0,0,0,0,0],"id":27,"left_children":[1,3,5,7,-1,9,11,-1,-1,13,15,-1,-1,-1,-1,17,-1,19,21,-1,-1,-1,-1],"loss_changes":[2.2743668E-1,1.7744221E-1,2.6018173E-1,3.5959616E-1,0E0,2.5455227E-1,1.0237458E-1,0E0,0E0,2.2161846E-1,3.6188868E-1,0E0,0E0,0E0,0E0,3.3134866E-1,0E0,1.09877944E-1,2.6528415E-1,0E0,0E0,0E0,0E0],"parents":[2147483647,0,0,1,1,2,2,3,3,5,5,6,6,9,9,10,10,15,15,17,17,18,18],"right_children":[2,4,6,8,-1,10,12,-1,-1,14,16,-1,-1,-1,-1,18,-1,20,22,-1,-1,-1,-1],"split_conditions":[1E0,1E0,2.74E2,3.09E2,-2.9285692E-2,5.1E1,1.32E2,1.4006977E-1,-3.2791678E-2,1.59E2,6.6E1,-1.2430819E-2,-1.3418846E-1,-1.0856484E-1,2.4365513E-2,1.55E2,-7.271942E-2,1.43E2,1E0,3.4999203E-2,1.6194063E-1,6.056818E-2,-9.207143E-2],"split_indices":[1,8,4,4,0,0,3,0,0,7,0,0,0,0,0,7,0,7,11,0,0,0,0],"split_type":[0,0,0,0,0,0,0,0,0,0,0,0,0,0,0,0,0,0,0,0,0,0,0],"sum_hessian":[1.6452507E1,4.413399E0,1.2039107E1,3.2375896E0,1.1758095E0,9.774878E0,2.2642293E0,2.0507932E0,1.1867963E0,3.096617E0,6.678261E0,1.2167256E0,1.0475038E0,1.6614205E0,1.4351966E0,5.4183416E0,1.2599193E0,3.2716281E0,2.1467133E0,1.7498527E0,1.5217756E0,1.1131899E0,1.0335234E0],"tree_param":{"num_deleted":"0","num_feature":"13","num_nodes":"23","size_leaf_vector":"1"}},{"base_weights":[2.5932416E-3,9.3376316E-2,-1.3028546E-1,2.0007184E-1,-9.1877155E-2,-3.364814E-1,9.488728E-2,2.916908E-1,-5.3098224E-2,-9.782207E-2,1.1419845E-1,-1.380769E-1,-1.1178227E-2,7.386901E-2,-3.795692E-2,6.6426927E-3,3.599543E-1,2.0289226E-3,5.023025E-2,3.2675095E-2,4.3585396E-1,2.5670553E-2,1.7010957E-1],"categories":[],"categories_nodes":[],"categories_segments":[],"categories_sizes":[],"default_left":[0,0,0,0,0,0,0,0,0,0,0,0,0,0,0,0,0,0,0,0,0,0,0],"id":28,"left_children":[1,3,5,7,9,11,13,15,-1,-1,17,-1,-1,-1,-1,-1,19,-1,-1,-1,21,-1,-1],"loss_changes":[2.1741307E-1,2.2969502E-1,3.7195832E-1,2.9685515E-1,2.5887543E-1,1.3258097E-1,1.7459582E-1,1.0406047E-1,0E0,0E0,1.7075155E-2,0E0,0E0,0E0,0E0,0E0,4.3845236E-2,0E0,0E0,0E0,1.0526729E-1,0E0,0E0],"parents":[2147483647,0,0,1,1,2,2,3,3,4,4,5,5,6,6,7,7,10,10,16,16,20,20],"right_children":[2,4,6,8,10,12,14,16,-1,-1,18,-1,-1,-1,-1,-1,20,-1,-1,-1,22,-1,-1],"split_conditions":[1E0,3E0,1E0,3.26E2,5.2E1,2E0,1.55E2,2.05E2,-5.3098224E-2,-9.782207E-2,5.1284003E-1,-1.380769E-1,-1.1178227E-2,7.386901E-2,-3.795692E-2,6.6426927E-3,1.22E2,2.0289226E-3,5.023025E-2,3.2675095E-2,1.5E2,2.5670553E-2,1.7010957E-1],"split_indices":[11,12,6,4,0,2,7,4,0,0,9,0,0,0,0,0,3,0,0,0,7,0,0],"split_type":[0,0,0,0,0,0,0,0,0,0,0,0,0,0,0,0,0,0,0,0,0,0,0],"sum_hessian":[1.6014439E1,9.690884E0,6.3235555E0,6.0985017E0,3.592382E0,3.042835E0,3.2807207E0,5.0885196E0,1.0099821E0,1.4089116E0,2.1834702E0,1.771752E0,1.271083E0,1.8821193E0,1.3986014E0,1.2958864E0,3.7926333E0,1.0968827E0,1.0865875E0,1.4457717E0,2.3468616E0,1.0896007E0,1.257261E0],"tree_param":{"num_deleted":"0","num_feature":"13","num_nodes":"23","size_leaf_vector":"1"}},{"base_weights":[3.396834E-3,-1.0213734E-1,1.3619491E-1,1.3426855E-2,-2.532564E-1,9.624658E-2,3.2383755E-2,8.9076474E-2,-9.346586E-2,-1.1410159E-1,4.3790783E-3,1.6545932E-1,-5.3797673E-2,1.1264821E-1,-1.0981883E-1,-2.1687398E-2,1.03190556E-1,7.575919E-2,-2.88753E-2,-1.3564209E-2,3.7541157E-3],"categories":[],"categories_nodes":[],"categories_segments":[],"categories_sizes":[],"default_left":[0,0,0,0,0,0,0,0,0,0,0,0,0,0,0,0,0,0,0,0,0],"id":29,"left_children":[1,3,5,7,9,-1,11,-1,13,-1,-1,15,-1,17,-1,19,-1,-1,-1,-1,-1],"loss_changes":[2.4706544E-1,1.7526688E-1,1.39016E-1,2.2552145E-1,1.524292E-1,0E0,2.0158246E-1,0E0,3.502536E-1,0E0,0E0,1.5000544E-1,0E0,1.3816836E-1,0E0,2.9988063E-3,0E0,0E0,0E0,0E0,0E0],"parents":[2147483647,0,0,1,1,2,2,3,3,4,4,6,6,8,8,11,11,13,13,15,15],"right_children":[2,4,6,8,10,-1,12,-1,14,-1,-1,16,-1,18,-1,20,-1,-1,-1,-1,-1],"split_conditions":[2E0,1E0,1E0,1.16E2,6.4E1,9.624658E-2,5.7E1,8.9076474E-2,1E0,-1.1410159E-1,4.3790783E-3,5E1,-5.3797673E-2,1.41E2,-1.0981883E-1,2.27E2,1.03190556E-1,7.575919E-2,-2.88753E-2,-1.3564209E-2,3.7541157E-3],"split_indices":[10,11,1,3,0,0,0,0,8,0,0,0,0,3,0,4,0,0,0,0,0],"split_type":[0,0,0,0,0,0,0,0,0,0,0,0,0,0,0,0,0,0,0,0,0],"sum_hessian":[1.5636407E1,8.84121E0,6.7951965E0,5.526285E0,3.3149252E0,1.6932797E0,5.1019173E0,1.0263925E0,4.4998927E0,1.9634308E0,1.3514944E0,3.2668874E0,1.8350297E0,2.89654E0,1.6033527E0,2.0237365E0,1.2431508E0,1.6097568E0,1.2867832E0,1.0082003E0,1.0155362E0],"tree_param":{"num_deleted":"0","num_feature":"13","num_nodes":"21","size_leaf_vector":"1"}},{"base_weights":[5.57452E-3,-8.2769156E-2,1.15499E-1,-1.432717E-1,4.901958E-2,-5.6183316E-2,2.2157498E-1,2.156814E-2,-4.010193E-1,2.9362246E-2,-7.0467874E-2,-8.3236187E-4,1.0292439E-1,1.4007598E-1,-6.6527955E-2,-1.5262654E-1,-3.8190868E-2,-9.264984E-2,1.3685228E-1,1.8921148E-2,-5.623901E-2],"categories":[],"categories_nodes":[],"categories_segments":[],"categories_sizes":[],"default_left":[0,0,0,0,0,0,0,0,0,0,0,0,0,0,0,0,0,0,0,0,0],"id":30,"left_children":[1,3,5,7,-1,9,11,13,15,-1,-1,-1,-1,17,-1,-1,-1,19,-1,-1,-1],"loss_changes":[1.6744094E-1,1.6633426E-1,1.5197587E-1,3.5856456E-1,0E0,1.2550828E-1,1.3555755E-1,2.0327938E-1,3.147459E-2,0E0,0E0,0E0,0E0,3.8279864E-1,0E0,0E0,0E0,6.345928E-2,0E0,0E0,0E0],"parents":[2147483647,0,0,1,1,2,2,3,3,5,5,6,6,7,7,8,8,13,13,17,17],"right_children":[2,4,6,8,-1,10,12,14,16,-1,-1,-1,-1,18,-1,-1,-1,20,-1,-1,-1],"split_conditions":[2E0,3E0,1E0,1.4E2,4.901958E-2,1.62E2,1.54E2,1.55E2,1E0,2.9362246E-2,-7.0467874E-2,-8.3236187E-4,1.0292439E-1,1.45E2,-6.6527955E-2,-1.5262654E-1,-3.8190868E-2,1.1E0,1.3685228E-1,1.8921148E-2,-5.623901E-2],"split_indices":[10,2,2,3,0,7,7,7,9,0,0,0,0,7,0,0,0,9,0,0,0],"split_type":[0,0,0,0,0,0,0,0,0,0,0,0,0,0,0,0,0,0,0,0,0],"sum_hessian":[1.52577505E1,8.596214E0,6.6615357E0,7.2358065E0,1.3604083E0,2.7236688E0,3.9378672E0,4.9722047E0,2.2636018E0,1.7056412E0,1.0180277E0,1.7267529E0,2.2111144E0,3.6290727E0,1.3431319E0,1.008111E0,1.2554907E0,2.4973247E0,1.1317478E0,1.0718039E0,1.4255208E0],"tree_param":{"num_deleted":"0","num_feature":"13","num_nodes":"21","size_leaf_vector":"1"}},{"base_weights":[1.1823121E-3,1.6071492E-1,-6.3784376E-2,4.5219413E-3,1.0757845E-1,9.459386E-3,-8.5364364E-2,8.8711046E-2,-9.06688E-2,-6.1002444E-2,9.041525E-2,3.4495495E-2,-1.0529367E-1,2.3577726E-1,-1.1280813E-1,-3.3495158E-2,1.4719293E-1,-9.022789E-2,9.039326E-2],"categories":[],"categories_nodes":[],"categories_segments":[],"categories_sizes":[],"default_left":[0,0,0,0,0,0,0,0,0,0,0,0,0,0,0,0,0,0,0],"id":31,"left_children":[1,3,5,7,-1,9,-1,-1,-1,11,-1,13,-1,15,17,-1,-1,-1,-1],"loss_changes":[1.7537308E-1,1.4965613E-1,1.9732864E-1,4.2415795E-1,0E0,2.2421102E-1,0E0,0E0,0E0,2.5835642E-1,0E0,2.5193062E-1,0E0,3.6780834E-1,4.848328E-1,0E0,0E0,0E0,0E0],"parents":[2147483647,0,0,1,1,2,2,3,3,5,5,9,9,11,11,13,13,14,14],"right_children":[2,4,6,8,-1,10,-1,-1,-1,12,-1,14,-1,16,18,-1,-1,-1,-1],"split_conditions":[1E0,6.4E1,2.74E2,5.9E1,1.0757845E-1,1.55E2,-8.5364364E-2,8.8711046E-2,-9.06688E-2,2E0,9.041525E-2,1.49E2,-1.0529367E-1,1.25E2,1.69E2,-3.3495158E-2,1.4719293E-1,-9.022789E-2,9.039326E-2],"split_indices":[1,0,4,0,0,3,0,0,0,9,0,7,0,3,7,0,0,0,0],"split_type":[0,0,0,0,0,0,0,0,0,0,0,0,0,0,0,0,0,0,0],"sum_hessian":[1.4931794E1,3.8945377E0,1.1037256E1,2.7481701E0,1.1463674E0,9.006333E0,2.030923E0,1.4283419E0,1.3198283E0,7.892384E0,1.1139497E0,6.5998845E0,1.2924997E0,2.5351415E0,4.064743E0,1.3105506E0,1.2245909E0,2.9841137E0,1.0806293E0],"tree_param":{"num_deleted":"0","num_feature":"13","num_nodes":"19","size_leaf_vector":"1"}},{"base_weights":[8.802846E-3,9.717147E-2,-1.2278639E-1,1.9093658E-1,-6.960896E-2,-3.12457E-1,8.580888E-2,2.2588575E-2,3.063985E-1,-8.02225E-2,3.860403E-2,-1.2415772E-1,-1.5475265E-2,6.5900825E-2,-3.43749E-2,5.4848015E-2,-5.3451896E-2,2.3348982E-2,1.08621694E-1],"categories":[],"categories_nodes":[],"categories_segments":[],"categories_sizes":[],"default_left":[0,0,0,0,0,0,0,0,0,0,0,0,0,0,0,0,0,0,0],"id":32,"left_children":[1,3,5,7,9,11,13,15,17,-1,-1,-1,-1,-1,-1,-1,-1,-1,-1],"loss_changes":[1.9236365E-1,1.6718593E-1,2.9092744E-1,1.2071857E-1,2.0205848E-1,7.6841295E-2,1.3149591E-1,1.5324508E-1,2.0373404E-2,0E0,0E0,0E0,0E0,0E0,0E0,0E0,0E0,0E0,0E0],"parents":[2147483647,0,0,1,1,2,2,3,3,4,4,5,5,6,6,7,7,8,8],"right_children":[2,4,6,8,10,12,14,16,18,-1,-1,-1,-1,-1,-1,-1,-1,-1,-1],"split_conditions":[1E0,2.61E2,1E0,5.3E1,2.89E2,2E0,1.55E2,4.6E1,1.37E2,-8.02225E-2,3.860403E-2,-1.2415772E-1,-1.5475265E-2,6.5900825E-2,-3.43749E-2,5.4848015E-2,-5.3451896E-2,2.3348982E-2,1.08621694E-1],"split_indices":[11,4,6,0,4,2,7,0,7,0,0,0,0,0,0,0,0,0,0],"split_type":[0,0,0,0,0,0,0,0,0,0,0,0,0,0,0,0,0,0,0],"sum_hessian":[1.4516574E1,8.840979E0,5.6755958E0,5.5665736E0,3.2744045E0,2.7118585E0,2.9637372E0,2.7510588E0,2.8155148E0,1.4647214E0,1.809683E0,1.530506E0,1.1813524E0,1.719154E0,1.2445834E0,1.5796182E0,1.1714406E0,1.02115E0,1.7943649E0],"tree_param":{"num_deleted":"0","num_feature":"13","num_nodes":"19","size_leaf_vector":"1"}},{"base_weights":[5.0100586E-3,8.657153E-2,-1.18705675E-1,1.1870029E-1,-1.6216243E-2,-9.1736995E-2,4.952218E-4,7.507909E-2,-7.628214E-2,-5.1905315E-2,9.8245874E-2,-1.3342728E-1,2.1251215E-1,-4.126318E-2,8.9074165E-2,-7.6563135E-2,1.4790234E-2,1.07678205E-1,-3.1268638E-2],"categories":[],"categories_nodes":[],"categories_segments":[],"categories_sizes":[],"default_left":[0,0,0,0,0,0,0,0,0,0,0,0,0,0,0,0,0,0,0],"id":33,"left_children":[1,3,5,-1,7,-1,9,11,-1,-1,13,15,17,-1,-1,-1,-1,-1,-1],"loss_changes":[1.6406879E-1,3.1662786E-1,1.446035E-1,0E0,1.9921593E-1,0E0,1.0103915E-1,2.2214065E-1,0E0,0E0,2.1918456E-1,8.6037666E-2,2.443231E-1,0E0,0E0,0E0,0E0,0E0,0E0],"parents":[2147483647,0,0,1,1,2,2,4,4,6,6,7,7,10,10,11,11,12,12],"right_children":[2,4,6,-1,8,-1,10,12,-1,-1,14,16,18,-1,-1,-1,-1,-1,-1],"split_conditions":[3E0,4.7E1,5.2E1,1.1870029E-1,2E0,-9.1736995E-2,1.44E2,1E-1,-7.628214E-2,-5.1905315E-2,1E0,2.5E2,1.54E2,-4.126318E-2,8.9074165E-2,-7.6563135E-2,1.4790234E-2,1.07678205E-1,-3.1268638E-2],"split_indices":[12,0,0,0,11,0,7,9,0,0,6,4,7,0,0,0,0,0,0],"split_type":[0,0,0,0,0,0,0,0,0,0,0,0,0,0,0,0,0,0,0],"sum_hessian":[1.4241387E1,8.763895E0,5.4774923E0,1.4760022E0,7.287893E0,1.5225447E0,3.9549475E0,5.762562E0,1.5253309E0,1.147709E0,2.8072386E0,2.3009007E0,3.4616613E0,1.4243789E0,1.3828597E0,1.142673E0,1.1582277E0,2.2762594E0,1.1854019E0],"tree_param":{"num_deleted":"0","num_feature":"13","num_nodes":"19","size_leaf_vector":"1"}},{"base_weights":[1.3704845E-3,-8.732164E-2,1.0960436E-1,-1.4654528E-1,4.5271464E-2,-4.9489476E-2,2.0947556E-1,6.2594176E-3,-1.1164454E-1,2.6773963E-2,-5.9199814E-2,1.5121195E-3,9.428136E-2,1.3985479E-1,-4.2884585E-2,-1.6152008E-2,7.3871315E-2],"categories":[],"categories_nodes":[],"categories_segments":[],"categories_sizes":[],"default_left":[0,0,0,0,0,0,0,0,0,0,0,0,0,0,0,0,0],"id":34,"left_children":[1,3,5,7,-1,9,11,13,-1,-1,-1,-1,-1,15,-1,-1,-1],"loss_changes":[1.5279807E-1,1.4566411E-1,1.24183275E-1,2.615953E-1,0E0,9.0865865E-2,9.6790776E-2,1.2897414E-1,0E0,0E0,0E0,0E0,0E0,8.311172E-2,0E0,0E0,0E0],"parents":[2147483647,0,0,1,1,2,2,3,3,5,5,6,6,7,7,13,13],"right_children":[2,4,6,8,-1,10,12,14,-1,-1,-1,-1,-1,16,-1,-1,-1],"split_conditions":[2E0,3E0,1E0,1.4E2,4.5271464E-2,5.8E1,1.54E2,1E0,-1.1164454E-1,2.6773963E-2,-5.9199814E-2,1.5121195E-3,9.428136E-2,1.45E2,-4.2884585E-2,-1.6152008E-2,7.3871315E-2],"split_indices":[10,2,2,3,0,0,7,11,0,0,0,0,0,7,0,0,0],"split_type":[0,0,0,0,0,0,0,0,0,0,0,0,0,0,0,0,0],"sum_hessian":[1.3920295E1,7.757024E0,6.163271E0,6.52079E0,1.2362336E0,2.5714474E0,3.5918233E0,4.4672823E0,2.0535078E0,1.5310522E0,1.0403953E0,1.5724288E0,2.0193946E0,2.3900266E0,2.0772557E0,1.0224048E0,1.3676219E0],"tree_param":{"num_deleted":"0","num_feature":"13","num_nodes":"17","size_leaf_vector":"1"}},{"base_weights":[1.7779929E-3,1.670355E-1,-6.622164E-2,2.132829E-2,1.0103808E-1,1.159271E-3,-7.954478E-2,7.849871E-2,-6.8894476E-2,-6.302949E-2,7.8338325E-2,2.6816977E-2,-9.878514E-2,-8.0609456E-2,7.232656E-2,-5.075092E-2,4.363175E-2],"categories":[],"categories_nodes":[],"categories_segments":[],"categories_sizes":[],"default_left":[0,0,0,0,0,0,0,0,0,0,0,0,0,0,0,0,0],"id":35,"left_children":[1,3,5,7,-1,9,-1,-1,-1,11,-1,13,-1,15,-1,-1,-1],"loss_changes":[1.7581671E-1,1.0555847E-1,1.49135E-1,2.724316E-1,0E0,1.7147484E-1,0E0,0E0,0E0,2.063223E-1,0E0,1.828049E-1,0E0,1.3424249E-1,0E0,0E0,0E0],"parents":[2147483647,0,0,1,1,2,2,3,3,5,5,9,9,11,11,13,13],"right_children":[2,4,6,8,-1,10,-1,-1,-1,12,-1,14,-1,16,-1,-1,-1],"split_conditions":[1E0,6.4E1,2.74E2,5.9E1,1.0103808E-1,1.55E2,-7.954478E-2,7.849871E-2,-6.8894476E-2,2E0,7.8338325E-2,1E0,-9.878514E-2,1.65E2,7.232656E-2,-5.075092E-2,4.363175E-2],"split_indices":[1,0,4,0,0,3,0,0,0,9,0,8,0,7,0,0,0],"split_type":[0,0,0,0,0,0,0,0,0,0,0,0,0,0,0,0,0],"sum_hessian":[1.3661275E1,3.5579867E0,1.0103288E1,2.5203514E0,1.0376352E0,8.2896E0,1.8136872E0,1.2657232E0,1.2546282E0,7.255657E0,1.0339435E0,6.0973954E0,1.1582618E0,4.476747E0,1.6206486E0,3.3973656E0,1.0793815E0],"tree_param":{"num_deleted":"0","num_feature":"13","num_nodes":"17","size_leaf_vector":"1"}},{"base_weights":[6.5446594E-3,7.951694E-2,-1.0198545E-1,1.4932378E-1,-9.0679E-2,-2.7873173E-1,8.3509244E-2,3.2504007E-1,-1.3490714E-2,2.7247867E-2,-7.072146E-2,-1.07762955E-1,-1.6832903E-2,6.4644724E-2,-3.4270294E-2,1.663734E-2,1.3031615E-1,8.578087E-2,-7.45899E-2],"categories":[],"categories_nodes":[],"categories_segments":[],"categories_sizes":[],"default_left":[0,0,0,0,0,0,0,0,0,0,0,0,0,0,0,0,0,0,0],"id":36,"left_children":[1,3,5,7,9,11,13,15,17,-1,-1,-1,-1,-1,-1,-1,-1,-1,-1],"loss_changes":[1.2222189E-1,1.2257846E-1,2.2756493E-1,2.0138948E-1,1.08074866E-1,4.114163E-2,1.2403795E-1,7.471034E-2,3.903508E-1,0E0,0E0,0E0,0E0,0E0,0E0,0E0,0E0,0E0,0E0],"parents":[2147483647,0,0,1,1,2,2,3,3,4,4,5,5,6,6,7,7,8,8],"right_children":[2,4,6,8,10,12,14,16,18,-1,-1,-1,-1,-1,-1,-1,-1,-1,-1],"split_conditions":[1E0,2.73E2,1E0,1E0,1.58E2,2E0,1.55E2,2.28E2,2.23E2,2.7247867E-2,-7.072146E-2,-1.07762955E-1,-1.6832903E-2,6.4644724E-2,-3.4270294E-2,1.663734E-2,1.3031615E-1,8.578087E-2,-7.45899E-2],"split_indices":[11,4,6,6,7,2,7,4,4,0,0,0,0,0,0,0,0,0,0],"split_type":[0,0,0,0,0,0,0,0,0,0,0,0,0,0,0,0,0,0,0],"sum_hessian":[1.3408685E1,8.1776285E0,5.2310557E0,5.8860626E0,2.2915661E0,2.4213054E0,2.8097503E0,2.351664E0,3.5343986E0,1.18398E0,1.107586E0,1.3277731E0,1.0935323E0,1.631313E0,1.1784374E0,1.1135387E0,1.2381253E0,1.4596663E0,2.0747323E0],"tree_param":{"num_deleted":"0","num_feature":"13","num_nodes":"19","size_leaf_vector":"1"}},{"base_weights":[6.23415E-3,1.482211E-1,-5.2531704E-2,1.1689538E-3,7.96975E-2,-1.0195104E-1,4.2484507E-2,2.0815318E-2,-2.6186436E-1,2.6669514E-1,-2.0584778E-1,-1.2795824E-1,-5.063252E-3,3.3025386E-5,1.16156936E-1,-8.760895E-2,2.098994E-3],"categories":[],"categories_nodes":[],"categories_segments":[],"categories_sizes":[],"default_left":[0,0,0,0,0,0,0,0,0,0,0,0,0,0,0,0,0],"id":37,"left_children":[1,3,5,-1,-1,7,-1,9,11,13,15,-1,-1,-1,-1,-1,-1],"loss_changes":[1.2595564E-1,7.3665254E-2,1.17626555E-1,0E0,0E0,1.851647E-1,0E0,3.9513674E-1,1.5614852E-1,1.0801409E-1,7.0665225E-2,0E0,0E0,0E0,0E0,0E0,0E0],"parents":[2147483647,0,0,1,1,2,2,5,5,7,7,8,8,9,9,10,10],"right_children":[2,4,6,-1,-1,8,-1,10,12,14,16,-1,-1,-1,-1,-1,-1],"split_conditions":[1E0,2E0,1.69E2,1.1689538E-3,7.96975E-2,2.46E2,4.2484507E-2,1.49E2,1.45E2,1.35E2,1.6E2,-1.2795824E-1,-5.063252E-3,3.3025386E-5,1.16156936E-1,-8.760895E-2,2.098994E-3],"split_indices":[1,10,7,0,0,4,0,7,7,7,7,0,0,0,0,0,0],"split_type":[0,0,0,0,0,0,0,0,0,0,0,0,0,0,0,0,0],"sum_hessian":[1.3162218E1,3.4073431E0,9.754875E0,1.9922028E0,1.4151403E0,8.154143E0,1.6007311E0,5.10491E0,3.049234E0,2.363939E0,2.7409708E0,1.3804022E0,1.6688317E0,1.0474502E0,1.3164889E0,1.6861886E0,1.0547824E0],"tree_param":{"num_deleted":"0","num_feature":"13","num_nodes":"17","size_leaf_vector":"1"}},{"base_weights":[5.7630218E-3,5.440544E-2,-1.6794218E-1,1.3949308E-1,-8.031425E-2,1.1770787E-2,-9.434162E-2,9.944765E-2,5.663851E-2,-1.9240235E-1,3.4408044E-2,6.2083673E-2,-6.6247836E-2,8.621216E-3,-8.808431E-2,3.7521522E-2,-8.527513E-2],"categories":[],"categories_nodes":[],"categories_segments":[],"categories_sizes":[],"default_left":[0,0,0,0,0,0,0,0,0,0,0,0,0,0,0,0,0],"id":38,"left_children":[1,3,5,7,9,-1,-1,-1,11,13,-1,-1,15,-1,-1,-1,-1],"loss_changes":[1.2670416E-1,1.444666E-1,1.12175025E-1,1.0038629E-1,1.3430558E-1,0E0,0E0,0E0,1.3263641E-1,8.9777306E-2,0E0,0E0,2.1489558E-1,0E0,0E0,0E0,0E0],"parents":[2147483647,0,0,1,1,2,2,3,3,4,4,8,8,9,9,12,12],"right_children":[2,4,6,8,10,-1,-1,-1,12,14,-1,-1,16,-1,-1,-1,-1],"split_conditions":[2E0,3E0,1.32E2,4.6E1,5.9E1,1.1770787E-2,-9.434162E-2,9.944765E-2,1E0,2.3668423E-2,3.4408044E-2,6.2083673E-2,1.53E2,8.621216E-3,-8.808431E-2,3.7521522E-2,-8.527513E-2],"split_indices":[11,12,3,0,0,0,0,0,1,9,0,0,7,0,0,0,0],"split_type":[0,0,0,0,0,0,0,0,0,0,0,0,0,0,0,0,0],"sum_hessian":[1.2914197E1,1.0625538E1,2.2886596E0,6.490665E0,4.1348724E0,1.2514585E0,1.037201E0,1.0519913E0,5.4386735E0,2.6341531E0,1.5007194E0,2.1387026E0,3.2999709E0,1.0519023E0,1.582251E0,1.9845811E0,1.3153898E0],"tree_param":{"num_deleted":"0","num_feature":"13","num_nodes":"17","size_leaf_vector":"1"}},{"base_weights":[3.0103426E-3,-6.270017E-2,3.6134604E-2,1.599467E-1,-5.5847622E-2,-2.56147E-2,2.917712E-1,-2.1521571E-1,8.774298E-2,-1.5188402E-2,1.2917045E-1,-9.206483E-2,-2.9937963E-3,7.996617E-2,-9.765428E-2,-7.603566E-2,3.5342272E-2],"categories":[],"categories_nodes":[],"categories_segments":[],"categories_sizes":[],"default_left":[0,0,0,0,0,0,0,0,0,0,0,0,0,0,0,0,0],"id":39,"left_children":[1,-1,3,5,7,-1,9,11,13,-1,-1,-1,-1,-1,15,-1,-1],"loss_changes":[1.0393946E-1,0E0,1.5382944E-1,2.0867015E-1,2.0289347E-1,0E0,2.0820624E-1,7.4087024E-2,1.8980609E-1,0E0,0E0,0E0,0E0,0E0,1.358461E-1,0E0,0E0],"parents":[2147483647,0,0,2,2,3,3,4,4,6,6,7,7,8,8,14,14],"right_children":[2,-1,4,6,8,-1,10,12,14,-1,-1,-1,-1,-1,16,-1,-1],"split_conditions":[2E0,-6.270017E-2,5.7E1,1E0,6.2E1,-2.56147E-2,1.2E2,5E-1,6.8814313E-1,-1.5188402E-2,1.2917045E-1,-9.206483E-2,-2.9937963E-3,7.996617E-2,2.74E2,-7.603566E-2,3.5342272E-2],"split_indices":[12,0,0,2,0,0,3,9,9,0,0,0,0,0,4,0,0],"split_type":[0,0,0,0,0,0,0,0,0,0,0,0,0,0,0,0,0],"sum_hessian":[1.2725099E1,1.0020317E0,1.1723066E1,4.6820016E0,7.041065E0,1.7596141E0,2.9223874E0,3.1007714E0,3.9402938E0,1.0261667E0,1.8962207E0,1.8010734E0,1.2996981E0,1.7829447E0,2.157349E0,1.1496966E0,1.0076526E0],"tree_param":{"num_deleted":"0","num_feature":"13","num_nodes":"17","size_leaf_vector":"1"}},{"base_weights":[3.8255748E-4,3.5920653E-2,-5.9043903E-2,8.799965E-2,-5.3013913E-2,8.77307E-2,1.8152613E-2,-5.3067602E-2,8.538137E-2,1.6643742E-1,-5.4606166E-2,7.4809147E-3,9.9174306E-2],"categories":[],"categories_nodes":[],"categories_segments":[],"categories_sizes":[],"default_left":[0,0,0,0,0,0,0,0,0,0,0,0,0],"id":40,"left_children":[1,3,-1,5,-1,-1,7,-1,9,11,-1,-1,-1],"loss_changes":[1.0147732E-1,1.5131572E-1,0E0,1.4484672E-1,0E0,0E0,1.3185751E-1,0E0,1.8843389E-1,1.3393189E-1,0E0,0E0,0E0],"parents":[2147483647,0,0,1,1,3,3,6,6,8,8,9,9],"right_children":[2,4,-1,6,-1,-1,8,-1,10,12,-1,-1,-1],"split_conditions":[2.3920069E0,1.52E2,-5.9043903E-2,4.7E1,-5.3013913E-2,8.77307E-2,5.3E1,-5.3067602E-2,3.11E2,2.62E2,-5.4606166E-2,7.4809147E-3,9.9174306E-2],"split_indices":[9,3,0,0,0,0,0,0,4,4,0,0,0],"split_type":[0,0,0,0,0,0,0,0,0,0,0,0,0],"sum_hessian":[1.24715E1,1.1260079E1,1.2114211E0,9.515623E0,1.7444557E0,1.6116545E0,7.9039693E0,1.6079053E0,6.296064E0,5.12126E0,1.1748034E0,3.3689518E0,1.7523085E0],"tree_param":{"num_deleted":"0","num_feature":"13","num_nodes":"13","size_leaf_vector":"1"}},{"base_weights":[-1.4475614E-3,6.863426E-2,-1.0391189E-1,1.4194122E-1,-9.254251E-2,6.29635E-2,-2.7082664E-1,-2.702323E-2,2.8615478E-1,-5.413318E-2,9.031325E-3,-3.5050184E-2,7.0584744E-2,-1.08967945E-1,-1.274401E-2,4.4441253E-2,-6.2254373E-2,5.0580315E-3,1.17913336E-1],"categories":[],"categories_nodes":[],"categories_segments":[],"categories_sizes":[],"default_left":[0,0,0,0,0,0,0,0,0,0,0,0,0,0,0,0,0,0,0],"id":41,"left_children":[1,3,5,7,9,11,13,15,17,-1,-1,-1,-1,-1,-1,-1,-1,-1,-1],"loss_changes":[1.0286823E-1,1.1379467E-1,1.7896105E-1,1.6004056E-1,4.0671952E-2,1.4268504E-1,4.986535E-2,1.50625E-1,9.2927665E-2,0E0,0E0,0E0,0E0,0E0,0E0,0E0,0E0,0E0,0E0],"parents":[2147483647,0,0,1,1,2,2,3,3,4,4,5,5,6,6,7,7,8,8],"right_children":[2,4,6,8,10,12,14,16,18,-1,-1,-1,-1,-1,-1,-1,-1,-1,-1],"split_conditions":[1E0,2.71E2,5.1284003E-1,1.29E2,3E-1,1E-1,6.2E1,1.16E2,2.27E2,-5.413318E-2,9.031325E-3,-3.5050184E-2,7.0584744E-2,-1.08967945E-1,-1.274401E-2,4.4441253E-2,-6.2254373E-2,5.0580315E-3,1.17913336E-1],"split_indices":[11,4,9,3,9,9,0,3,4,0,0,0,0,0,0,0,0,0,0],"split_type":[0,0,0,0,0,0,0,0,0,0,0,0,0,0,0,0,0,0,0],"sum_hessian":[1.2332104E1,7.519326E0,4.812777E0,5.2505827E0,2.2687435E0,2.718099E0,2.094678E0,2.7920082E0,2.4585748E0,1.0470631E0,1.2216804E0,1.4877611E0,1.2303381E0,1.0707295E0,1.0239486E0,1.5078982E0,1.28411E0,1.0275441E0,1.4310306E0],"tree_param":{"num_deleted":"0","num_feature":"13","num_nodes":"19","size_leaf_vector":"1"}},{"base_weights":[-2.931025E-3,-8.58488E-2,9.836781E-2,-1.445432E-1,4.4474788E-2,-6.627027E-2,2.0990755E-1,-2.5755578E-1,1.079517E-3,-5.136997E-2,2.0971164E-2,6.693689E-3,8.7407455E-2,-1.6319951E-2,-9.826099E-2,3.94621E-2,-5.4708775E-2],"categories":[],"categories_nodes":[],"categories_segments":[],"categories_sizes":[],"default_left":[0,0,0,0,0,0,0,0,0,0,0,0,0,0,0,0,0],"id":42,"left_children":[1,3,5,7,-1,9,11,13,15,-1,-1,-1,-1,-1,-1,-1,-1],"loss_changes":[1.1886897E-1,1.280959E-1,1.3113381E-1,1.10759124E-1,0E0,5.968232E-2,5.5310443E-2,3.597945E-2,1.1802223E-1,0E0,0E0,0E0,0E0,0E0,0E0,0E0,0E0],"parents":[2147483647,0,0,1,1,2,2,3,3,5,5,6,6,7,7,8,8],"right_children":[2,4,6,8,-1,10,12,14,16,-1,-1,-1,-1,-1,-1,-1,-1],"split_conditions":[2E0,2.98E2,1E0,2E0,4.4474788E-2,1E0,1.54E2,1.33E2,2.52E2,-5.136997E-2,2.0971164E-2,6.693689E-3,8.7407455E-2,-1.6319951E-2,-9.826099E-2,3.94621E-2,-5.4708775E-2],"split_indices":[10,4,2,2,0,6,7,7,4,0,0,0,0,0,0,0,0],"split_type":[0,0,0,0,0,0,0,0,0,0,0,0,0,0,0,0,0],"sum_hessian":[1.2146563E1,6.7631397E0,5.383423E0,5.7132373E0,1.0499027E0,2.3381133E0,3.0453093E0,2.7840133E0,2.9292238E0,1.1749811E0,1.1631323E0,1.3076034E0,1.7377061E0,1.1686754E0,1.6153378E0,1.877156E0,1.0520679E0],"tree_param":{"num_deleted":"0","num_feature":"13","num_nodes":"17","size_leaf_vector":"1"}},{"base_weights":[-3.758883E-3,1.1456239E-1,-5.266786E-2,-5.8054808E-3,6.991318E-2,5.381445E-3,-7.1741216E-2,-1.6406542E-1,9.8134324E-2,1.6221322E-2,-8.7928385E-2,1.9649999E-1,-5.510127E-2,9.85994E-2,6.2496745E-4,5.488282E-2,-5.5204947E-2],"categories":[],"categories_nodes":[],"categories_segments":[],"categories_sizes":[],"default_left":[0,0,0,0,0,0,0,0,0,0,0,0,0,0,0,0,0],"id":43,"left_children":[1,3,5,-1,-1,7,-1,9,11,-1,-1,13,-1,-1,15,-1,-1],"loss_changes":[8.11361E-2,6.972835E-2,1.0809508E-1,0E0,0E0,1.497362E-1,0E0,1.1104124E-1,2.0575598E-1,0E0,0E0,1.2975448E-1,0E0,0E0,1.3547869E-1,0E0,0E0],"parents":[2147483647,0,0,1,1,2,2,5,5,7,7,8,8,11,11,14,14],"right_children":[2,4,6,-1,-1,8,-1,10,12,-1,-1,14,-1,-1,16,-1,-1],"split_conditions":[1E0,2E0,2.78E2,-5.8054808E-3,6.991318E-2,5.1E1,-7.1741216E-2,4.4E1,6.6E1,1.6221322E-2,-8.7928385E-2,1E0,-5.510127E-2,9.85994E-2,1.48E2,5.488282E-2,-5.5204947E-2],"split_indices":[1,10,4,0,0,0,0,0,0,0,0,11,0,0,7,0,0],"split_type":[0,0,0,0,0,0,0,0,0,0,0,0,0,0,0,0,0],"sum_hessian":[1.1977831E1,3.1105018E0,8.867329E0,1.8529128E0,1.257589E0,7.502795E0,1.3645337E0,2.382128E0,5.1206675E0,1.1012672E0,1.2808607E0,4.020129E0,1.1005383E0,1.9956526E0,2.0244763E0,1.0232772E0,1.0011992E0],"tree_param":{"num_deleted":"0","num_feature":"13","num_nodes":"17","size_leaf_vector":"1"}},{"base_weights":[-5.3984113E-3,-1.1651677E-1,4.839381E-2,-2.9549867E-1,5.3558704E-2,8.0676764E-2,-1.9464852E-2,-2.7837427E-2,-1.0605463E-1,1.416116E-1,-2.0710403E-1,-5.525603E-2,1.1262066E-1,5.0612614E-3,-1.0382999E-1,5.301121E-2,-6.9926016E-2],"categories":[],"categories_nodes":[],"categories_segments":[],"categories_sizes":[],"default_left":[0,0,0,0,0,0,0,0,0,0,0,0,0,0,0,0,0],"id":44,"left_children":[1,3,5,7,-1,-1,9,-1,-1,11,13,15,-1,-1,-1,-1,-1],"loss_changes":[8.205404E-2,2.8846574E-1,1.447168E-1,4.2990744E-3,0E0,0E0,2.7293602E-1,0E0,0E0,2.4769121E-1,1.3438512E-1,1.8756223E-1,0E0,0E0,0E0,0E0,0E0],"parents":[2147483647,0,0,1,1,2,2,3,3,6,6,9,9,10,10,11,11],"right_children":[2,4,6,8,-1,-1,10,-1,-1,12,14,16,-1,-1,-1,-1,-1],"split_conditions":[1.43E2,6.4E1,1.49E2,2.42E2,5.3558704E-2,8.0676764E-2,5.8E1,-2.7837427E-2,-1.0605463E-1,2.44E2,1.58E2,2.23E2,1.1262066E-1,5.0612614E-3,-1.0382999E-1,5.301121E-2,-6.9926016E-2],"split_indices":[7,0,7,4,0,0,0,0,0,4,7,4,0,0,0,0,0],"split_type":[0,0,0,0,0,0,0,0,0,0,0,0,0,0,0,0,0],"sum_hessian":[1.1784253E1,3.4635534E0,8.3207E0,2.1548402E0,1.3087131E0,1.2606919E0,7.0600076E0,1.0579196E0,1.0969206E0,3.9308865E0,3.1291208E0,2.5485148E0,1.3823717E0,1.5347241E0,1.5943968E0,1.1086898E0,1.4398249E0],"tree_param":{"num_deleted":"0","num_feature":"13","num_nodes":"17","size_leaf_vector":"1"}},{"base_weights":[-4.1010156E-3,3.0639222E-2,-5.6585122E-2,7.901524E-2,-4.8637573E-2,2.0648822E-2,8.699447E-2,1.413197E-1,-8.024879E-2,-3.538901E-2,9.2979975E-2,-7.98565E-2,5.9804555E-2,6.465954E-2,-4.9488727E-2],"categories":[],"categories_nodes":[],"categories_segments":[],"categories_sizes":[],"default_left":[0,0,0,0,0,0,0,0,0,0,0,0,0,0,0],"id":45,"left_children":[1,3,-1,5,-1,7,-1,9,11,-1,-1,-1,13,-1,-1],"loss_changes":[8.618133E-2,1.1926536E-1,0E0,1.14658624E-1,0E0,1.1789235E-1,0E0,2.2662224E-1,1.5664732E-1,0E0,0E0,0E0,1.7202446E-1,0E0,0E0],"parents":[2147483647,0,0,1,1,3,3,5,5,7,7,8,8,12,12],"right_children":[2,4,-1,6,-1,8,-1,10,12,-1,-1,-1,14,-1,-1],"split_conditions":[2.3920069E0,1.52E2,-5.6585122E-2,1.7E2,-4.8637573E-2,2.37E2,8.699447E-2,2.07E2,2.62E2,-3.538901E-2,9.2979975E-2,-7.98565E-2,3.11E2,6.465954E-2,-4.9488727E-2],"split_indices":[9,3,0,7,0,4,0,4,4,0,0,0,4,0,0],"split_type":[0,0,0,0,0,0,0,0,0,0,0,0,0,0,0],"sum_hessian":[1.1542995E1,1.0415869E1,1.1271266E0,8.798018E0,1.6178497E0,7.751381E0,1.0466377E0,3.347379E0,4.404002E0,1.4374115E0,1.9099674E0,1.5051258E0,2.8988764E0,1.7367066E0,1.1621698E0],"tree_param":{"num_deleted":"0","num_feature":"13","num_nodes":"15","size_leaf_vector":"1"}},{"base_weights":[-4.7691544E-3,6.9342375E-2,-1.134593E-1,1.8730885E-1,-1.9408178E-2,-7.921352E-2,5.335165E-2,-9.079896E-3,1.0445409E-1,-1.4051273E-1,5.6065448E-2,4.9185373E-2,-2.5605427E-2,1.5300771E-2,-1.074528E-1],"categories":[],"categories_nodes":[],"categories_segments":[],"categories_sizes":[],"default_left":[0,0,0,0,0,0,0,0,0,0,0,0,0,0,0],"id":46,"left_children":[1,3,5,7,9,-1,11,-1,-1,13,-1,-1,-1,-1,-1],"loss_changes":[1.07406415E-1,8.70565E-2,1.494593E-1,1.3356179E-1,1.62496E-1,0E0,6.5978445E-2,0E0,0E0,1.852968E-1,0E0,0E0,0E0,0E0,0E0],"parents":[2147483647,0,0,1,1,2,2,3,3,4,4,6,6,9,9],"right_children":[2,4,6,8,10,-1,12,-1,-1,14,-1,-1,-1,-1,-1],"split_conditions":[1E0,1.23E2,1E0,4.9E1,1.1E0,-7.921352E-2,4.1352648E-1,-9.079896E-3,1.0445409E-1,2.73E2,5.6065448E-2,4.9185373E-2,-2.5605427E-2,1.5300771E-2,-1.074528E-1],"split_indices":[11,3,6,0,9,0,9,0,0,4,0,0,0,0,0],"split_type":[0,0,0,0,0,0,0,0,0,0,0,0,0,0,0],"sum_hessian":[1.1357106E1,6.967952E0,4.3891544E0,2.5147967E0,4.453155E0,2.0004141E0,2.3887403E0,1.4141073E0,1.1006895E0,3.0068488E0,1.4463063E0,1.2277344E0,1.1610059E0,2.006804E0,1.0000448E0],"tree_param":{"num_deleted":"0","num_feature":"13","num_nodes":"15","size_leaf_vector":"1"}},{"base_weights":[-3.1484242E-3,6.874597E-2,-1.08710036E-1,2.118744E-1,-6.553441E-2,2.1443333E-2,-1.9385347E-1,8.460673E-3,1.0578652E-1,-1.9089022E-1,5.4320272E-2,9.169064E-3,-9.621338E-2,1.604E-2,-1.15689404E-1],"categories":[],"categories_nodes":[],"categories_segments":[],"categories_sizes":[],"default_left":[0,0,0,0,0,0,0,0,0,0,0,0,0,0,0],"id":47,"left_children":[1,3,5,7,9,-1,11,-1,-1,13,-1,-1,-1,-1,-1],"loss_changes":[9.988401E-2,1.6487023E-1,9.5483184E-2,9.446642E-2,1.8347175E-1,0E0,1.20336235E-1,0E0,0E0,1.9575441E-1,0E0,0E0,0E0,0E0,0E0],"parents":[2147483647,0,0,1,1,2,2,3,3,4,4,6,6,9,9],"right_children":[2,4,6,8,10,-1,12,-1,-1,14,-1,-1,-1,-1,-1],"split_conditions":[3E0,5.8E1,1.22E2,1.57E2,1.42E2,2.1443333E-2,1.47E2,8.460673E-3,1.0578652E-1,1E0,5.4320272E-2,9.169064E-3,-9.621338E-2,1.604E-2,-1.15689404E-1],"split_indices":[12,0,3,7,3,0,7,0,0,1,0,0,0,0,0],"split_type":[0,0,0,0,0,0,0,0,0,0,0,0,0,0,0],"sum_hessian":[1.11764555E1,6.855898E0,4.320557E0,3.0389035E0,3.8169944E0,1.4379486E0,2.8826087E0,1.8391839E0,1.1997195E0,2.680385E0,1.1366093E0,1.3151401E0,1.5674685E0,1.5104957E0,1.1698896E0],"tree_param":{"num_deleted":"0","num_feature":"13","num_nodes":"15","size_leaf_vector":"1"}},{"base_weights":[-2.1465952E-3,-7.351559E-2,1.00414015E-1,3.2168184E-3,-7.989673E-2,-3.5401754E-2,1.990108E-1,-1.0165171E-1,1.316674E-1,-3.7264936E-2,2.0347347E-2,9.37509E-2,-3.6999185E-3,2.8050808E-2,-7.43384E-2,-8.686351E-3,6.998199E-2],"categories":[],"categories_nodes":[],"categories_segments":[],"categories_sizes":[],"default_left":[0,0,0,0,0,0,0,0,0,0,0,0,0,0,0,0,0],"id":48,"left_children":[1,3,5,7,-1,9,11,13,15,-1,-1,-1,-1,-1,-1,-1,-1],"loss_changes":[9.509699E-2,1.1394027E-1,7.855187E-2,1.0034509E-1,0E0,3.679992E-2,8.168572E-2,1.4062838E-1,6.1219092E-2,0E0,0E0,0E0,0E0,0E0,0E0,0E0,0E0],"parents":[2147483647,0,0,1,1,2,2,3,3,5,5,6,6,7,7,8,8],"right_children":[2,4,6,8,-1,10,12,14,16,-1,-1,-1,-1,-1,-1,-1,-1],"split_conditions":[2E0,1.41E2,1.51E2,1.28E2,-7.989673E-2,6E1,5.8E1,1.11E2,1.57E2,-3.7264936E-2,2.0347347E-2,9.37509E-2,-3.6999185E-3,2.8050808E-2,-7.43384E-2,-8.686351E-3,6.998199E-2],"split_indices":[2,3,7,3,0,0,0,3,7,0,0,0,0,0,0,0,0],"split_type":[0,0,0,0,0,0,0,0,0,0,0,0,0,0,0,0,0],"sum_hessian":[1.09835E1,6.6436043E0,4.3398957E0,5.4556894E0,1.1879151E0,2.095002E0,2.2448936E0,3.118413E0,2.3372762E0,1.0168091E0,1.078193E0,1.14915E0,1.0957435E0,1.4895347E0,1.6288782E0,1.1826833E0,1.154593E0],"tree_param":{"num_deleted":"0","num_feature":"13","num_nodes":"17","size_leaf_vector":"1"}},{"base_weights":[-7.5557485E-4,6.314167E-2,-9.626639E-2,-3.2084886E-2,1.15320295E-1,-2.0394395E-1,2.5060764E-2,-5.5135723E-2,2.1020092E-1,-9.594794E-2,1.6707028E-3,-2.8375842E-2,3.2063716E-3,-7.30027E-3,1.08820945E-1],"categories":[],"categories_nodes":[],"categories_segments":[],"categories_sizes":[],"default_left":[0,0,0,0,0,0,0,0,0,0,0,0,0,0,0],"id":49,"left_children":[1,3,5,-1,7,9,-1,11,13,-1,-1,-1,-1,-1,-1],"loss_changes":[7.828249E-2,8.060667E-2,1.1652161E-1,0E0,1.1457807E-1,8.6864635E-2,0E0,8.981164E-3,1.626109E-1,0E0,0E0,0E0,0E0,0E0,0E0],"parents":[2147483647,0,0,1,1,2,2,4,4,5,5,7,7,8,8],"right_children":[2,4,6,-1,8,10,-1,12,14,-1,-1,-1,-1,-1,-1],"split_conditions":[1E0,1.37E2,2.61E2,-3.2084886E-2,2.32E2,2E0,2.5060764E-2,4.7E1,4E-1,-9.594794E-2,1.6707028E-3,-2.8375842E-2,3.2063716E-3,-7.30027E-3,1.08820945E-1],"split_indices":[11,7,4,0,4,2,0,0,9,0,0,0,0,0,0],"split_type":[0,0,0,0,0,0,0,0,0,0,0,0,0,0,0],"sum_hessian":[1.0831151E1,6.6926427E0,4.1385083E0,1.3247044E0,5.3679385E0,2.5044243E0,1.634084E0,2.0692892E0,3.2986493E0,1.2735146E0,1.2309097E0,1.0206277E0,1.0486614E0,1.63113E0,1.6675195E0],"tree_param":{"num_deleted":"0","num_feature":"13","num_nodes":"15","size_leaf_vector":"1"}},{"base_weights":[-2.6095808E-3,-7.721371E-2,8.966828E-2,1.5876986E-2,-5.9688397E-2,-7.635786E-2,2.076885E-1,-9.467778E-2,4.9313113E-2,-4.7959376E-2,1.3707293E-2,8.4174946E-2,2.0255648E-2,2.0764494E-2,-6.031722E-2],"categories":[],"categories_nodes":[],"categories_segments":[],"categories_sizes":[],"default_left":[0,0,0,0,0,0,0,0,0,0,0,0,0,0,0],"id":50,"left_children":[1,3,5,7,-1,9,11,13,-1,-1,-1,-1,-1,-1,-1],"loss_changes":[8.753722E-2,8.263284E-2,1.2749796E-1,9.600648E-2,0E0,3.888364E-2,1.7828912E-2,7.395024E-2,0E0,0E0,0E0,0E0,0E0,0E0,0E0],"parents":[2147483647,0,0,1,1,2,2,3,3,5,5,6,6,7,7],"right_children":[2,4,6,8,-1,10,12,14,-1,-1,-1,-1,-1,-1,-1],"split_conditions":[2E0,1E0,1E0,2.65E2,-5.9688397E-2,1E0,2.4E2,9E-1,4.9313113E-2,-4.7959376E-2,1.3707293E-2,8.4174946E-2,2.0255648E-2,2.0764494E-2,-6.031722E-2],"split_indices":[10,8,2,4,0,6,4,9,0,0,0,0,0,0,0],"split_type":[0,0,0,0,0,0,0,0,0,0,0,0,0,0,0],"sum_hessian":[1.0709759E1,6.012259E0,4.6974998E0,3.899904E0,2.112355E0,2.0984683E0,2.5990314E0,2.443337E0,1.456567E0,1.0619993E0,1.036469E0,1.0508182E0,1.5482131E0,1.0992092E0,1.3441278E0],"tree_param":{"num_deleted":"0","num_feature":"13","num_nodes":"15","size_leaf_vector":"1"}},{"base_weights":[-9.247757E-5,6.624957E-2,-7.986769E-2,1.8817759E-1,-4.5507092E-2,2.360286E-2,-1.3969333E-1,-1.80078E-2,1.144919E-1,4.0011697E-2,-6.004284E-2,-6.786092E-2,-2.9299846E-2,2.350796E-2,-3.509826E-2],"categories":[],"categories_nodes":[],"categories_segments":[],"categories_sizes":[],"default_left":[0,0,0,0,0,0,0,0,0,0,0,0,0,0,0],"id":51,"left_children":[1,3,5,7,9,-1,11,-1,-1,-1,-1,-1,13,-1,-1],"loss_changes":[6.663356E-2,1.0223928E-1,6.520566E-2,1.9012854E-1,1.4818683E-1,0E0,3.644541E-2,0E0,0E0,0E0,0E0,0E0,3.8721997E-2,0E0,0E0],"parents":[2147483647,0,0,1,1,2,2,3,3,4,4,6,6,12,12],"right_children":[2,4,6,8,10,-1,12,-1,-1,-1,-1,-1,14,-1,-1],"split_conditions":[6.8814313E-1,2.36E2,1E0,1E0,1.29E2,2.360286E-2,2E0,-1.80078E-2,1.144919E-1,4.0011697E-2,-6.004284E-2,-6.786092E-2,1.33E2,2.350796E-2,-3.509826E-2],"split_indices":[9,4,1,2,3,0,2,0,0,0,0,0,3,0,0],"split_type":[0,0,0,0,0,0,0,0,0,0,0,0,0,0,0],"sum_hessian":[1.0590539E1,5.8746524E0,4.7158866E0,2.4824502E0,3.392202E0,1.2056645E0,3.510222E0,1.3895036E0,1.0929468E0,1.6365641E0,1.7556379E0,1.3798456E0,2.1303763E0,1.0041074E0,1.126269E0],"tree_param":{"num_deleted":"0","num_feature":"13","num_nodes":"15","size_leaf_vector":"1"}},{"base_weights":[1.9491691E-3,6.750295E-2,-9.727105E-2,1.2945718E-1,-2.4645908E-2,2.8626686E-2,