{"learner":{"attributes":{"scikit_learn":"{\"_estimator_type\": \"classifier\"}"},"feature_names":["id","gender","age","hypertension","heart_disease","ever_married","work_type","Residence_type","avg_glucose_level","bmi","smoking_status"],"feature_types":["int","int","float","int","int","int","int","int","float","float","int"],"gradient_booster":{"model":{"gbtree_model_param":{"num_parallel_tree":"1","num_trees":"100"},"iteration_indptr":[0,1,2,3,4,5,6,7,8,9,10,11,12,13,14,15,16,17,18,19,20,21,22,23,24,25,26,27,28,29,30,31,32,33,34,35,36,37,38,39,40,41,42,43,44,45,46,47,48,49,50,51,52,53,54,55,56,57,58,59,60,61,62,63,64,65,66,67,68,69,70,71,72,73,74,75,76,77,78,79,80,81,82,83,84,85,86,87,88,89,90,91,92,93,94,95,96,97,98,99,100],"tree_info":[0,0,0,0,0,0,0,0,0,0,0,0,0,0,0,0,0,0,0,0,0,0,0,0,0,0,0,0,0,0,0,0,0,0,0,0,0,0,0,0,0,0,0,0,0,0,0,0,0,0,0,0,0,0,0,0,0,0,0,0,0,0,0,0,0,0,0,0,0,0,0,0,0,0,0,0,0,0,0,0,0,0,0,0,0,0,0,0,0,0,0,0,0,0,0,0,0,0,0,0],"trees":[{"base_weights":[-2.631675E-2,-1.0430664E0,1.0105643E0,-1.124332E0,1.2721965E0,2.1785563E-1,1.3310741E0,-1.4407529E0,-7.1520364E-1,-2.1129867E-2,6.6832745E-1,3.321717E-2,1.4479055E0,2.1521432E0,1.1883738E0,-1.4471512E0,-9.848488E-2,-8.4031385E-1,1.4912008E-1,-6.1577386E-1,3.258859E-1,-2.4842417E-1,7.5802356E-1,5.747191E-1,1.9449909E0,6.927887E-1,1.1334963E0,8.6955816E-1,1.5756369E0,-4.3603843E-1,-1.6052757E-1,-9.1006225E-1,-5.9395827E-2,-7.137813E-2,4.6734282E-1,-2.6040643E-1,-4.3755226E-2,-7.9466164E-1,1.3160066E-2,1.007611E0,-5.612428E-1,-1.922106E-2,3.7926763E-1,6.3813436E-1,1.8442899E-1,-4.536797E-3,1.5104597E0,5.887418E-1,1.4924735E0,1.3304416E0,1.9101394E0,-1.961467E-1,-2.9560143E-1,1.5116857E-1,-2.2421572E-1,2.9297984E-1,-9.736789E-2,-5.369375E-2,-3.267524E-1,-4.4470254E-2,5.677294E-1,3.9154828E-1,7.77198E-2,-4.536797E-3,-2.6040643E-1,-2.399418E-1,1.8978946E-1,5.677294E-1,1.2339801E-1,2.2764537E-1,-1.1507797E-1,5.611206E-1,2.2295876E-1,4.163444E-1,-4.3755226E-2,9.413424E-2,6.067348E-1],"categories":[],"categories_nodes":[],"categories_segments":[],"categories_sizes":[],"default_left":[0,0,0,0,0,0,1,0,0,0,0,0,1,0,0,0,0,0,0,0,0,0,0,0,0,0,0,0,0,0,0,0,0,0,0,0,0,0,0,1,0,1,0,0,0,0,0,0,0,0,0,0,0,0,0,0,0,0,0,0,0,0,0,0,0,0,0,0,0,0,0,0,0,0,0,0,0],"id":0,"left_children":[1,3,5,7,9,11,13,15,17,19,-1,21,23,25,27,29,-1,31,33,35,-1,37,39,41,43,-1,45,47,49,-1,-1,51,53,55,-1,-1,-1,57,59,61,63,65,-1,-1,-1,-1,67,69,71,73,75,-1,-1,-1,-1,-1,-1,-1,-1,-1,-1,-1,-1,-1,-1,-1,-1,-1,-1,-1,-1,-1,-1,-1,-1,-1,-1],"loss_changes":[5.5721826E2,5.163867E1,6.61991E1,3.2412506E1,1.18099E1,1.7335487E1,1.925351E1,5.5474854E-1,1.2522827E1,3.984437E0,0E0,1.3982712E1,3.208027E0,1.5973587E0,1.8486145E1,4.849243E-2,0E0,5.4091644E0,4.87789E0,3.373574E-1,0E0,7.0716515E0,6.8733006E0,2.0861921E0,1.2932014E-1,0E0,2.3969746E0,1.4941315E1,3.3135834E0,0E0,0E0,1.1304703E0,3.9783182E0,4.091339E0,0E0,0E0,0E0,2.7096472E0,1.0713998E1,3.3295326E0,6.0506976E-1,2.3834944E0,0E0,0E0,0E0,0E0,9.589653E-1,1.0872868E1,6.3832016E0,3.9703827E0,4.3672867E0,0E0,0E0,0E0,0E0,0E0,0E0,0E0,0E0,0E0,0E0,0E0,0E0,0E0,0E0,0E0,0E0,0E0,0E0,0E0,0E0,0E0,0E0,0E0,0E0,0E0,0E0],"parents":[2147483647,0,0,1,1,2,2,3,3,4,4,5,5,6,6,7,7,8,8,9,9,11,11,12,12,13,13,14,14,15,15,17,17,18,18,19,19,21,21,22,22,23,23,24,24,26,26,27,27,28,28,31,31,32,32,33,33,37,37,38,38,39,39,40,40,41,41,46,46,47,47,48,48,49,49,50,50],"right_children":[2,4,6,8,10,12,14,16,18,20,-1,22,24,26,28,30,-1,32,34,36,-1,38,40,42,44,-1,46,48,50,-1,-1,52,54,56,-1,-1,-1,58,60,62,64,66,-1,-1,-1,-1,68,70,72,74,76,-1,-1,-1,-1,-1,-1,-1,-1,-1,-1,-1,-1,-1,-1,-1,-1,-1,-1,-1,-1,-1,-1,-1,-1,-1,-1],"split_conditions":[5.6E1,6.35E1,6.5E1,3.7E1,4.5E1,1E0,1.58E1,2.287E2,1.545E2,4.2555E4,6.6832745E-1,1.3235E2,2.96E1,2E0,7.8E1,5.08E1,-9.848488E-2,1E0,1E0,3.1191E4,3.258859E-1,2.1141E4,2.3131E2,1.545E2,3.77E1,6.927887E-1,6.9E1,1.7213E2,1.1294E2,-4.3603843E-1,-1.6052757E-1,7.428E1,8.846E1,1.3945E4,4.6734282E-1,-2.6040643E-1,-4.3755226E-2,8.718E3,5.28E1,3.47E1,4.4068E4,2.58E1,3.7926763E-1,6.3813436E-1,1.8442899E-1,-4.536797E-3,7.4E1,3.46E1,3E0,3.74E1,2.09E1,-1.961467E-1,-2.9560143E-1,1.5116857E-1,-2.2421572E-1,2.9297984E-1,-9.736789E-2,-5.369375E-2,-3.267524E-1,-4.4470254E-2,5.677294E-1,3.9154828E-1,7.77198E-2,-4.536797E-3,-2.6040643E-1,-2.399418E-1,1.8978946E-1,5.677294E-1,1.2339801E-1,2.2764537E-1,-1.1507797E-1,5.611206E-1,2.2295876E-1,4.163444E-1,-4.3755226E-2,9.413424E-2,6.067348E-1],"split_indices":[2,9,2,2,2,4,9,8,8,0,0,8,9,10,2,9,0,3,4,0,0,0,8,8,9,0,2,8,8,0,0,8,8,0,0,0,0,0,9,9,0,9,0,0,0,0,2,9,6,9,9,0,0,0,0,0,0,0,0,0,0,0,0,0,0,0,0,0,0,0,0,0,0,0,0,0,0],"split_type":[0,0,0,0,0,0,0,0,0,0,0,0,0,0,0,0,0,0,0,0,0,0,0,0,0,0,0,0,0,0,0,0,0,0,0,0,0,0,0,0,0,0,0,0,0,0,0,0,0,0,0,0,0,0,0,0,0,0,0,0,0,0,0,0,0,0,0,0,0,0,0,0,0,0,0,0,0],"sum_hessian":[5.2654565E2,2.6585065E2,2.6069504E2,2.5733267E2,8.517981E0,7.554104E1,1.8515399E2,1.4368488E2,1.1364779E2,4.034833E0,4.4831476E0,6.657474E1,8.966295E0,2.5329784E1,1.598242E2,1.4256409E2,1.1207869E0,9.930172E1,1.4346072E1,2.9140458E0,1.1207869E0,4.8417995E1,1.8156748E1,4.034833E0,4.9314623E0,2.0846636E1,4.4831476E0,8.94388E1,7.0385414E1,1.40995E2,1.5691017E0,9.10079E1,8.293823E0,1.3225286E1,1.1207869E0,1.3449442E0,1.5691017E0,1.5018544E1,3.339945E1,1.5466859E1,2.6898885E0,2.6898885E0,1.3449442E0,3.8106754E0,1.1207869E0,1.3449442E0,3.1382034E0,6.2988224E1,2.6450571E1,4.348653E1,2.6898886E1,2.2864052E1,6.8143845E1,4.707305E0,3.586518E0,2.0174165E0,1.1207869E1,5.379777E0,9.638767E0,3.160619E1,1.793259E0,1.0535397E1,4.9314623E0,1.3449442E0,1.3449442E0,1.1207869E0,1.5691017E0,1.793259E0,1.3449442E0,5.379777E1,9.190453E0,1.6587646E1,9.862925E0,4.191743E1,1.5691017E0,2.0174165E0,2.488147E1],"tree_param":{"num_deleted":"0","num_feature":"11","num_nodes":"77","size_leaf_vector":"1"}},{"base_weights":[-3.2002907E-2,-8.568897E-1,6.675109E-1,-1.1277251E0,-2.7051553E-1,1.6230279E-1,8.564908E-1,-1.1848426E0,-3.0957872E-1,-4.1724214E-1,4.4958505E-1,2.1099394E-2,1.0419726E0,1.375373E0,7.647968E-1,-1.2988099E0,-9.44511E-1,-8.519982E-1,2.017678E-1,-5.6848025E-1,2.4194151E-1,-1.0559121E-1,9.366122E-1,1.6813865E-1,1.3784944E0,9.4814533E-1,1.6078521E0,5.7118285E-1,9.9208844E-1,-3.9258856E-1,-9.671352E-2,-1.0425421E0,-1.356828E-1,6.618009E-2,-3.3846724E-1,8.1521356E-1,-5.0435704E-1,-1.1184329E0,-4.1230407E-1,-2.795791E-1,6.6865814E-1,-2.4324526E-1,5.381727E-1,-3.2589698E-1,4.9611905E-1,-1.14560224E-1,1.530282E-1,1.6830312E-2,4.821121E-1,-1.9009219E-1,1.2048216E0,5.493371E-1,6.7678046E-1,4.768118E-1,1.3681114E0,7.4899983E-1,1.1909587E0,-2.1866517E-1,-3.7343374E-1,-1.5866104E-1,2.1087441E-1,2.9108274E-1,5.907088E-2,8.336227E-2,-2.6695883E-1,-3.5350502E-1,-7.341725E-2,-7.114512E-2,-3.1230274E-1,-1.9934942E-1,1.9342874E-1,2.9425362E-1,-7.780225E-2,-1.5824278E-1,5.5900197E-2,-1.5418586E-1,2.790849E-1,-2.6810342E-1,1.2769033E-1,4.3859032E-1,1.7754498E-1,-4.1571267E-2,3.471186E-1,1.7921084E-1,-2.667092E-2,1.9985963E-1,5.348264E-1,1.1675105E-1,3.4694946E-1,-1.5987307E-1,3.7710533E-1],"categories":[],"categories_nodes":[],"categories_segments":[],"categories_sizes":[],"default_left":[0,0,0,0,0,0,1,0,0,0,0,0,0,0,0,0,0,0,1,0,0,0,0,1,0,0,0,0,0,0,0,0,0,0,0,0,0,0,0,0,0,0,0,0,0,0,0,0,0,0,0,0,0,0,0,0,0,0,0,0,0,0,0,0,0,0,0,0,0,0,0,0,0,0,0,0,0,0,0,0,0,0,0,0,0,0,0,0,0,0,0],"id":1,"left_children":[1,3,5,7,9,11,13,15,17,19,-1,21,23,25,27,29,31,33,35,37,39,41,43,45,47,49,51,53,55,-1,-1,57,59,-1,-1,61,63,65,67,69,71,73,75,77,-1,-1,-1,-1,-1,-1,79,-1,81,83,85,87,89,-1,-1,-1,-1,-1,-1,-1,-1,-1,-1,-1,-1,-1,-1,-1,-1,-1,-1,-1,-1,-1,-1,-1,-1,-1,-1,-1,-1,-1,-1,-1,-1,-1,-1],"loss_changes":[2.9527115E2,3.6983566E1,2.6300407E1,7.1240234E0,2.0223568E1,9.495438E0,8.525894E0,2.8676147E0,3.4487865E0,7.1659765E0,0E0,7.875209E0,2.878664E0,1.3537292E0,7.06089E0,5.24704E-1,3.9618568E0,2.0041833E0,3.3956487E0,4.4897366E0,3.2709205E0,5.4296074E0,8.009407E0,9.621099E-1,2.17583E0,5.8991003E0,2.3631973E0,6.5641136E0,2.896721E0,0E0,0E0,2.0110512E0,2.5953627E0,0E0,0E0,1.9908261E-1,1.3994437E0,3.4846687E-1,4.8712077E0,2.898169E0,2.5478845E0,6.1970377E0,4.951995E0,2.0122714E0,0E0,0E0,0E0,0E0,0E0,0E0,9.0465546E-1,0E0,2.0940955E0,6.009104E0,1.6135406E0,5.116026E0,5.38575E0,0E0,0E0,0E0,0E0,0E0,0E0,0E0,0E0,0E0,0E0,0E0,0E0,0E0,0E0,0E0,0E0,0E0,0E0,0E0,0E0,0E0,0E0,0E0,0E0,0E0,0E0,0E0,0E0,0E0,0E0,0E0,0E0,0E0,0E0],"parents":[2147483647,0,0,1,1,2,2,3,3,4,4,5,5,6,6,7,7,8,8,9,9,11,11,12,12,13,13,14,14,15,15,16,16,17,17,18,18,19,19,20,20,21,21,22,22,23,23,24,24,25,25,26,26,27,27,28,28,31,31,32,32,35,35,36,36,37,37,38,38,39,39,40,40,41,41,42,42,43,43,50,50,52,52,53,53,54,54,55,55,56,56],"right_children":[2,4,6,8,10,12,14,16,18,20,-1,22,24,26,28,30,32,34,36,38,40,42,44,46,48,50,52,54,56,-1,-1,58,60,-1,-1,62,64,66,68,70,72,74,76,78,-1,-1,-1,-1,-1,-1,80,-1,82,84,86,88,90,-1,-1,-1,-1,-1,-1,-1,-1,-1,-1,-1,-1,-1,-1,-1,-1,-1,-1,-1,-1,-1,-1,-1,-1,-1,-1,-1,-1,-1,-1,-1,-1,-1,-1],"split_conditions":[5.6E1,4.5E1,6.5E1,4.38E1,6.35E1,1E0,1.58E1,3.2E1,3.5E1,1.449E2,4.4958505E-1,5.6E1,1E0,2.1865E4,7.8E1,7.1798E4,3E0,7.044E1,4.79E1,0E0,1E0,2E0,2.719E4,3.06E1,5.8E1,6.9E1,1E0,2.2291E2,1E0,-3.9258856E-1,-9.671352E-2,8.537E1,1.135E2,6.618009E-2,-3.3846724E-1,1.0164E2,2.2256E4,6.6778E4,1.0533E2,2.1773E2,2.1237E2,1.0533E2,2.1141E4,1E0,4.9611905E-1,-1.14560224E-1,1.530282E-1,1.6830312E-2,4.821121E-1,-1.9009219E-1,1.0533E2,5.493371E-1,7.6E1,3.46E1,1E0,3E0,9.19E2,-2.1866517E-1,-3.7343374E-1,-1.5866104E-1,2.1087441E-1,2.9108274E-1,5.907088E-2,8.336227E-2,-2.6695883E-1,-3.5350502E-1,-7.341725E-2,-7.114512E-2,-3.1230274E-1,-1.9934942E-1,1.9342874E-1,2.9425362E-1,-7.780225E-2,-1.5824278E-1,5.5900197E-2,-1.5418586E-1,2.790849E-1,-2.6810342E-1,1.2769033E-1,4.3859032E-1,1.7754498E-1,-4.1571267E-2,3.471186E-1,1.7921084E-1,-2.667092E-2,1.9985963E-1,5.348264E-1,1.1675105E-1,3.4694946E-1,-1.5987307E-1,3.7710533E-1],"split_indices":[2,2,2,9,9,4,9,2,2,8,0,9,1,0,2,0,6,8,9,10,7,10,0,9,2,2,3,8,10,0,0,8,8,0,0,8,0,0,8,8,8,8,0,7,0,0,0,0,0,0,8,0,2,9,1,6,0,0,0,0,0,0,0,0,0,0,0,0,0,0,0,0,0,0,0,0,0,0,0,0,0,0,0,0,0,0,0,0,0,0,0],"split_type":[0,0,0,0,0,0,0,0,0,0,0,0,0,0,0,0,0,0,0,0,0,0,0,0,0,0,0,0,0,0,0,0,0,0,0,0,0,0,0,0,0,0,0,0,0,0,0,0,0,0,0,0,0,0,0,0,0,0,0,0,0,0,0,0,0,0,0,0,0,0,0,0,0,0,0,0,0,0,0,0,0,0,0,0,0,0,0,0,0,0,0],"sum_hessian":[5.0972632E2,2.3379893E2,2.759274E2,1.5929861E2,7.450032E1,7.562218E1,2.0030522E2,1.4848425E2,1.0814356E1,6.950032E1,4.999996E0,6.6044754E1,9.577428E0,2.7978672E1,1.7232654E2,9.773379E1,5.0750465E1,4.924463E0,5.8898926E0,5.6642334E1,1.285799E1,5.8793453E1,7.251298E0,3.0798166E0,6.4976115E0,1.1649239E1,1.6329433E1,9.495445E1,7.737209E1,9.642397E1,1.3098128E0,4.5006645E1,5.743821E0,1.0497214E0,3.8747416E0,3.0691128E0,2.82078E0,1.1164996E1,4.5477337E1,5.9413986E0,6.9165916E0,4.8948994E1,9.8444605E0,2.8243992E0,4.426899E0,1.135977E0,1.9438396E0,1.1410183E0,5.356593E0,1.421361E0,1.0227878E1,1.239131E1,3.9381244E0,8.632973E1,8.624723E0,3.6960175E1,4.0411915E1,1.9448E1,2.5558645E1,4.1618323E0,1.5819892E0,1.9986478E0,1.0704648E0,1.0233967E0,1.7973832E0,1.0122164E1,1.0428321E0,3.664535E1,8.831987E0,4.39311E0,1.5482887E0,5.132893E0,1.7836986E0,2.9320936E1,1.9628056E1,2.588407E0,7.256053E0,1.5011442E0,1.3232551E0,6.2296968E0,3.9981813E0,1.7235738E0,2.2145505E0,7.111804E1,1.5211687E1,4.170883E0,4.45384E0,2.0666363E1,1.6293814E1,1.2306211E0,3.9181293E1],"tree_param":{"num_deleted":"0","num_feature":"11","num_nodes":"91","size_leaf_vector":"1"}},{"base_weights":[-3.1418018E-2,-8.500276E-1,4.0939522E-1,-1.1385254E0,-4.7747672E-1,4.047376E-2,6.0988504E-1,-1.154354E0,-7.820591E-2,-5.504976E-1,6.488415E-1,-6.607805E-2,8.991968E-1,4.7644207E-1,8.5560817E-1,-1.1718663E0,-4.809377E-1,-6.0769206E-1,7.972611E-2,-2.1151805E-2,3.556077E-1,-1.7208208E-1,7.5903535E-1,-1.6148187E-1,1.3502438E0,1.5511884E-1,6.522098E-1,9.6583056E-1,4.5013058E-1,-3.5437673E-1,-1.1690219E-1,8.004446E-2,-2.524742E-1,-7.835359E-1,-4.394915E-1,7.279757E-1,-5.380357E-1,3.4776333E-1,-2.648876E-1,-4.5173027E-2,1.1337215E0,1.6389243E-1,-5.3967386E-1,4.4522324E-1,8.644919E-2,4.5819673E-1,-3.921717E-1,4.771534E-1,1.0778638E0,9.98493E-1,-7.252685E-2,-2.6702964E-1,7.1006656E-1,-1.4348131E-1,-2.8171924E-1,1.6884583E-1,-1.7473572E-1,1.7489538E-2,3.0250344E-1,-2.5372177E-1,2.4510834E-2,-1.9585751E-2,3.4331006E-1,-1.1261957E-1,4.714638E-2,-1.2012959E-1,1.1019729E-1,3.9648917E-1,7.4905835E-2,-2.3279394E-1,-9.394352E-3,1.9472109E-1,-2.3329948E-1,-2.3790593E-1,9.34958E-2,1.789839E-1,-4.289232E-2,3.555407E-1,-1.5913077E-1,2.4579416E-1,3.994694E-1,-2.1261777E-1,3.008209E-2,3.088636E-1,-5.785611E-3],"categories":[],"categories_nodes":[],"categories_segments":[],"categories_sizes":[],"default_left":[0,0,0,0,0,0,0,0,0,0,0,0,0,0,1,0,0,0,0,0,0,0,0,0,0,0,0,0,0,0,0,0,0,0,0,0,0,0,0,0,0,0,0,0,0,0,0,0,0,0,0,0,0,0,0,0,0,0,0,0,0,0,0,0,0,0,0,0,0,0,0,0,0,0,0,0,0,0,0,0,0,0,0,0,0],"id":2,"left_children":[1,3,5,7,9,11,13,15,-1,17,19,21,23,25,27,29,31,33,35,-1,-1,37,39,41,43,45,47,49,51,-1,-1,-1,-1,53,55,57,59,61,63,65,67,-1,69,-1,-1,71,73,75,77,79,-1,81,83,-1,-1,-1,-1,-1,-1,-1,-1,-1,-1,-1,-1,-1,-1,-1,-1,-1,-1,-1,-1,-1,-1,-1,-1,-1,-1,-1,-1,-1,-1,-1,-1],"loss_changes":[1.7334921E2,1.7526825E1,2.3074078E1,1.0056458E0,6.533573E0,1.0218459E1,6.224594E0,5.222397E-1,0E0,2.6100616E0,2.0253546E0,8.851362E0,6.114255E0,7.429407E0,2.6905098E0,1.9365692E-1,1.3112609E0,1.5861206E0,3.1135798E0,0E0,0E0,4.3940487E0,3.5272613E0,1.5182279E0,8.166647E-1,8.21761E0,5.8847046E0,2.3755913E0,3.324889E0,0E0,0E0,0E0,0E0,1.0052128E0,5.4343147E0,6.437224E-1,8.424262E-1,4.6614447E0,3.6143575E0,8.2530594E-1,9.836283E-1,0E0,3.9396334E-1,0E0,0E0,7.970498E0,5.271783E0,4.726098E0,4.80921E0,2.0648193E0,0E0,9.1485643E-1,2.9599514E0,0E0,0E0,0E0,0E0,0E0,0E0,0E0,0E0,0E0,0E0,0E0,0E0,0E0,0E0,0E0,0E0,0E0,0E0,0E0,0E0,0E0,0E0,0E0,0E0,0E0,0E0,0E0,0E0,0E0,0E0,0E0,0E0],"parents":[2147483647,0,0,1,1,2,2,3,3,4,4,5,5,6,6,7,7,9,9,10,10,11,11,12,12,13,13,14,14,15,15,16,16,17,17,18,18,21,21,22,22,23,23,24,24,25,25,26,26,27,27,28,28,33,33,34,34,35,35,36,36,37,37,38,38,39,39,40,40,42,42,45,45,46,46,47,47,48,48,49,49,51,51,52,52],"right_children":[2,4,6,8,10,12,14,16,-1,18,20,22,24,26,28,30,32,34,36,-1,-1,38,40,42,44,46,48,50,52,-1,-1,-1,-1,54,56,58,60,62,64,66,68,-1,70,-1,-1,72,74,76,78,80,-1,82,84,-1,-1,-1,-1,-1,-1,-1,-1,-1,-1,-1,-1,-1,-1,-1,-1,-1,-1,-1,-1,-1,-1,-1,-1,-1,-1,-1,-1,-1,-1,-1,-1],"split_conditions":[5.1E1,3.5E1,6.5E1,6.35E1,6.35E1,5.6E1,1.2929E2,1.8289E2,-7.820591E-2,1E0,3.9744E4,1E0,1.9614E4,7.4E1,3.4E1,7.1798E4,2.49E1,2.91E1,8.6E1,-2.1151805E-2,3.556077E-1,1.2701E4,2.92E1,2.751E3,2.0739E2,4.0668E4,3.18E1,7.0852E4,3.6E1,-3.5437673E-1,-1.1690219E-1,8.004446E-2,-2.524742E-1,1E0,3.03E1,3.459E4,1.2347E2,1.3235E2,2E0,6.1E1,6.0191E4,1.6389243E-1,9.077E1,4.4522324E-1,8.644919E-2,7.3E1,5.9813E4,6.1279E4,2E0,5.3348E4,-7.252685E-2,7.3E1,3E0,-1.4348131E-1,-2.8171924E-1,1.6884583E-1,-1.7473572E-1,1.7489538E-2,3.0250344E-1,-2.5372177E-1,2.4510834E-2,-1.9585751E-2,3.4331006E-1,-1.1261957E-1,4.714638E-2,-1.2012959E-1,1.1019729E-1,3.9648917E-1,7.4905835E-2,-2.3279394E-1,-9.394352E-3,1.9472109E-1,-2.3329948E-1,-2.3790593E-1,9.34958E-2,1.789839E-1,-4.289232E-2,3.555407E-1,-1.5913077E-1,2.4579416E-1,3.994694E-1,-2.1261777E-1,3.008209E-2,3.088636E-1,-5.785611E-3],"split_indices":[2,2,2,9,9,9,8,8,0,3,0,4,0,2,9,0,9,9,8,0,0,0,9,0,8,0,9,0,9,0,0,0,0,10,9,0,8,8,10,2,0,0,8,0,0,2,0,0,10,0,0,2,6,0,0,0,0,0,0,0,0,0,0,0,0,0,0,0,0,0,0,0,0,0,0,0,0,0,0,0,0,0,0,0,0],"split_type":[0,0,0,0,0,0,0,0,0,0,0,0,0,0,0,0,0,0,0,0,0,0,0,0,0,0,0,0,0,0,0,0,0,0,0,0,0,0,0,0,0,0,0,0,0,0,0,0,0,0,0,0,0,0,0,0,0,0,0,0,0,0,0,0,0,0,0,0,0,0,0,0,0,0,0,0,0,0,0,0,0,0,0,0,0],"sum_hessian":[4.784217E2,1.6712846E2,3.1129324E2,9.30308E1,7.4097664E1,1.100296E2,2.0126364E2,9.1073616E1,1.9571831E0,7.00664E1,4.0312676E0,9.8705154E1,1.13244505E1,1.323359E2,6.892773E1,8.8043846E1,3.02977E0,6.426952E1,5.7968755E0,2.0932639E0,1.9380038E0,8.8169304E1,1.053585E1,3.570373E0,7.7540774E0,4.745866E1,8.487725E1,5.310897E1,1.5818755E1,8.649538E1,1.5484719E0,1.0704601E0,1.9593099E0,2.963232E1,3.46372E1,2.7415822E0,3.0552933E0,1.2939896E1,7.522941E1,3.6281018E0,6.9077477E0,1.0885729E0,2.4818003E0,6.533459E0,1.2206185E0,3.0648796E1,1.6809862E1,6.164559E1,2.3231657E1,5.1878918E1,1.2300552E0,4.2009883E0,1.1617767E1,1.1377037E1,1.8255283E1,3.9570584E0,3.0680143E1,1.1655457E0,1.5760363E0,1.7979368E0,1.2573566E0,9.125996E0,3.8139007E0,5.9706017E1,1.552339E1,1.9650087E0,1.6630932E0,5.2886124E0,1.6191354E0,1.334863E0,1.1469374E0,2.6959778E1,3.6890197E0,1.0629391E1,6.1804705E0,5.1720272E1,9.925321E0,2.202568E1,1.2059765E0,3.5981945E1,1.5896971E1,1.4853086E0,2.7156794E0,7.7927237E0,3.8250434E0],"tree_param":{"num_deleted":"0","num_feature":"11","num_nodes":"85","size_leaf_vector":"1"}},{"base_weights":[-2.9189773E-2,-8.878949E-1,2.536233E-1,-1.0702888E0,-5.469589E-1,-1.4144382E-2,4.4029185E-1,-1.090505E0,-6.439237E-2,-7.1711683E-1,1.2176833E-1,-1.003948E-1,7.6447517E-1,8.799019E-1,3.717032E-1,-1.1019142E0,-8.43734E-2,-8.069966E-1,-6.544054E-2,3.6517224E-1,-3.636633E-1,-1.6307957E-1,5.400811E-1,-2.2787976E-1,1.1217334E0,5.1060045E-1,1.1022311E0,2.7751774E-1,6.94086E-1,-1.14559375E-1,-1.1154501E0,-4.713904E-1,-9.9700916E-1,1.5527722E-1,-1.7418295E-1,6.525112E-1,-6.398401E-2,6.739721E-2,-2.1926282E-1,-5.947542E-1,-7.312521E-2,-7.10322E-2,8.4152895E-1,1.3534038E-1,-5.8368284E-1,3.819032E-1,7.022619E-2,-1.9358462E-1,7.344794E-1,3.8845152E-1,3.8944274E-1,6.9618803E-1,2.2131848E-1,2.2830625E-1,1.0359482E0,-3.424027E-1,-1.9107352E-1,3.1848226E-2,-2.732784E-1,-1.1486577E-1,-3.2672802E-1,-1.444779E-2,2.9977736E-1,-2.4664335E-1,-4.2292327E-2,-5.959666E-3,-2.6218817E-1,1.3376318E-1,-1.0852898E-1,1.0333713E-1,3.2586882E-1,-2.2404657E-1,-4.253669E-2,2.8774887E-1,8.462941E-2,-6.0972694E-2,2.3494132E-1,-8.249799E-2,2.6931897E-1,4.020805E-2,1.5907252E-1,-3.146079E-1,1.7552418E-1,5.5112955E-3,3.2792097E-1],"categories":[],"categories_nodes":[],"categories_segments":[],"categories_sizes":[],"default_left":[0,0,0,0,0,0,1,0,0,0,1,0,0,0,0,0,0,0,0,0,0,0,0,0,0,0,0,0,0,0,0,0,0,0,0,0,0,0,0,0,0,0,0,0,0,0,0,0,0,0,0,0,0,0,0,0,0,0,0,0,0,0,0,0,0,0,0,0,0,0,0,0,0,0,0,0,0,0,0,0,0,0,0,0,0],"id":3,"left_children":[1,3,5,7,9,11,13,15,-1,17,19,21,23,25,27,29,-1,31,33,35,37,39,41,43,45,47,49,51,53,-1,55,57,59,-1,-1,61,-1,-1,-1,63,65,67,69,-1,71,-1,-1,-1,73,-1,75,77,79,81,83,-1,-1,-1,-1,-1,-1,-1,-1,-1,-1,-1,-1,-1,-1,-1,-1,-1,-1,-1,-1,-1,-1,-1,-1,-1,-1,-1,-1,-1,-1],"loss_changes":[1.0884431E2,6.3190994E0,1.6862288E1,9.990921E-1,4.723406E0,9.444568E0,5.6653214E0,3.3085632E-1,0E0,1.8580418E0,1.2102668E0,5.16543E0,5.2286444E0,1.5794449E0,5.0799484E0,2.3770142E-1,0E0,1.3526344E0,1.815046E0,1.2316077E0,9.3036747E-1,4.45934E0,2.1793928E0,1.3612053E0,1.1096535E0,3.4933162E0,1.613163E0,3.0470705E0,5.9090652E0,0E0,9.472656E-2,3.201116E0,5.642872E-1,0E0,0E0,1.1748549E0,0E0,0E0,0E0,1.9330382E0,4.124286E0,8.7107486E-1,5.725188E-1,0E0,1.4049816E-1,0E0,0E0,0E0,7.7047396E-1,0E0,1.2584558E0,3.3072023E0,3.2030973E0,8.640954E0,1.2572765E0,0E0,0E0,0E0,0E0,0E0,0E0,0E0,0E0,0E0,0E0,0E0,0E0,0E0,0E0,0E0,0E0,0E0,0E0,0E0,0E0,0E0,0E0,0E0,0E0,0E0,0E0,0E0,0E0,0E0,0E0],"parents":[2147483647,0,0,1,1,2,2,3,3,4,4,5,5,6,6,7,7,9,9,10,10,11,11,12,12,13,13,14,14,15,15,17,17,18,18,19,19,20,20,21,21,22,22,23,23,24,24,25,25,26,26,27,27,28,28,30,30,31,31,32,32,35,35,39,39,40,40,41,41,42,42,44,44,48,48,50,50,51,51,52,52,53,53,54,54],"right_children":[2,4,6,8,10,12,14,16,-1,18,20,22,24,26,28,30,-1,32,34,36,38,40,42,44,46,48,50,52,54,-1,56,58,60,-1,-1,62,-1,-1,-1,64,66,68,70,-1,72,-1,-1,-1,74,-1,76,78,80,82,84,-1,-1,-1,-1,-1,-1,-1,-1,-1,-1,-1,-1,-1,-1,-1,-1,-1,-1,-1,-1,-1,-1,-1,-1,-1,-1,-1,-1,-1,-1],"split_conditions":[4.5E1,3.4E1,6.5E1,6.35E1,3.86E1,5.6E1,1.58E1,7.1798E4,-6.439237E-2,3E0,4.79E1,1E0,1.4685E4,2.1865E4,1E0,5.809E1,-8.43734E-2,2.72E1,2.97E1,1.0164E2,2.3037E4,0E0,2.92E1,2.751E3,1E0,6.9E1,1E0,8.718E3,1.0559E2,-1.14559375E-1,3.2E1,3.4845E4,1E0,1.5527722E-1,-1.7418295E-1,2.9599E4,-6.398401E-2,6.739721E-2,-2.1926282E-1,1E0,4.33E1,1.5625E4,1E0,1.3534038E-1,1.0978E2,3.819032E-1,7.022619E-2,-1.9358462E-1,1.0533E2,3.8845152E-1,7.6E1,2.23E1,8E1,1.1404E4,2.22E1,-3.424027E-1,-1.9107352E-1,3.1848226E-2,-2.732784E-1,-1.1486577E-1,-3.2672802E-1,-1.444779E-2,2.9977736E-1,-2.4664335E-1,-4.2292327E-2,-5.959666E-3,-2.6218817E-1,1.3376318E-1,-1.0852898E-1,1.0333713E-1,3.2586882E-1,-2.2404657E-1,-4.253669E-2,2.8774887E-1,8.462941E-2,-6.0972694E-2,2.3494132E-1,-8.249799E-2,2.6931897E-1,4.020805E-2,1.5907252E-1,-3.146079E-1,1.7552418E-1,5.5112955E-3,3.2792097E-1],"split_indices":[2,2,2,9,9,9,9,0,0,6,9,4,0,0,4,8,0,9,9,8,0,10,9,0,3,2,3,0,8,0,2,0,5,0,0,0,0,0,0,1,9,0,1,0,8,0,0,0,8,0,2,9,2,0,9,0,0,0,0,0,0,0,0,0,0,0,0,0,0,0,0,0,0,0,0,0,0,0,0,0,0,0,0,0,0],"split_type":[0,0,0,0,0,0,0,0,0,0,0,0,0,0,0,0,0,0,0,0,0,0,0,0,0,0,0,0,0,0,0,0,0,0,0,0,0,0,0,0,0,0,0,0,0,0,0,0,0,0,0,0,0,0,0,0,0,0,0,0,0,0,0,0,0,0,0,0,0,0,0,0,0,0,0,0,0,0,0,0,0,0,0,0,0],"sum_hessian":[4.4626273E2,1.1003227E2,3.3623044E2,7.028954E1,3.974273E1,1.3849284E2,1.977376E2,6.839901E1,1.8905298E0,3.1623705E1,8.119025E0,1.25465645E2,1.3027208E1,2.509105E1,1.7264655E2,6.709151E1,1.3075058E0,2.7581326E1,4.042379E0,5.5725756E0,2.5464497E0,1.1495966E2,1.0505978E1,3.5443163E0,9.482892E0,1.06678095E1,1.442324E1,1.3505151E2,3.7595024E1,1.7769579E0,6.531455E1,1.1229054E1,1.635227E1,1.8940874E0,2.1482913E0,3.6376092E0,1.9349664E0,1.1277933E0,1.4186565E0,1.8856934E1,9.610273E1,3.7229512E0,6.783027E0,1.1265244E0,2.4177918E0,7.731165E0,1.751727E0,1.4255328E0,9.242276E0,1.0712077E1,3.7111623E0,1.4635188E1,1.2041633E2,1.661935E1,2.0975676E1,6.0648026E1,4.6665254E0,5.180441E0,6.0486135E0,2.8047774E0,1.3547494E1,1.4892981E0,2.1483111E0,1.2021274E1,6.83566E0,9.1070854E1,5.0318737E0,1.1480743E0,2.5748768E0,3.031883E0,3.751144E0,1.2618806E0,1.1559112E0,5.426737E0,3.8155396E0,1.6743226E0,2.0368397E0,2.4525404E0,1.2182648E1,9.500488E1,2.5411442E1,3.205731E0,1.3413618E1,1.185133E0,1.9790543E1],"tree_param":{"num_deleted":"0","num_feature":"11","num_nodes":"85","size_leaf_vector":"1"}},{"base_weights":[-2.7497428E-2,-7.970625E-1,1.8908028E-1,-1.0035397E0,-4.5851088E-1,7.20453E-1,1.2539868E-1,-1.0280459E0,-5.2976403E-2,-6.13415E-1,9.00896E-2,2.8135988E-1,1.0060055E0,-2.3103961E-1,2.1958344E-1,-1.0418249E0,-7.240993E-2,-7.008792E-1,-5.581577E-2,-1.5691271E-1,5.237666E-1,-2.2242689E-1,5.975801E-1,3.6122534E-1,3.0627087E-1,-5.236208E-1,3.5431556E-2,1.4678031E-1,5.276685E-1,-9.8581426E-2,-1.0579592E0,-3.6819994E-1,-9.4024074E-1,-4.229976E-1,1.8570724E-1,1.13749646E-1,-4.196821E-1,3.256389E-1,-6.401617E-2,-6.1564887E-1,1.844261E-1,7.0147896E-1,-3.0260468E-2,5.288863E-1,-9.366141E-2,-9.3488735E-1,-2.4988426E-1,-1.7979977E-1,9.1083974E-1,1.9362608E-1,-1.922498E-1,3.6957335E-1,9.62445E-1,-3.271393E-1,-1.6352801E-1,-1.9319029E-1,3.5494435E-1,-5.3003397E-2,-3.2007512E-1,6.22354E-2,-2.3587324E-1,9.873129E-2,-2.6246127E-1,2.6231965E-2,-2.5438073E-1,1.1615622E-1,3.122285E-1,2.770629E-1,1.706581E-2,-5.4737143E-2,-2.991806E-1,-1.11106984E-1,2.2648014E-1,3.1458893E-1,-8.933078E-2,-5.9758937E-3,3.8824338E-1,4.6450783E-2,3.322891E-1,-3.4106346E-3,-2.2065966E-1,-8.070534E-3,1.9308224E-1,4.8251905E-2,3.3834237E-1],"categories":[],"categories_nodes":[],"categories_segments":[],"categories_sizes":[],"default_left":[0,0,1,0,0,0,0,0,0,0,0,0,0,0,0,0,0,0,0,1,0,0,0,0,0,0,0,0,0,0,0,0,0,0,0,0,0,0,0,0,0,0,0,0,0,0,0,0,0,0,0,0,0,0,0,0,0,0,0,0,0,0,0,0,0,0,0,0,0,0,0,0,0,0,0,0,0,0,0,0,0,0,0,0,0],"id":4,"left_children":[1,3,5,7,9,11,13,15,-1,17,19,21,23,25,27,29,-1,31,33,35,37,39,41,-1,43,45,47,49,51,-1,53,55,57,59,-1,-1,61,-1,-1,63,-1,65,-1,67,-1,69,71,73,75,77,79,81,83,-1,-1,-1,-1,-1,-1,-1,-1,-1,-1,-1,-1,-1,-1,-1,-1,-1,-1,-1,-1,-1,-1,-1,-1,-1,-1,-1,-1,-1,-1,-1,-1],"loss_changes":[7.009208E1,5.9956436E0,1.1018388E1,9.6396255E-1,3.184928E0,4.095583E0,9.932822E0,3.4137344E-1,0E0,1.3677483E0,1.0442324E0,2.546342E0,2.510313E0,4.8533E0,5.1565104E0,2.673874E-1,0E0,1.6325512E0,1.5002682E0,1.0735589E0,1.6764932E0,2.5415828E0,7.658577E-1,0E0,9.8074734E-1,3.101121E0,6.4551115E0,3.0569515E0,2.6836414E0,0E0,2.693901E-1,5.913347E0,1.1470547E0,1.0403981E0,0E0,0E0,1.9344776E0,0E0,0E0,8.85921E-1,0E0,4.9957228E-1,0E0,8.280449E-1,0E0,3.5652256E-1,2.5976417E0,4.317253E0,2.4354882E0,5.768857E0,2.3092477E0,3.7167473E0,1.2989435E0,0E0,0E0,0E0,0E0,0E0,0E0,0E0,0E0,0E0,0E0,0E0,0E0,0E0,0E0,0E0,0E0,0E0,0E0,0E0,0E0,0E0,0E0,0E0,0E0,0E0,0E0,0E0,0E0,0E0,0E0,0E0,0E0],"parents":[2147483647,0,0,1,1,2,2,3,3,4,4,5,5,6,6,7,7,9,9,10,10,11,11,12,12,13,13,14,14,15,15,17,17,18,18,19,19,20,20,21,21,22,22,24,24,25,25,26,26,27,27,28,28,30,30,31,31,32,32,33,33,36,36,39,39,41,41,43,43,45,45,46,46,47,47,48,48,49,49,50,50,51,51,52,52],"right_children":[2,4,6,8,10,12,14,16,-1,18,20,22,24,26,28,30,-1,32,34,36,38,40,42,-1,44,46,48,50,52,-1,54,56,58,60,-1,-1,62,-1,-1,64,-1,66,-1,68,-1,70,72,74,76,78,80,82,84,-1,-1,-1,-1,-1,-1,-1,-1,-1,-1,-1,-1,-1,-1,-1,-1,-1,-1,-1,-1,-1,-1,-1,-1,-1,-1,-1,-1,-1,-1,-1,-1],"split_conditions":[4.5E1,3.4E1,1.58E1,6.35E1,3.86E1,2.1865E4,5.6E1,7.1798E4,-5.2976403E-2,3E0,1E0,6.9E1,1E0,1E0,1E0,5.809E1,-7.240993E-2,8.537E1,1.0783E2,4.04E1,4.79E1,1.213E2,1.9157E4,3.6122534E-1,2.005E2,1E0,1E0,3.74E1,1E0,-9.8581426E-2,3.2E1,8.32E1,2.45E1,3.1933E4,1.8570724E-1,1.13749646E-1,2.2256E4,3.256389E-1,-6.401617E-2,2.751E3,1.844261E-1,1E0,-3.0260468E-2,0E0,-9.366141E-2,1E0,2.1773E2,4.6E1,5E1,3.62E1,3E0,1.0559E2,2.64E1,-3.271393E-1,-1.6352801E-1,-1.9319029E-1,3.5494435E-1,-5.3003397E-2,-3.2007512E-1,6.22354E-2,-2.3587324E-1,9.873129E-2,-2.6246127E-1,2.6231965E-2,-2.5438073E-1,1.1615622E-1,3.122285E-1,2.770629E-1,1.706581E-2,-5.4737143E-2,-2.991806E-1,-1.11106984E-1,2.2648014E-1,3.1458893E-1,-8.933078E-2,-5.9758937E-3,3.8824338E-1,4.6450783E-2,3.322891E-1,-3.4106346E-3,-2.2065966E-1,-8.070534E-3,1.9308224E-1,4.8251905E-2,3.3834237E-1],"split_indices":[2,2,9,9,9,0,2,0,0,6,1,2,3,7,4,8,0,8,8,9,9,8,0,0,8,10,3,9,3,0,2,8,9,0,0,0,0,0,0,0,0,3,0,10,0,6,8,2,2,9,6,8,9,0,0,0,0,0,0,0,0,0,0,0,0,0,0,0,0,0,0,0,0,0,0,0,0,0,0,0,0,0,0,0,0],"split_type":[0,0,0,0,0,0,0,0,0,0,0,0,0,0,0,0,0,0,0,0,0,0,0,0,0,0,0,0,0,0,0,0,0,0,0,0,0,0,0,0,0,0,0,0,0,0,0,0,0,0,0,0,0,0,0,0,0,0,0,0,0,0,0,0,0,0,0,0,0,0,0,0,0,0,0,0,0,0,0,0,0,0,0,0,0],"sum_hessian":[4.1863824E2,9.135313E1,3.2728513E2,5.5525063E1,3.5828064E1,3.3921722E1,2.933634E2,5.36908E1,1.8342637E0,2.784698E1,7.981084E0,1.4149463E1,1.977226E1,6.1012207E1,2.3235118E2,5.244782E1,1.2429795E0,2.3849085E1,3.9978926E0,5.4915385E0,2.489545E0,5.570854E0,8.5786085E0,1.4848281E1,4.9239798E0,2.862137E1,3.2390835E1,1.8913371E2,4.321748E1,1.6328758E0,5.0814945E1,1.1041371E1,1.2807714E1,2.8308237E0,1.1670691E0,1.6606573E0,3.8308814E0,1.1447577E0,1.3447875E0,3.9705236E0,1.6003305E0,7.4639564E0,1.1146524E0,3.727243E0,1.1967369E0,1.0472308E1,1.8149061E1,2.6636494E1,5.7543435E0,1.6654948E2,2.2584229E1,3.304981E1,1.016767E1,4.6727184E1,4.0877595E0,9.871509E0,1.1698623E0,2.1632257E0,1.0644489E1,1.1915945E0,1.6392292E0,1.553071E0,2.2778103E0,1.1408758E0,2.8296478E0,4.986214E0,2.4777422E0,1.5089214E0,2.2183216E0,1.102235E0,9.370073E0,1.6769863E1,1.3791978E0,1.6426286E0,2.4993864E1,1.9550436E0,3.7993E0,1.6089072E2,5.658763E0,1.7709076E1,4.875153E0,1.3875883E1,1.9173927E1,2.0761364E0,8.091534E0],"tree_param":{"num_deleted":"0","num_feature":"11","num_nodes":"85","size_leaf_vector":"1"}},{"base_weights":[-2.29204E-2,-7.647069E-1,1.3165654E-1,-9.7158796E-1,-4.4753554E-1,-1.5200343E-3,3.145132E-1,-1.0089804E0,9.640293E-3,-1.8282714E-1,-8.125663E-1,-1.2781094E-1,3.8311476E-1,5.876425E-1,1.9255279E-1,-1.0290914E0,-4.442004E-2,-5.2621686E-1,3.9284608E-1,-8.618437E-2,-3.1149083E-1,-1.7166248E-1,4.3692455E-1,8.2967293E-1,2.5683665E-1,-2.4307078E-1,6.4213157E-1,-1.6742718E-1,3.9305186E-1,-7.231702E-2,-3.1578073E-1,-7.883593E-1,1.6243005E-1,3.3734024E-1,4.731964E-3,1.5517692E-1,-1.4638525E-1,-2.5509712E-1,2.6706064E-1,-4.2455426E-1,2.9286253E-1,1.0248148E0,2.2484885E-1,-2.069791E-1,3.8816726E-1,1.0907736E-1,-2.0989211E-1,-8.38593E-2,6.766245E-1,-9.063474E-1,-4.595727E-2,-1.7781577E-1,4.591057E-1,-3.2818154E-2,-3.094373E-1,-9.92643E-2,2.3672351E-1,-1.210719E-1,-1.397012E-2,-9.488764E-3,2.9564586E-1,1.3300264E-1,-2.6359984E-1,3.5899764E-1,1.5507647E-1,-1.9196986E-1,2.4852623E-1,-2.5299886E-1,1.4042482E-1,-4.4218596E-2,1.5262161E-1,1.6023931E-1,3.5837725E-1,-3.878421E-1,4.3224085E-2,8.8264674E-2,-8.691956E-2,2.3263189E-1,-1.4348164E-1,1.5647529E-1,-6.067174E-2],"categories":[],"categories_nodes":[],"categories_segments":[],"categories_sizes":[],"default_left":[0,0,0,0,0,0,0,0,0,0,1,0,0,0,0,0,0,0,0,0,0,0,0,0,0,0,0,0,0,0,0,0,0,0,0,0,0,0,0,0,0,0,0,0,0,0,0,0,0,0,0,1,1,0,0,0,0,0,0,0,0,0,0,0,0,0,0,0,0,0,0,0,0,0,0,0,0,0,0,0,0],"id":5,"left_children":[1,3,5,7,9,11,13,15,-1,17,19,21,23,25,27,29,-1,31,33,35,-1,37,39,41,43,45,47,49,51,-1,-1,53,-1,-1,55,-1,-1,57,59,61,-1,63,65,67,69,-1,-1,-1,71,73,75,77,79,-1,-1,-1,-1,-1,-1,-1,-1,-1,-1,-1,-1,-1,-1,-1,-1,-1,-1,-1,-1,-1,-1,-1,-1,-1,-1,-1,-1],"loss_changes":[4.552712E1,4.057728E0,8.005215E0,1.555603E0,2.6422749E0,9.335929E0,4.501149E0,5.255852E-1,0E0,3.7713428E0,1.8536315E0,3.6578708E0,2.46587E0,2.0695648E0,7.0848107E0,4.5207214E-1,0E0,3.7076397E0,2.0703592E0,1.1979473E0,0E0,5.008686E0,5.388613E0,9.527068E-1,2.4244637E0,1.1760577E0,1.4590359E0,3.1438022E0,2.4481525E0,0E0,0E0,1.5077834E0,0E0,0E0,1.7827207E0,0E0,0E0,3.5082173E0,4.7639284E0,2.2887986E0,0E0,1.8373013E-2,2.475046E0,4.3228917E0,2.0340657E0,0E0,0E0,0E0,2.2254028E0,2.1985745E0,2.7001235E0,2.441463E0,2.4412775E0,0E0,0E0,0E0,0E0,0E0,0E0,0E0,0E0,0E0,0E0,0E0,0E0,0E0,0E0,0E0,0E0,0E0,0E0,0E0,0E0,0E0,0E0,0E0,0E0,0E0,0E0,0E0,0E0],"parents":[2147483647,0,0,1,1,2,2,3,3,4,4,5,5,6,6,7,7,9,9,10,10,11,11,12,12,13,13,14,14,15,15,17,17,18,18,19,19,21,21,22,22,23,23,24,24,25,25,26,26,27,27,28,28,31,31,34,34,37,37,38,38,39,39,41,41,42,42,43,43,44,44,48,48,49,49,50,50,51,51,52,52],"right_children":[2,4,6,8,10,12,14,16,-1,18,20,22,24,26,28,30,-1,32,34,36,-1,38,40,42,44,46,48,50,52,-1,-1,54,-1,-1,56,-1,-1,58,60,62,-1,64,66,68,70,-1,-1,-1,72,74,76,78,80,-1,-1,-1,-1,-1,-1,-1,-1,-1,-1,-1,-1,-1,-1,-1,-1,-1,-1,-1,-1,-1,-1,-1,-1,-1,-1,-1,-1],"split_conditions":[4.2E1,3.2E1,7.1E1,6.35E1,4.1069E4,1.641E2,8.32E1,7.1798E4,9.640293E-3,2.9788E4,2.43E1,1.27000015E2,1.5625E4,5.809E1,1.0449E2,5.809E1,-4.442004E-2,1.0836E2,3.1933E4,7.601E1,-3.1149083E-1,1E0,1.9157E4,4.24E1,2.719E4,5.9813E4,1.589E3,8.512E1,1E0,-7.231702E-2,-3.1578073E-1,1E0,1.6243005E-1,3.3734024E-1,2E0,1.5517692E-1,-1.4638525E-1,1E0,3E0,2.526E3,2.9286253E-1,1E0,5.585E3,2.032E2,0E0,1.0907736E-1,-2.0989211E-1,-8.38593E-2,8.046E1,1E0,1E0,2.46E1,3.74E1,-3.2818154E-2,-3.094373E-1,-9.92643E-2,2.3672351E-1,-1.210719E-1,-1.397012E-2,-9.488764E-3,2.9564586E-1,1.3300264E-1,-2.6359984E-1,3.5899764E-1,1.5507647E-1,-1.9196986E-1,2.4852623E-1,-2.5299886E-1,1.4042482E-1,-4.4218596E-2,1.5262161E-1,1.6023931E-1,3.5837725E-1,-3.878421E-1,4.3224085E-2,8.8264674E-2,-8.691956E-2,2.3263189E-1,-1.4348164E-1,1.5647529E-1,-6.067174E-2],"split_indices":[2,2,2,9,0,8,8,0,0,0,9,9,0,8,8,8,0,8,0,8,0,3,0,9,0,0,0,8,5,0,0,5,0,0,10,0,0,1,6,0,0,3,0,8,10,0,0,0,8,3,10,9,9,0,0,0,0,0,0,0,0,0,0,0,0,0,0,0,0,0,0,0,0,0,0,0,0,0,0,0,0],"split_type":[0,0,0,0,0,0,0,0,0,0,0,0,0,0,0,0,0,0,0,0,0,0,0,0,0,0,0,0,0,0,0,0,0,0,0,0,0,0,0,0,0,0,0,0,0,0,0,0,0,0,0,0,0,0,0,0,0,0,0,0,0,0,0,0,0,0,0,0,0,0,0,0,0,0,0,0,0,0,0,0,0],"sum_hessian":[3.9517316E2,6.746652E1,3.2770663E2,3.9583893E1,2.7882635E1,1.901847E2,1.3752196E2,3.8157154E1,1.4267359E0,1.7032253E1,1.0850382E1,1.4367738E2,4.6507294E1,4.127304E1,9.624891E1,3.7095257E1,1.061898E0,1.07223E1,6.3099527E0,2.9001102E0,7.9502716E0,1.3397064E2,9.706752E0,9.024319E0,3.7482975E1,2.3275452E0,3.8945496E1,3.448994E1,6.1758972E1,1.4006789E0,3.569458E1,8.818636E0,1.9036642E0,1.5294938E0,4.780459E0,1.0442395E0,1.8558708E0,1.1291538E2,2.1055254E1,3.8189368E0,5.8878155E0,6.297936E0,2.7263827E0,8.1442375E0,2.933874E1,1.086936E0,1.2406092E0,1.1486663E0,3.779683E1,3.9570568E0,3.0532885E1,6.229427E0,5.5529545E1,2.707283E0,6.1113524E0,3.7528157E0,1.0276431E0,6.540846E1,4.7506924E1,1.554733E1,5.507924E0,1.319957E0,2.4989798E0,3.6924767E0,2.6054592E0,1.0959737E0,1.6304089E0,4.064013E0,4.080225E0,5.3504148E0,2.3988323E1,3.1235184E1,6.561646E0,2.724099E0,1.2329578E0,1.2659874E1,1.787301E1,1.114042E0,5.115385E0,5.0929462E1,4.6000814E0],"tree_param":{"num_deleted":"0","num_feature":"11","num_nodes":"81","size_leaf_vector":"1"}},{"base_weights":[-1.9842727E-2,-8.1360924E-1,8.323667E-2,-8.6687535E-1,-4.288622E-2,5.083594E-1,4.0226083E-2,-8.9996606E-1,-3.5487846E-2,1.6000244E-1,-1.395811E-1,2.9336327E-1,9.0911585E-1,-1.7945647E-1,1.15155794E-1,-9.1695064E-1,-6.055882E-2,-7.069233E-4,5.981307E-1,3.2016543E-1,2.2339788E-1,-3.9712918E-1,5.5061467E-3,5.3930942E-2,2.9979488E-1,-9.8926574E-1,-6.198517E-1,5.189788E-1,-2.6967624E-1,2.9359263E-1,2.584207E-1,7.414534E-3,9.655288E-2,-7.375318E-1,-2.036569E-1,-1.23475604E-1,6.0150254E-1,9.3258694E-2,-2.9859105E-1,7.9727143E-1,2.156854E-1,-6.1996788E-2,-3.059611E-1,1.5089083E-3,-2.25478E-1,2.1017355E-1,-5.237753E-3,-1.5467797E-1,1.22129016E-1,1.0992277E-2,2.2076151E-1,-8.626868E-2,-3.16005E-1,-2.8895506E-1,-1.2684198E-2,1.0967842E-1,-7.300448E-2,2.5738177E-1,-5.0735045E-2,8.676152E-3,1.5559107E-1,2.4304464E-1,-1.3117038E-1,3.042736E-1,-6.9000825E-2,-1.7847332E-1,8.6085394E-2],"categories":[],"categories_nodes":[],"categories_segments":[],"categories_sizes":[],"default_left":[0,0,1,0,0,0,0,0,0,0,0,0,0,0,0,0,0,0,0,0,0,0,0,0,0,0,0,0,0,0,0,0,0,0,0,0,0,0,0,0,0,0,0,0,0,0,0,0,0,0,0,0,0,0,0,0,0,0,0,0,0,0,0,0,0,0,0],"id":6,"left_children":[1,3,5,7,9,11,13,15,-1,-1,-1,17,19,21,23,25,-1,27,29,-1,31,33,35,37,39,41,43,45,47,49,-1,-1,-1,51,53,55,57,59,61,63,65,-1,-1,-1,-1,-1,-1,-1,-1,-1,-1,-1,-1,-1,-1,-1,-1,-1,-1,-1,-1,-1,-1,-1,-1,-1,-1],"loss_changes":[3.085754E1,1.7422352E0,6.0859966E0,8.965206E-1,1.186165E0,2.3696165E0,5.0307546E0,2.728691E-1,0E0,0E0,0E0,1.9175078E0,8.681631E-1,3.134566E0,2.556336E0,1.9086647E-1,0E0,1.801256E0,5.893822E-1,0E0,5.4189116E-2,2.2045002E0,3.383425E0,2.4140441E0,2.1899905E0,4.6995544E-1,8.2734346E-1,4.4041312E-1,1.6228523E0,6.989986E-1,0E0,0E0,0E0,1.4841852E0,2.922822E0,2.2123077E0,1.6922004E0,4.2435713E0,3.0462093E0,1.9702268E0,3.0392208E0,0E0,0E0,0E0,0E0,0E0,0E0,0E0,0E0,0E0,0E0,0E0,0E0,0E0,0E0,0E0,0E0,0E0,0E0,0E0,0E0,0E0,0E0,0E0,0E0,0E0,0E0],"parents":[2147483647,0,0,1,1,2,2,3,3,4,4,5,5,6,6,7,7,11,11,12,12,13,13,14,14,15,15,17,17,18,18,20,20,21,21,22,22,23,23,24,24,25,25,26,26,27,27,28,28,29,29,33,33,34,34,35,35,36,36,37,37,38,38,39,39,40,40],"right_children":[2,4,6,8,10,12,14,16,-1,-1,-1,18,20,22,24,26,-1,28,30,-1,32,34,36,38,40,42,44,46,48,50,-1,-1,-1,52,54,56,58,60,62,64,66,-1,-1,-1,-1,-1,-1,-1,-1,-1,-1,-1,-1,-1,-1,-1,-1,-1,-1,-1,-1,-1,-1,-1,-1,-1,-1],"split_conditions":[3.7E1,5.08E1,1.58E1,1.8289E2,7.601E1,3.9744E4,5.6E1,7.1798E4,-3.5487846E-2,1.6000244E-1,-1.395811E-1,1E0,1E0,1E0,1E0,3.2E1,-6.055882E-2,0E0,7.5E1,3.2016543E-1,9.256E1,1E0,1E0,6.6973E4,1E0,5.809E1,1.8875E4,1E0,1.7803E2,2.1865E4,2.584207E-1,7.414534E-3,9.655288E-2,3.04E1,2.56E1,7.17E1,3E0,5.8923E4,1E0,3.69E1,2.21E1,-6.1996788E-2,-3.059611E-1,1.5089083E-3,-2.25478E-1,2.1017355E-1,-5.237753E-3,-1.5467797E-1,1.22129016E-1,1.0992277E-2,2.2076151E-1,-8.626868E-2,-3.16005E-1,-2.8895506E-1,-1.2684198E-2,1.0967842E-1,-7.300448E-2,2.5738177E-1,-5.0735045E-2,8.676152E-3,1.5559107E-1,2.4304464E-1,-1.3117038E-1,3.042736E-1,-6.9000825E-2,-1.7847332E-1,8.6085394E-2],"split_indices":[2,9,9,8,8,0,2,0,0,0,0,7,3,7,3,2,0,10,2,0,8,10,3,0,5,8,0,4,8,0,0,0,0,9,9,8,6,0,6,9,9,0,0,0,0,0,0,0,0,0,0,0,0,0,0,0,0,0,0,0,0,0,0,0,0,0,0],"split_type":[0,0,0,0,0,0,0,0,0,0,0,0,0,0,0,0,0,0,0,0,0,0,0,0,0,0,0,0,0,0,0,0,0,0,0,0,0,0,0,0,0,0,0,0,0,0,0,0,0,0,0,0,0,0,0,0,0,0,0,0,0,0,0,0,0,0,0],"sum_hessian":[3.7530716E2,4.234385E1,3.3296332E2,3.9489872E1,2.8539767E0,2.959755E1,3.0336575E2,3.7624474E1,1.8653964E0,1.0960385E0,1.7579381E0,2.0390541E1,9.207008E0,7.6801216E1,2.2656454E2,3.6424786E1,1.1996906E0,1.0885144E1,9.505398E0,7.0298285E0,2.1771798E0,3.4754E1,4.204722E1,1.7111595E2,5.5448593E1,2.742072E1,9.0040655E0,3.3953505E0,7.4897933E0,5.3880124E0,4.117385E0,1.1358503E0,1.0413296E0,1.1575514E1,2.3178486E1,3.521832E1,6.8289E0,1.5460364E2,1.6512304E1,6.7927885E0,4.8655804E1,1.3237067E0,2.6097012E1,1.735239E0,7.268826E0,2.308033E0,1.0873176E0,5.668285E0,1.8215084E0,4.0929623E0,1.2950504E0,5.5617743E0,6.0137396E0,3.191053E0,1.9987434E1,6.5293326E0,2.8688986E1,5.038832E0,1.7900678E0,1.3521973E2,1.9383913E1,1.2969701E0,1.5215335E1,5.618723E0,1.1740656E0,3.3382244E0,4.531758E1],"tree_param":{"num_deleted":"0","num_feature":"11","num_nodes":"67","size_leaf_vector":"1"}},{"base_weights":[-1.6389888E-2,-8.398467E-1,5.5220652E-2,-4.2613283E-1,-9.7219133E-1,-1.2770421E-2,2.8578806E-1,-2.6063433E-1,2.0556305E-1,-3.031568E-1,-7.348665E-2,-8.765502E-2,2.205145E-1,1.72328E-1,5.88743E-1,2.2470826E-1,-1.8366784E-1,8.469882E-2,-2.1163356E-1,3.4002784E-1,-1.18560426E-1,4.4135895E-1,4.5441665E-2,7.733358E-1,-1.1821165E-1,2.8539428E-1,-2.1469456E-1,1.18647456E-1,-3.6299944E-1,3.9950976E-1,-2.2395305E-1,4.433151E-1,-3.6088398E-1,1.575168E-2,8.322307E-1,-1.2545472E-1,5.124666E-1,8.7488055E-1,6.327927E-2,-2.1029362E-1,2.0215268E-1,-4.7285832E-2,1.5614305E-1,-1.1542817E-1,1.6360874E-1,-1.22659974E-1,8.830409E-2,-1.6123882E-1,-1.0541668E-3,7.3214225E-2,2.8065568E-1,-2.9299563E-2,3.4245673E-1,9.345135E-2,-2.4813905E-1,9.9688694E-2,-2.2467922E-1,3.4095854E-1,4.9875267E-2,-1.0560279E-1,4.8238147E-2,-1.9521402E-1,2.1179798E-1,1.6622317E-1,3.531197E-1,1.0497973E-1,-7.505378E-2],"categories":[],"categories_nodes":[],"categories_segments":[],"categories_sizes":[],"default_left":[0,0,0,0,0,0,0,0,1,0,0,0,0,0,1,0,0,0,0,0,0,0,0,0,0,0,0,0,0,0,0,0,0,0,0,0,0,0,0,0,0,0,0,0,0,0,0,0,0,0,0,0,0,0,0,0,0,0,0,0,0,0,0,0,0,0,0],"id":7,"left_children":[1,3,5,7,9,11,13,-1,15,-1,-1,17,19,21,23,-1,-1,25,27,29,31,33,35,37,39,41,43,45,47,49,-1,51,53,55,57,59,61,63,65,-1,-1,-1,-1,-1,-1,-1,-1,-1,-1,-1,-1,-1,-1,-1,-1,-1,-1,-1,-1,-1,-1,-1,-1,-1,-1,-1,-1],"loss_changes":[2.1423489E1,1.1771278E0,5.2467275E0,2.6461587E0,3.4456635E-1,4.548208E0,2.5180755E0,0E0,2.4339347E0,0E0,0E0,4.22671E0,2.604697E0,1.920863E0,2.747141E0,0E0,0E0,5.0556808E0,5.784561E0,3.3388891E0,2.506373E0,2.9992027E0,3.236886E0,1.1177197E0,2.8176274E0,5.3092184E0,4.5953984E0,3.5353618E0,4.9527264E0,3.54292E0,0E0,2.2423682E0,4.2051163E0,2.5938592E0,1.7199879E0,1.9959538E0,2.9008183E0,7.2012997E-1,3.67312E-1,0E0,0E0,0E0,0E0,0E0,0E0,0E0,0E0,0E0,0E0,0E0,0E0,0E0,0E0,0E0,0E0,0E0,0E0,0E0,0E0,0E0,0E0,0E0,0E0,0E0,0E0,0E0,0E0],"parents":[2147483647,0,0,1,1,2,2,3,3,4,4,5,5,6,6,8,8,11,11,12,12,13,13,14,14,17,17,18,18,19,19,20,20,21,21,22,22,23,23,24,24,25,25,26,26,27,27,28,28,29,29,31,31,32,32,33,33,34,34,35,35,36,36,37,37,38,38],"right_children":[2,4,6,8,10,12,14,-1,16,-1,-1,18,20,22,24,-1,-1,26,28,30,32,34,36,38,40,42,44,46,48,50,-1,52,54,56,58,60,62,64,66,-1,-1,-1,-1,-1,-1,-1,-1,-1,-1,-1,-1,-1,-1,-1,-1,-1,-1,-1,-1,-1,-1,-1,-1,-1,-1,-1,-1],"split_conditions":[3.4E1,7.619E1,7.8E1,2.56E1,1.8289E2,1.641E2,3.17E1,-2.6063433E-1,3.12E1,-3.031568E-1,-7.348665E-2,1E0,3E0,2.37E1,3.74E1,2.2470826E-1,-1.8366784E-1,4.2555E4,7.843E1,7.7E1,1.963E2,3.5907E4,1E0,8.2E1,4.24E1,1.8169E4,7.3E1,2.6719E4,2E0,7E1,-2.2395305E-1,5.3616E4,1E0,2.7048E4,6.1796E4,1E0,1E0,3E0,9.783E1,-2.1029362E-1,2.0215268E-1,-4.7285832E-2,1.5614305E-1,-1.1542817E-1,1.6360874E-1,-1.22659974E-1,8.830409E-2,-1.6123882E-1,-1.0541668E-3,7.3214225E-2,2.8065568E-1,-2.9299563E-2,3.4245673E-1,9.345135E-2,-2.4813905E-1,9.9688694E-2,-2.2467922E-1,3.4095854E-1,4.9875267E-2,-1.0560279E-1,4.8238147E-2,-1.9521402E-1,2.1179798E-1,1.6622317E-1,3.531197E-1,1.0497973E-1,-7.505378E-2],"split_indices":[2,8,2,9,8,8,9,0,9,0,0,10,6,9,9,0,0,0,8,2,8,0,3,2,9,0,2,0,10,2,0,0,10,0,0,10,6,6,8,0,0,0,0,0,0,0,0,0,0,0,0,0,0,0,0,0,0,0,0,0,0,0,0,0,0,0,0],"split_type":[0,0,0,0,0,0,0,0,0,0,0,0,0,0,0,0,0,0,0,0,0,0,0,0,0,0,0,0,0,0,0,0,0,0,0,0,0,0,0,0,0,0,0,0,0,0,0,0,0,0,0,0,0,0,0,0,0,0,0,0,0,0,0,0,0,0,0],"sum_hessian":[3.6151944E2,2.8065336E1,3.334541E2,7.8247557E0,2.0240582E1,2.582457E2,7.5208405E1,4.380143E0,3.4446125E0,1.8857117E1,1.3834635E0,1.9596506E2,6.2280643E1,5.5857834E1,1.9350569E1,2.1199052E0,1.3247074E0,8.211976E1,1.1384531E2,4.604752E1,1.6233126E1,1.710742E1,3.8750416E1,1.5269622E1,4.080947E0,4.919148E1,3.2928276E1,3.5845787E1,7.799952E1,4.4257004E1,1.7905153E0,4.641484E0,1.1591642E1,8.687829E0,8.41959E0,2.8904787E1,9.845628E0,1.3156054E1,2.113568E0,2.4173367E0,1.6636102E0,1.7167948E1,3.2023533E1,2.7311079E1,5.617196E0,8.624578E0,2.722121E1,5.218051E1,2.5819008E1,3.5434887E1,8.822116E0,3.0998213E0,1.5416627E0,4.882427E0,6.709215E0,6.544251E0,2.1435778E0,5.2940817E0,3.1255085E0,1.6006517E1,1.289827E1,1.0674411E0,8.778187E0,7.755882E0,5.4001718E0,1.0432092E0,1.0703589E0],"tree_param":{"num_deleted":"0","num_feature":"11","num_nodes":"67","size_leaf_vector":"1"}},{"base_weights":[-1.2698736E-2,-7.833149E-1,4.315759E-2,-3.767852E-1,-9.322567E-1,-3.0539709E-3,3.0126667E-1,-2.450971E-1,1.3749105E-1,-2.9401723E-1,-6.3037336E-2,4.02862E-1,-3.632152E-2,-1.4076033E-1,4.0730593E-1,5.3165275E-1,-1.6896412E-1,2.6545946E-2,8.2759684E-1,-3.189105E-1,-2.0473504E-2,-6.43386E-1,4.6016634E-1,3.1187788E-1,3.2109398E-1,-3.865435E-2,2.7666613E-1,4.4867176E-1,-4.4853875E-1,6.740299E-2,2.653521E-1,1.2298884E-2,-3.3033597E-1,1.116809E-2,-9.92855E-1,2.4723254E-1,-9.1985136E-2,-1.6700646E-1,3.8288847E-1,2.3520292E-1,-4.71368E-2,-2.0350756E-1,4.8765548E-2,1.4311399E-1,-2.8008665E-3,-1.8838579E-2,-1.9958209E-1,-3.524805E-1,-8.4589854E-2,5.602671E-2,2.237489E-1],"categories":[],"categories_nodes":[],"categories_segments":[],"categories_sizes":[],"default_left":[0,0,0,0,0,1,0,0,1,0,0,0,0,0,0,0,0,0,0,0,0,1,0,0,0,0,0,0,0,0,0,0,0,0,0,0,0,0,0,0,0,0,0,0,0,0,0,0,0,0,0],"id":8,"left_children":[1,3,5,7,9,11,13,-1,15,-1,-1,17,19,21,23,25,-1,27,29,-1,31,33,35,-1,37,-1,-1,39,41,-1,-1,43,45,-1,47,-1,-1,-1,49,-1,-1,-1,-1,-1,-1,-1,-1,-1,-1,-1,-1],"loss_changes":[1.5099631E1,1.0842047E0,3.9048812E0,1.9313759E0,3.6956692E-1,3.7766986E0,2.3874292E0,0E0,1.5593442E0,0E0,0E0,3.3642385E0,4.18287E0,3.4256132E0,1.8657193E0,1.0046654E0,0E0,2.6611915E0,1.4163065E-1,0E0,2.5986323E0,1.4781435E0,1.7323436E0,0E0,2.2177017E0,0E0,0E0,1.5442058E0,9.909991E-1,0E0,0E0,2.3374298E0,2.1513114E0,0E0,1.9159198E-1,0E0,0E0,0E0,2.3605475E0,0E0,0E0,0E0,0E0,0E0,0E0,0E0,0E0,0E0,0E0,0E0,0E0],"parents":[2147483647,0,0,1,1,2,2,3,3,4,4,5,5,6,6,8,8,11,11,12,12,13,13,14,14,15,15,17,17,18,18,20,20,21,21,22,22,24,24,27,27,28,28,31,31,32,32,34,34,38,38],"right_children":[2,4,6,8,10,12,14,-1,16,-1,-1,18,20,22,24,26,-1,28,30,-1,32,34,36,-1,38,-1,-1,40,42,-1,-1,44,46,-1,48,-1,-1,-1,50,-1,-1,-1,-1,-1,-1,-1,-1,-1,-1,-1,-1],"split_conditions":[3.4E1,7.619E1,1E0,2.56E1,1.8289E2,1.83E1,1.5385E4,-2.450971E-1,3.12E1,-2.9401723E-1,-6.3037336E-2,1E0,1.96E1,1.0978E2,6.7E1,2.99E1,-1.6896412E-1,1E0,1E0,-3.189105E-1,6.6973E4,2.73E1,3.69E1,3.1187788E-1,7.199E1,-3.865435E-2,2.7666613E-1,1.1521E2,3.9744E4,6.740299E-2,2.653521E-1,2.15E1,3.04E1,1.116809E-2,9.762E3,2.4723254E-1,-9.1985136E-2,-1.6700646E-1,3E0,2.3520292E-1,-4.71368E-2,-2.0350756E-1,4.8765548E-2,1.4311399E-1,-2.8008665E-3,-1.8838579E-2,-1.9958209E-1,-3.524805E-1,-8.4589854E-2,5.602671E-2,2.237489E-1],"split_indices":[2,8,4,9,8,9,0,0,9,0,0,7,9,8,8,9,0,10,5,0,0,9,9,0,8,0,0,8,0,0,0,9,9,0,0,0,0,0,6,0,0,0,0,0,0,0,0,0,0,0,0],"split_type":[0,0,0,0,0,0,0,0,0,0,0,0,0,0,0,0,0,0,0,0,0,0,0,0,0,0,0,0,0,0,0,0,0,0,0,0,0,0,0,0,0,0,0,0,0,0,0,0,0,0,0],"sum_hessian":[3.4901163E2,2.2707407E1,3.263042E2,7.03512E0,1.5672287E1,2.7759253E2,4.871168E1,3.4733849E0,3.5617352E0,1.4364288E1,1.3079988E0,2.0185705E1,2.5740683E2,9.361331E0,3.9350353E1,2.433883E0,1.1278523E0,1.1266266E1,8.919438E0,2.9084144E0,2.5449841E2,5.059129E0,4.3022017E0,3.3947024E0,3.595565E1,1.1534129E0,1.2804699E0,5.995074E0,5.271192E0,1.1960554E0,7.723383E0,2.3102457E2,2.3473843E1,2.0195E0,3.039629E0,2.8667717E0,1.4354299E0,1.8380271E0,3.4117622E1,3.6695871E0,2.325487E0,3.7505875E0,1.5206046E0,9.340028E0,2.2168454E2,1.3710046E1,9.763797E0,1.9001696E0,1.1394594E0,2.31318E1,1.0985824E1],"tree_param":{"num_deleted":"0","num_feature":"11","num_nodes":"51","size_leaf_vector":"1"}},{"base_weights":[-1.147819E-2,-7.872097E-1,2.8757999E-2,-2.1849783E-1,-2.9015502E-1,-2.1166764E-2,2.045325E-1,-5.6530005E-1,1.4474371E-1,-8.1479E-1,-4.3264288E-3,1.1220911E-1,4.686801E-1,-2.1759857E-1,-1.5802985E-2,-2.7962768E-2,-3.4023422E-1,-6.061714E-2,1.705108E-1,-2.4158467E-1,1.7063181E-1,6.2885284E-1,-8.47541E-2,-1.9749923E-1,6.381301E-2,6.62474E-1,6.546947E-2,3.1212392E-1,-7.8330946E-1,5.8716744E-1,5.264589E-2,8.013438E-1,1.9827823E-1,-1.6638081E-1,1.7069909E-1,-9.968342E-2,8.526629E-2,8.071591E-2,-2.5547137E-2,-8.307822E-2,2.3942322E-1,4.7955826E-2,-9.219746E-2,1.0477864E-1,-3.261339E-1,7.183289E-2,3.4028512E-1,-1.0151273E-1,7.569784E-2,3.0274892E-1,6.398485E-2,-3.433027E-2,2.1519348E-1],"categories":[],"categories_nodes":[],"categories_segments":[],"categories_sizes":[],"default_left":[0,0,0,0,0,0,0,0,0,0,0,0,1,0,0,0,0,0,1,0,0,0,0,0,0,0,0,0,0,0,0,0,0,0,0,0,0,0,0,0,0,0,0,0,0,0,0,0,0,0,0,0,0],"id":9,"left_children":[1,3,5,7,-1,9,11,13,-1,15,17,19,21,-1,-1,-1,-1,23,25,27,29,31,33,35,37,39,41,-1,43,45,47,49,51,-1,-1,-1,-1,-1,-1,-1,-1,-1,-1,-1,-1,-1,-1,-1,-1,-1,-1,-1,-1],"loss_changes":[1.0674929E1,1.5147839E0,2.8600423E0,1.5723054E0,0E0,3.395729E0,1.7051408E0,2.929541E-1,0E0,1.1107943E0,2.4713812E0,1.1723454E0,1.6801586E0,0E0,0E0,0E0,0E0,3.2469985E0,3.1173935E0,6.4888625E0,2.3061533E0,9.070349E-1,1.8515555E0,5.9811754E0,3.087388E0,1.5779324E0,1.8616203E0,0E0,2.5520508E0,1.7066209E0,3.064569E0,9.9686813E-1,9.640328E-1,0E0,0E0,0E0,0E0,0E0,0E0,0E0,0E0,0E0,0E0,0E0,0E0,0E0,0E0,0E0,0E0,0E0,0E0,0E0,0E0],"parents":[2147483647,0,0,1,1,2,2,3,3,5,5,6,6,7,7,9,9,10,10,11,11,12,12,17,17,18,18,19,19,20,20,21,21,22,22,23,23,24,24,25,25,26,26,28,28,29,29,30,30,31,31,32,32],"right_children":[2,4,6,8,-1,10,12,14,-1,16,18,20,22,-1,-1,-1,-1,24,26,28,30,32,34,36,38,40,42,-1,44,46,48,50,52,-1,-1,-1,-1,-1,-1,-1,-1,-1,-1,-1,-1,-1,-1,-1,-1,-1,-1,-1,-1],"split_conditions":[3.2E1,7.044E1,7.8E1,3.08E1,-2.9015502E-1,2.02E1,3.17E1,6.525E1,1.4474371E-1,8.698E1,1.641E2,6.736E1,3.74E1,-2.1759857E-1,-1.5802985E-2,-2.7962768E-2,-3.4023422E-1,1E0,2.32E1,7.9E1,8.178E1,4.4267E4,4.24E1,2E0,1E0,5.585E3,7.3E1,3.1212392E-1,2.31E1,4.8266E4,9.595E1,1.7213E2,6.3281E4,-1.6638081E-1,1.7069909E-1,-9.968342E-2,8.526629E-2,8.071591E-2,-2.5547137E-2,-8.307822E-2,2.3942322E-1,4.7955826E-2,-9.219746E-2,1.0477864E-1,-3.261339E-1,7.183289E-2,3.4028512E-1,-1.0151273E-1,7.569784E-2,3.0274892E-1,6.398485E-2,-3.433027E-2,2.1519348E-1],"split_indices":[2,8,2,9,0,9,9,8,0,8,8,8,9,0,0,0,0,7,9,2,8,0,9,10,10,0,2,0,9,0,8,8,0,0,0,0,0,0,0,0,0,0,0,0,0,0,0,0,0,0,0,0,0],"split_type":[0,0,0,0,0,0,0,0,0,0,0,0,0,0,0,0,0,0,0,0,0,0,0,0,0,0,0,0,0,0,0,0,0,0,0,0,0,0,0,0,0,0,0,0,0,0,0,0,0,0,0,0,0],"sum_hessian":[3.4028308E2,1.5864256E1,3.2441882E2,4.345777E0,1.1518478E1,2.5334227E2,7.1076546E1,3.0368674E0,1.3089097E0,4.2795496E0,2.4906271E2,5.3724026E1,1.7352522E1,1.998157E0,1.0387105E0,1.7091826E0,2.570367E0,1.8889821E2,6.0164505E1,7.1698756E0,4.655415E1,1.3351973E1,4.0005484E0,8.966884E1,9.922938E1,9.652064E0,5.051244E1,1.8563193E0,5.313556E0,9.398223E0,3.7155926E1,8.918187E0,4.433786E0,2.4159062E0,1.5846423E0,7.030787E1,1.936097E1,4.1393875E1,5.78355E1,1.0860678E0,8.565997E0,4.0763283E1,9.749156E0,1.0922068E0,4.2213492E0,6.6251783E0,2.7730448E0,1.2325353E1,2.4830574E1,6.060379E0,2.8578084E0,3.2532556E0,1.1805303E0],"tree_param":{"num_deleted":"0","num_feature":"11","num_nodes":"53","size_leaf_vector":"1"}},{"base_weights":[-7.628032E-3,-6.9568264E-1,2.5214627E-2,-2.7577466E-1,-2.7667162E-1,-1.5775609E-1,5.8615323E-2,-2.1832182E-1,1.3311616E-1,-2.6783535E-1,-9.6880235E-2,6.7524426E-2,-6.3641876E-1,4.8551634E-1,-1.5925327E-1,-1.9311091E-1,3.269486E-1,3.820192E-2,3.2758594E-1,-1.0617769E-2,-2.79074E-1,-2.0470854E-2,2.2731519E-1,-5.800712E-1,-2.2339806E-2,3.5749942E-1,-1.1738433E-1,3.389805E-1,9.414672E-4,-1.3944377E-1,5.6256783E-1,4.1354734E-2,-2.2636224E-1,1.7555848E-1,-7.5278E-2,9.388348E-2,-1.1725735E-1,3.3908494E-2,2.6717153E-1,-1.6366449E-1,6.3785394E-3,-8.813524E-2,1.0357626E-1,2.4708757E-1,1.244134E-2],"categories":[],"categories_nodes":[],"categories_segments":[],"categories_sizes":[],"default_left":[0,0,0,0,0,0,1,0,1,0,0,0,0,0,0,0,0,0,0,0,0,0,0,0,0,0,1,0,0,0,0,0,0,0,0,0,0,0,0,0,0,0,0,0,0],"id":10,"left_children":[1,3,5,7,-1,9,11,-1,13,-1,15,17,19,21,-1,23,25,27,29,-1,-1,-1,-1,31,33,-1,35,37,39,41,43,-1,-1,-1,-1,-1,-1,-1,-1,-1,-1,-1,-1,-1,-1],"loss_changes":[7.5596848E0,1.1955309E0,1.9619395E0,1.3475647E0,0E0,2.1326246E0,1.7205764E0,0E0,1.2868953E0,0E0,1.9768941E0,2.034212E0,5.895406E-1,5.635476E-1,0E0,2.5555604E0,3.6185474E0,2.7155738E0,3.0485733E0,0E0,0E0,0E0,0E0,1.589685E0,4.036397E0,0E0,9.3327194E-1,3.2281396E0,2.4172108E0,8.390782E-1,2.442213E0,0E0,0E0,0E0,0E0,0E0,0E0,0E0,0E0,0E0,0E0,0E0,0E0,0E0,0E0],"parents":[2147483647,0,0,1,1,2,2,3,3,5,5,6,6,8,8,10,10,11,11,12,12,13,13,15,15,16,16,17,17,18,18,23,23,24,24,26,26,27,27,28,28,29,29,30,30],"right_children":[2,4,6,8,-1,10,12,-1,14,-1,16,18,20,22,-1,24,26,28,30,-1,-1,-1,-1,32,34,-1,36,38,40,42,44,-1,-1,-1,-1,-1,-1,-1,-1,-1,-1,-1,-1,-1,-1],"split_conditions":[3.3E1,7.619E1,5E1,2.56E1,-2.7667162E-1,5.585E3,4.89E1,-2.1832182E-1,3.12E1,-2.6783535E-1,4.02E1,4.38E1,5.5E1,2.99E1,-1.5925327E-1,2.7641E4,2.2256E4,8.718E3,1.6374E4,-1.0617769E-2,-2.79074E-1,-2.0470854E-2,2.2731519E-1,1E0,3.6382E4,3.5749942E-1,4.04E1,6.027E3,1.1404E4,1E0,1E0,4.1354734E-2,-2.2636224E-1,1.7555848E-1,-7.5278E-2,9.388348E-2,-1.1725735E-1,3.3908494E-2,2.6717153E-1,-1.6366449E-1,6.3785394E-3,-8.813524E-2,1.0357626E-1,2.4708757E-1,1.244134E-2],"split_indices":[2,8,2,9,0,0,9,0,9,0,9,9,2,9,0,0,0,0,0,0,0,0,0,5,0,0,9,0,0,3,3,0,0,0,0,0,0,0,0,0,0,0,0,0,0],"split_type":[0,0,0,0,0,0,0,0,0,0,0,0,0,0,0,0,0,0,0,0,0,0,0,0,0,0,0,0,0,0,0,0,0,0,0,0,0,0,0,0,0,0,0,0,0],"sum_hessian":[3.3275946E2,1.42404E1,3.1851904E2,5.7676525E0,8.472748E0,4.859423E1,2.6992484E2,2.3691452E0,3.3985074E0,2.6715608E0,4.592267E1,2.674001E2,2.5247486E0,2.3957229E0,1.0027844E0,3.7868877E1,8.053793E0,2.4133583E2,2.6064253E1,1.1969124E0,1.327836E0,1.0364782E0,1.3592448E0,1.0861159E1,2.7007719E1,2.162817E0,5.8909755E0,2.5708754E1,2.1562708E2,8.86049E0,1.7203764E1,2.1644824E0,8.696677E0,6.9571233E0,2.0050594E1,2.2329469E0,3.6580286E0,1.9092623E1,6.616131E0,6.8036637E0,2.0882341E2,7.019258E0,1.8412315E0,1.10749235E1,6.1288404E0],"tree_param":{"num_deleted":"0","num_feature":"11","num_nodes":"45","size_leaf_vector":"1"}},{"base_weights":[-8.205182E-3,-6.8253464E-1,1.6532874E-2,-1.4126459E-1,-2.74768E-1,-2.3456218E-2,1.5967539E-1,-1.8171176E-1,2.4897088E-1,-6.997929E-1,-9.729655E-3,5.020441E-2,3.224087E-1,2.0537175E-1,-8.2869925E-2,-2.1086182E-2,-3.0087578E-1,-1.9655041E-1,-6.4036186E-4,-4.64226E-1,1.606585E-1,2.4860084E-1,1.8646958E-1,-6.7288786E-2,8.8001266E-2,-1.134682E0,1.6270684E-1,7.586279E-1,-1.9223712E-2,-2.2777347E-1,3.1438893E-1,1.8769268E-2,-8.189448E-2,8.133235E-2,-2.111711E-2,-4.3502827E-3,-4.5979887E-1,-1.300278E-1,1.8850383E-1,2.8597596E-1,-8.939271E-2,-1.2447206E-1,6.1918847E-2,7.2118216E-3,2.1610974E-1],"categories":[],"categories_nodes":[],"categories_segments":[],"categories_sizes":[],"default_left":[0,0,0,0,0,0,0,0,0,0,0,0,0,0,0,0,0,0,0,0,0,0,0,1,0,0,0,0,0,0,0,0,0,0,0,0,0,0,0,0,0,0,0,0,0],"id":11,"left_children":[1,3,5,7,-1,9,11,-1,13,15,17,19,21,-1,-1,-1,-1,-1,23,25,27,-1,29,31,33,35,37,39,41,-1,43,-1,-1,-1,-1,-1,-1,-1,-1,-1,-1,-1,-1,-1,-1],"loss_changes":[5.478228E0,1.3384476E0,1.8188821E0,9.995884E-1,0E0,2.3023527E0,1.2196343E0,0E0,9.33456E-1,8.709338E-1,1.4357024E0,2.4983964E0,1.7527921E0,0E0,0E0,0E0,0E0,0E0,1.4379709E0,3.4619951E0,3.8718238E0,0E0,3.0378401E0,3.7279048E0,3.0489109E0,1.7134008E0,1.6335903E0,1.994473E0,2.633731E0,0E0,2.468494E0,0E0,0E0,0E0,0E0,0E0,0E0,0E0,0E0,0E0,0E0,0E0,0E0,0E0,0E0],"parents":[2147483647,0,0,1,1,2,2,3,3,5,5,6,6,8,8,9,9,10,10,11,11,12,12,18,18,19,19,20,20,22,22,23,23,24,24,25,25,26,26,27,27,28,28,30,30],"right_children":[2,4,6,8,-1,10,12,-1,14,16,18,20,22,-1,-1,-1,-1,-1,24,26,28,-1,30,32,34,36,38,40,42,-1,44,-1,-1,-1,-1,-1,-1,-1,-1,-1,-1,-1,-1,-1,-1],"split_conditions":[3.2E1,7.044E1,7.8E1,2.54E1,-2.74768E-1,2.02E1,3E0,-1.8171176E-1,2.2E1,8.698E1,5.67E1,1.1973E4,1.071E4,2.0537175E-1,-8.2869925E-2,-2.1086182E-2,-3.0087578E-1,-1.9655041E-1,1E0,9.305E1,2.5074E4,2.4860084E-1,1.7004E4,3.16E1,1E0,8.413E1,1E0,2.0533E2,4.1238E4,-2.2777347E-1,2.85E1,1.8769268E-2,-8.189448E-2,8.133235E-2,-2.111711E-2,-4.3502827E-3,-4.5979887E-1,-1.300278E-1,1.8850383E-1,2.8597596E-1,-8.939271E-2,-1.2447206E-1,6.1918847E-2,7.2118216E-3,2.1610974E-1],"split_indices":[2,8,2,9,0,9,6,0,2,8,8,0,0,0,0,0,0,0,1,8,0,0,0,9,10,8,10,8,0,0,9,0,0,0,0,0,0,0,0,0,0,0,0,0,0],"split_type":[0,0,0,0,0,0,0,0,0,0,0,0,0,0,0,0,0,0,0,0,0,0,0,0,0,0,0,0,0,0,0,0,0,0,0,0,0,0,0,0,0,0,0,0,0],"sum_hessian":[3.26723E2,1.0620855E1,3.1610214E2,3.6831737E0,6.937682E0,2.477308E2,6.837133E1,1.4295869E0,2.2535868E0,3.9335904E0,2.4379723E2,4.1657063E1,2.6714268E1,1.0660057E0,1.187581E0,1.6788919E0,2.2546985E0,2.3984716E0,2.4139874E2,6.797129E0,3.4859932E1,4.57612E0,2.2138147E1,1.3793112E2,1.0346763E2,2.8931913E0,3.9039378E0,7.3175087E0,2.7542425E1,2.049649E0,2.00885E1,8.497965E1,5.2951466E1,4.7659668E1,5.5807964E1,1.0301381E0,1.8630533E0,1.7424077E0,2.16153E0,6.2618895E0,1.0556192E0,9.697089E0,1.7845335E1,1.232968E1,7.7588186E0],"tree_param":{"num_deleted":"0","num_feature":"11","num_nodes":"45","size_leaf_vector":"1"}},{"base_weights":[-8.944487E-3,-4.302549E-1,1.9892618E-2,-5.557187E-1,5.28311E-2,-5.368181E-2,8.293952E-2,-6.3193494E-1,7.234463E-2,-4.0232316E-1,1.7499736E-1,-9.038535E-3,-5.712638E-1,2.2979261E-1,-1.8357135E-2,-1.6273057E-2,-6.6849536E-1,1.8143281E-2,-1.885269E-1,-6.23782E-2,2.952039E-1,-9.3594295E-1,2.7962692E-2,6.5520936E-1,7.358561E-2,1.313611E-1,-2.8584674E-1,-7.065998E-1,-2.73613E-2,-1.3334468E-1,1.8061295E-1,6.701214E-1,-4.8492458E-2,-4.1808534E-1,-3.327049E-1,-3.17905E-1,1.5651919E-1,3.1209677E-1,1.1386304E0,3.2941396E-3,8.7673795E-1,-5.027962E-3,5.852114E-1,-6.37747E-1,-1.0677161E-1,-1.05300896E-1,-2.3575749E-1,6.5561704E-2,-5.9599016E-2,-1.2557936E-2,1.4030084E-1,3.5332566E-1,1.2028984E-1,-1.1964639E-1,1.4618613E-1,-2.0302558E-1,3.4517958E-3,1.4098082E-1,-2.567408E-1,2.0871776E-1,-1.9979933E-1,5.296222E-1,1.2946127E-1,6.2245946E-2,-1.1591939E-1,-8.823057E-3,3.5834533E-1,-4.156082E-2,1.7715861E-1,-2.4945093E-2,2.520367E-1,-2.928392E-1,-1.0778937E-2,1.5788937E-1,-8.282599E-2],"categories":[],"categories_nodes":[],"categories_segments":[],"categories_sizes":[],"default_left":[0,0,0,0,0,0,1,0,0,0,0,0,0,0,0,0,0,0,0,0,0,0,0,0,1,0,0,0,0,0,0,0,0,0,0,0,0,0,0,0,0,0,0,0,0,0,0,0,0,0,0,0,0,0,0,0,0,0,0,0,0,0,0,0,0,0,0,0,0,0,0,0,0,0,0],"id":12,"left_children":[1,3,5,7,9,11,13,15,-1,17,-1,19,21,23,25,-1,27,-1,-1,29,31,33,35,37,39,41,43,45,-1,47,49,51,53,55,-1,57,-1,59,61,63,65,67,69,71,73,-1,-1,-1,-1,-1,-1,-1,-1,-1,-1,-1,-1,-1,-1,-1,-1,-1,-1,-1,-1,-1,-1,-1,-1,-1,-1,-1,-1,-1,-1],"loss_changes":[3.9290488E0,1.2849655E0,1.4098418E0,1.1564484E0,1.4864475E0,3.2394884E0,2.4371908E0,2.8825855E-1,0E0,3.9190137E-1,0E0,2.132741E0,2.4592373E0,4.3933544E0,3.9508674E0,0E0,2.5148535E-1,0E0,0E0,1.9498874E0,2.559278E0,1.5930367E-1,1.0510696E0,2.6010838E0,2.820615E0,3.9233742E0,2.1614852E0,9.9705696E-2,0E0,2.0433023E0,1.6588099E0,8.183894E-1,2.2896304E0,3.796186E-1,0E0,1.9572625E0,0E0,4.891958E0,2.3500538E0,3.81946E0,1.1929154E0,4.032837E0,2.5647144E0,2.3539586E0,2.7874367E0,0E0,0E0,0E0,0E0,0E0,0E0,0E0,0E0,0E0,0E0,0E0,0E0,0E0,0E0,0E0,0E0,0E0,0E0,0E0,0E0,0E0,0E0,0E0,0E0,0E0,0E0,0E0,0E0,0E0,0E0],"parents":[2147483647,0,0,1,1,2,2,3,3,4,4,5,5,6,6,7,7,9,9,11,11,12,12,13,13,14,14,16,16,19,19,20,20,21,21,22,22,23,23,24,24,25,25,26,26,27,27,29,29,30,30,31,31,32,32,33,33,35,35,37,37,38,38,39,39,40,40,41,41,42,42,43,43,44,44],"right_children":[2,4,6,8,10,12,14,16,-1,18,-1,20,22,24,26,-1,28,-1,-1,30,32,34,36,38,40,42,44,46,-1,48,50,52,54,56,-1,58,-1,60,62,64,66,68,70,72,74,-1,-1,-1,-1,-1,-1,-1,-1,-1,-1,-1,-1,-1,-1,-1,-1,-1,-1,-1,-1,-1,-1,-1,-1,-1,-1,-1,-1,-1,-1],"split_conditions":[3.8E1,3.74E1,2.91E1,1.8289E2,3.5E1,2.86E1,3.16E1,6.041E1,7.234463E-2,7.231E1,1.7499736E-1,1E0,7.1E1,8.265E1,4.7682E4,-1.6273057E-2,6.9243E4,1.8143281E-2,-1.885269E-1,1E0,1E0,5.6E1,1.1159E2,4.8714E4,3.14E1,3.7651E4,5.5912E4,1.8875E4,-2.73613E-2,1.3085E4,2.62E1,2.32E1,7.8E1,3.9879E4,-3.327049E-1,7.5E1,1.5651919E-1,3.7923E4,6.55E1,7.3E1,3.5346E4,2E0,5.6E1,1.213E2,6.0191E4,-1.05300896E-1,-2.3575749E-1,6.5561704E-2,-5.9599016E-2,-1.2557936E-2,1.4030084E-1,3.5332566E-1,1.2028984E-1,-1.1964639E-1,1.4618613E-1,-2.0302558E-1,3.4517958E-3,1.4098082E-1,-2.567408E-1,2.0871776E-1,-1.9979933E-1,5.296222E-1,1.2946127E-1,6.2245946E-2,-1.1591939E-1,-8.823057E-3,3.5834533E-1,-4.156082E-2,1.7715861E-1,-2.4945093E-2,2.520367E-1,-2.928392E-1,-1.0778937E-2,1.5788937E-1,-8.282599E-2],"split_indices":[2,9,9,8,2,9,9,8,0,8,0,4,2,8,0,0,0,0,0,3,10,2,8,0,9,0,0,0,0,0,9,9,2,0,0,2,0,0,8,2,0,10,2,8,0,0,0,0,0,0,0,0,0,0,0,0,0,0,0,0,0,0,0,0,0,0,0,0,0,0,0,0,0,0,0],"split_type":[0,0,0,0,0,0,0,0,0,0,0,0,0,0,0,0,0,0,0,0,0,0,0,0,0,0,0,0,0,0,0,0,0,0,0,0,0,0,0,0,0,0,0,0,0,0,0,0,0,0,0,0,0,0,0,0,0,0,0,0,0,0,0,0,0,0,0,0,0,0,0,0,0,0,0],"sum_hessian":[3.2169067E2,1.9716227E1,3.0197446E2,1.5532008E1,4.1842194E0,1.3942126E2,1.6255319E2,1.4365043E1,1.1669655E0,2.382059E0,1.8021601E0,1.2928725E2,1.0134019E1,6.583766E1,9.671553E1,1.0028393E0,1.3362204E1,1.0222162E0,1.3598429E0,1.1067817E2,1.8609081E1,5.950641E0,4.183378E0,1.6824108E1,4.901355E1,6.2334705E1,3.4380825E1,1.2324711E1,1.0374923E0,8.6009895E1,2.4668274E1,8.446051E0,1.0163031E1,2.346191E0,3.60445E0,2.6695876E0,1.5137907E0,1.0802519E1,6.0215893E0,4.599242E1,3.0211308E0,4.8691174E1,1.3643532E1,1.0731342E1,2.3649483E1,3.2357876E0,9.088923E0,1.3098763E1,7.291113E1,1.4378733E1,1.0289541E1,1.7568569E0,6.689194E0,6.2995706E0,3.8634603E0,1.1053163E0,1.2408746E0,1.1344064E0,1.5351813E0,7.9665604E0,2.8359585E0,2.3986664E0,3.6229231E0,3.0485878E1,1.5506542E1,1.0199325E0,2.0011983E0,4.0401585E1,8.289587E0,3.9529445E0,9.690587E0,6.4709506E0,4.260392E0,4.545489E0,1.9103994E1],"tree_param":{"num_deleted":"0","num_feature":"11","num_nodes":"75","size_leaf_vector":"1"}},{"base_weights":[-4.3442207E-3,-5.722917E-1,1.1922782E-2,-6.71872E-2,-2.5629494E-1,-5.185286E-1,1.9551184E-2,-1.5831381E-1,2.5115207E-1,-2.504588E-1,8.125769E-2,-1.4094809E-2,1.4474241E-1,1.7172822E-1,-6.236315E-2,-2.72105E-1,5.0195768E-3,6.4518094E-1,9.198383E-2,-4.95479E-1,3.800125E-1,3.090453E-1,-3.618924E-2,2.6357326E-1,-2.6438707E-2,-2.1782042E-2,2.9401335E-1,-2.0066667E-2,-1.9458297E-1,-8.2552396E-2,2.577429E-1,3.4752574E-2,2.690108E-1,-3.1894542E-2,1.7856125E-2,5.281668E-2,-9.3082845E-2,2.8839126E-2,2.6438883E-1],"categories":[],"categories_nodes":[],"categories_segments":[],"categories_sizes":[],"default_left":[0,0,0,0,0,0,0,0,0,0,0,0,1,0,0,1,0,0,0,0,0,0,0,0,0,0,0,0,0,0,0,0,0,0,0,0,0,0,0],"id":13,"left_children":[1,3,5,7,-1,9,11,-1,13,-1,-1,15,17,-1,-1,19,21,23,25,27,29,31,33,-1,-1,35,37,-1,-1,-1,-1,-1,-1,-1,-1,-1,-1,-1,-1],"loss_changes":[2.9412181E0,1.2053223E0,1.2635487E0,7.5726527E-1,0E0,1.3317758E0,1.292335E0,0E0,5.904989E-1,0E0,0E0,1.1965549E0,1.6561906E0,0E0,0E0,2.6258378E0,2.8503284E0,1.1095695E0,1.3842055E0,8.0314136E-1,1.7543534E0,2.9791815E0,1.3517575E0,0E0,0E0,2.296607E0,2.4329948E0,0E0,0E0,0E0,0E0,0E0,0E0,0E0,0E0,0E0,0E0,0E0,0E0],"parents":[2147483647,0,0,1,1,2,2,3,3,5,5,6,6,8,8,11,11,12,12,15,15,16,16,17,17,18,18,19,19,20,20,21,21,22,22,25,25,26,26],"right_children":[2,4,6,8,-1,10,12,-1,14,-1,-1,16,18,-1,-1,20,22,24,26,28,30,32,34,-1,-1,36,38,-1,-1,-1,-1,-1,-1,-1,-1,-1,-1,-1,-1],"split_conditions":[3.2E1,7.044E1,1.93E1,2.54E1,-2.5629494E-1,8.1E1,7.8E1,-1.5831381E-1,2.2E1,-2.504588E-1,8.125769E-2,5.392E3,2.01E1,1.7172822E-1,-6.236315E-2,3.22E1,1.4499E4,1.7213E2,1.1294E2,8.296E1,1.0145E2,1E0,1E0,2.6357326E-1,-2.6438707E-2,8.756E1,1E0,-2.0066667E-2,-1.9458297E-1,-8.2552396E-2,2.577429E-1,3.4752574E-2,2.690108E-1,-3.1894542E-2,1.7856125E-2,5.281668E-2,-9.3082845E-2,2.8839126E-2,2.6438883E-1],"split_indices":[2,8,9,9,0,2,2,0,2,0,0,0,9,0,0,9,0,8,8,8,8,3,1,0,0,8,3,0,0,0,0,0,0,0,0,0,0,0,0],"split_type":[0,0,0,0,0,0,0,0,0,0,0,0,0,0,0,0,0,0,0,0,0,0,0,0,0,0,0,0,0,0,0,0,0,0,0,0,0,0,0],"sum_hessian":[3.1661636E2,7.864192E0,3.0875217E2,3.2613564E0,4.6028357E0,3.4277172E0,3.0532443E2,1.0641698E0,2.1971867E0,2.4059603E0,1.021757E0,2.4134796E2,6.3976486E1,1.1472119E0,1.0499747E0,1.5733816E1,2.2561414E2,5.0305524E0,5.8945934E1,1.1898386E1,3.8354301E0,2.6154554E1,1.9945958E2,3.6657312E0,1.3648211E0,3.8281326E1,2.0664608E1,3.5103254E0,8.388061E0,1.7998728E0,2.0355573E0,2.0584227E1,5.570327E0,1.15051346E2,8.440824E1,2.2939846E1,1.5341479E1,1.6326975E1,4.3376327E0],"tree_param":{"num_deleted":"0","num_feature":"11","num_nodes":"39","size_leaf_vector":"1"}},{"base_weights":[-2.2171156E-3,-5.141278E-1,1.0786771E-2,6.2543936E-2,-6.722944E-1,3.6084894E-2,-1.3569453E-1,-2.5549746E-1,5.009534E-2,-1.2779438E-3,6.076666E-1,-4.7861728E-1,-1.8697331E-3,-2.0846734E-2,4.5109612E-1,8.4834754E-1,9.402797E-2,-7.2316684E-2,-7.996133E-1,5.4036427E-1,-1.4158951E-1,-2.5483236E-1,1.6505841E-2,9.117659E-1,-1.6606805E-1,1.2610857E0,4.2308664E-1,5.10848E-1,-3.8044378E-1,-5.9771127E-1,4.109172E-1,-7.8335814E-2,-3.4901026E-1,8.792082E-1,-1.43974E-1,-5.718251E-1,4.2713568E-2,-1.3196297E-1,1.6669434E-1,1.9450738E-1,-1.2848264E-2,-2.9415244E-2,3.7997252E-1,-2.1991634E-1,5.4439273E-2,4.4356558E-1,1.0303932E-1,-6.2733345E-2,2.4400489E-1,2.9013023E-1,-3.643752E-2,-2.0957373E-1,2.4200479E-2,-4.4785466E-2,-2.2868368E-1,2.0744601E-1,-4.551247E-2,9.831788E-2,-1.5744393E-1,3.496495E-1,1.6412722E-2,1.049085E-1,-1.7930773E-1,4.367626E-2,-2.2979097E-1,3.0758956E-1,-2.7092377E-2],"categories":[],"categories_nodes":[],"categories_segments":[],"categories_sizes":[],"default_left":[0,0,0,0,0,0,0,0,0,1,1,0,0,0,0,0,0,0,0,0,0,0,0,0,0,0,0,0,0,0,0,0,0,0,0,0,0,0,0,0,0,0,0,0,0,0,0,0,0,0,0,0,0,0,0,0,0,0,0,0,0,0,0,0,0,0,0],"id":14,"left_children":[1,3,5,-1,7,9,11,-1,-1,13,15,17,19,21,23,25,27,29,31,33,35,37,39,41,43,45,47,49,51,53,55,57,-1,59,61,63,65,-1,-1,-1,-1,-1,-1,-1,-1,-1,-1,-1,-1,-1,-1,-1,-1,-1,-1,-1,-1,-1,-1,-1,-1,-1,-1,-1,-1,-1,-1],"loss_changes":[2.0958736E0,1.0316048E0,1.1433359E0,0E0,1.1411331E0,5.6122413E0,2.0850425E0,0E0,0E0,2.2015724E0,1.9135475E0,1.6057024E0,2.629538E0,2.0871406E0,3.0832634E0,1.3716931E0,1.4342414E0,1.9540124E0,1.752295E0,1.7757025E0,2.2118773E0,5.1738586E0,7.7677274E0,2.2950115E0,1.1681832E0,4.9064827E-1,1.8604201E0,1.2034317E0,5.7053524E-1,1.54176E-1,7.517499E-1,7.9342604E-1,0E0,1.0922337E0,9.290133E-1,1.2735288E0,2.738558E0,0E0,0E0,0E0,0E0,0E0,0E0,0E0,0E0,0E0,0E0,0E0,0E0,0E0,0E0,0E0,0E0,0E0,0E0,0E0,0E0,0E0,0E0,0E0,0E0,0E0,0E0,0E0,0E0,0E0,0E0],"parents":[2147483647,0,0,1,1,2,2,4,4,5,5,6,6,9,9,10,10,11,11,12,12,13,13,14,14,15,15,16,16,17,17,18,18,19,19,20,20,21,21,22,22,23,23,24,24,25,25,26,26,27,27,28,28,29,29,30,30,31,31,33,33,34,34,35,35,36,36],"right_children":[2,4,6,-1,8,10,12,-1,-1,14,16,18,20,22,24,26,28,30,32,34,36,38,40,42,44,46,48,50,52,54,56,58,-1,60,62,64,66,-1,-1,-1,-1,-1,-1,-1,-1,-1,-1,-1,-1,-1,-1,-1,-1,-1,-1,-1,-1,-1,-1,-1,-1,-1,-1,-1,-1,-1,-1],"split_conditions":[3.2E1,6.078E1,6.2928E4,6.2543936E-2,6.9243E4,5.8923E4,6.5745E4,-2.5549746E-1,5.009534E-2,4.38E1,3.16E1,1E0,6.6973E4,7.264E1,4.79E1,6E1,1E0,9.885E1,1E0,7.6E1,5.7E1,2E0,7.843E1,1.9985E4,9.305E1,1.0368E2,1E0,8.258E1,5.4E1,7.818E1,6.8E1,6.451E4,-3.4901026E-1,1.1433E2,1E0,6.29E1,1E0,-1.3196297E-1,1.6669434E-1,1.9450738E-1,-1.2848264E-2,-2.9415244E-2,3.7997252E-1,-2.1991634E-1,5.4439273E-2,4.4356558E-1,1.0303932E-1,-6.2733345E-2,2.4400489E-1,2.9013023E-1,-3.643752E-2,-2.0957373E-1,2.4200479E-2,-4.4785466E-2,-2.2868368E-1,2.0744601E-1,-4.551247E-2,9.831788E-2,-1.5744393E-1,3.496495E-1,1.6412722E-2,1.049085E-1,-1.7930773E-1,4.367626E-2,-2.2979097E-1,3.0758956E-1,-2.7092377E-2],"split_indices":[2,8,0,0,0,0,0,0,0,9,9,10,0,8,9,2,1,8,7,2,2,10,8,0,8,8,7,8,2,8,2,0,0,8,10,8,6,0,0,0,0,0,0,0,0,0,0,0,0,0,0,0,0,0,0,0,0,0,0,0,0,0,0,0,0,0,0],"split_type":[0,0,0,0,0,0,0,0,0,0,0,0,0,0,0,0,0,0,0,0,0,0,0,0,0,0,0,0,0,0,0,0,0,0,0,0,0,0,0,0,0,0,0,0,0,0,0,0,0,0,0,0,0,0,0,0,0,0,0,0,0,0,0,0,0,0,0],"sum_hessian":[3.1301257E2,6.799689E0,3.062129E2,1.1639421E0,5.635747E0,2.6175928E2,4.4453606E1,4.6312456E0,1.0045015E0,2.4663513E2,1.51241455E1,1.1755074E1,3.2698532E1,2.3732294E2,9.312195E0,9.854757E0,5.269388E0,5.7289486E0,6.0261254E0,6.1118326E0,2.6586699E1,3.1868505E1,2.0545442E2,5.058805E0,4.2533903E0,4.003606E0,5.8511515E0,2.7643018E0,2.5050862E0,2.631241E0,3.0977075E0,2.4276876E0,3.5984375E0,3.8973417E0,2.214491E0,7.342888E0,1.924381E1,2.6317183E1,5.5513234E0,1.6784616E1,1.8866982E2,1.503466E0,3.5553389E0,1.1948014E0,3.0585887E0,2.7424E0,1.2612058E0,2.410498E0,3.4406533E0,1.29813E0,1.4661719E0,1.1776214E0,1.3274648E0,1.2183963E0,1.4128448E0,1.9141338E0,1.1835737E0,1.4106778E0,1.01701E0,2.5858696E0,1.3114722E0,1.170354E0,1.0441368E0,1.6171672E0,5.725721E0,1.4947597E0,1.7749052E1],"tree_param":{"num_deleted":"0","num_feature":"11","num_nodes":"67","size_leaf_vector":"1"}},{"base_weights":[-1.3138611E-4,-2.196709E-1,2.5401725E-2,-7.263454E-1,-1.1761743E-1,4.7226098E-1,1.6426189E-2,-2.6223296E-1,-1.6625436E-2,-3.9431643E-2,-2.2917174E-1,-1.5523122E-1,1.0340173E0,2.2261428E-2,-2.1765819E-1,1.7294694E-1,-3.3435735E-1,3.6353457E-1,8.142415E-2,-1.4468613E-1,4.2604573E-2,-2.4306236E-1,6.260293E-1,-4.6594378E-1,8.2754984E-2,7.814942E-2,-7.5374275E-1,3.5392088E-1,-4.334955E-3,-1.603508E-1,1.6722772E-1,3.0133086E-1,2.7715752E-2,-5.83983E-3,-2.2568917E-1,-9.6837506E-2,8.115767E-2,5.937304E-2,-2.8164938E-1,-3.517092E-2,1.9204487E-1,-1.7076781E-1,8.078593E-3],"categories":[],"categories_nodes":[],"categories_segments":[],"categories_sizes":[],"default_left":[0,0,0,0,0,0,1,0,0,0,0,0,0,0,0,0,0,0,0,0,0,1,0,1,0,0,0,0,0,0,0,0,0,0,0,0,0,0,0,0,0,0,0],"id":15,"left_children":[1,3,5,7,9,11,13,-1,-1,15,-1,-1,17,19,-1,21,23,-1,-1,25,27,29,31,33,-1,35,37,39,41,-1,-1,-1,-1,-1,-1,-1,-1,-1,-1,-1,-1,-1,-1],"loss_changes":[1.7551122E0,1.6013296E0,1.1172218E0,4.7458625E-1,1.4021792E0,3.5855622E0,1.211089E0,0E0,0E0,1.7076955E0,0E0,0E0,1.9081306E-1,9.3950886E-1,0E0,3.1627536E0,1.0413398E0,0E0,0E0,4.1410165E0,3.592536E0,2.4086108E0,1.5075793E0,1.2285047E0,0E0,1.8557075E0,1.6214681E0,4.418777E0,3.8040423E0,0E0,0E0,0E0,0E0,0E0,0E0,0E0,0E0,0E0,0E0,0E0,0E0,0E0,0E0],"parents":[2147483647,0,0,1,1,2,2,3,3,4,4,5,5,6,6,9,9,12,12,13,13,15,15,16,16,19,19,20,20,21,21,22,22,23,23,25,25,26,26,27,27,28,28],"right_children":[2,4,6,8,10,12,14,-1,-1,16,-1,-1,18,20,-1,22,24,-1,-1,26,28,30,32,34,-1,36,38,40,42,-1,-1,-1,-1,-1,-1,-1,-1,-1,-1,-1,-1,-1,-1],"split_conditions":[4.5E1,2E0,4.6E1,4.8006E4,4.4E1,2.88E1,5.28E1,-2.6223296E-1,-1.6625436E-2,4.2248E4,-2.2917174E-1,-1.5523122E-1,4.508E4,6.826E1,-2.1765819E-1,2.9788E4,4.2E1,3.6353457E-1,8.142415E-2,6.592E1,7.843E1,4.04E1,8.387E1,2.58E1,8.2754984E-2,5.8E1,2.47E1,2.719E4,8.066E1,-1.603508E-1,1.6722772E-1,3.0133086E-1,2.7715752E-2,-5.83983E-3,-2.2568917E-1,-9.6837506E-2,8.115767E-2,5.937304E-2,-2.8164938E-1,-3.517092E-2,1.9204487E-1,-1.7076781E-1,8.078593E-3],"split_indices":[2,6,2,0,2,9,9,0,0,0,0,0,0,8,0,0,2,0,0,8,8,9,8,9,0,2,9,0,8,0,0,0,0,0,0,0,0,0,0,0,0,0,0],"split_type":[0,0,0,0,0,0,0,0,0,0,0,0,0,0,0,0,0,0,0,0,0,0,0,0,0,0,0,0,0,0,0,0,0,0,0,0,0,0,0,0,0,0,0],"sum_hessian":[3.111084E2,3.1620943E1,2.7948746E2,4.2756944E0,2.7345247E1,4.486854E0,2.750006E2,3.2558014E0,1.0198932E0,2.5340635E1,2.0046124E0,1.6531823E0,2.8336716E0,2.738171E2,1.1834921E0,1.4972441E1,1.0368195E1,1.8203402E0,1.0133315E0,2.9077572E1,2.4473955E2,8.047216E0,6.925224E0,8.723465E0,1.6447299E0,2.1926874E1,7.1506977E0,3.1209478E1,2.1353006E2,6.1429734E0,1.9042436E0,3.5357788E0,3.389445E0,3.8260026E0,4.8974624E0,6.889724E0,1.5037149E1,1.1530242E0,5.9976735E0,1.2017704E1,1.9191774E1,1.0295575E1,2.0323448E2],"tree_param":{"num_deleted":"0","num_feature":"11","num_nodes":"43","size_leaf_vector":"1"}},{"base_weights":[-3.3063549E-3,-5.270233E-1,6.1077387E-3,-2.7574328E-1,1.1373817E-1,2.972535E-1,-1.1171689E-2,-2.0372842E-1,5.43258E-1,-4.4361332E-1,6.9735055E-3,-6.3938415E-1,1.4726512E-1,-1.3153453E-1,7.009844E-1,5.216261E-1,-7.634746E-1,-2.8181456E-2,1.9206092E-1,9.003322E-3,-3.0622151E-1,9.8965746E-1,-1.6063761E-2,5.4152254E-3,2.3913148E-1,-2.9228773E-2,-3.1781548E-1,-2.158933E-1,-2.0242186E-2,5.1531374E-1,6.311042E-2,3.7673143E-1,3.757241E-3,-1.4900911E-1,1.8783122E-1,1.6973594E-1,-2.033061E-1,1.0310578E-1,-1.05906E-2,-1.1661357E-1,2.0734368E-1,-1.2778826E-1,5.141412E-2],"categories":[],"categories_nodes":[],"categories_segments":[],"categories_sizes":[],"default_left":[0,0,0,0,0,0,0,0,0,0,0,0,0,0,1,0,0,0,0,0,0,0,0,0,0,0,0,0,0,0,0,0,0,0,0,0,0,0,0,0,0,0,0],"id":16,"left_children":[1,3,5,-1,-1,7,9,11,13,15,17,19,-1,-1,21,23,25,27,29,-1,-1,31,33,-1,-1,35,-1,-1,37,39,41,-1,-1,-1,-1,-1,-1,-1,-1,-1,-1,-1,-1],"loss_changes":[1.5282089E0,2.2932358E0,1.5368955E0,0E0,0E0,2.2199366E0,2.268609E0,2.2395577E0,2.1268742E0,3.992723E0,1.8147967E0,1.1398312E0,0E0,0E0,2.191204E0,4.700181E-1,1.95716E0,1.2731197E0,1.8230108E0,0E0,0E0,1.9367352E0,1.5457168E0,0E0,0E0,1.794382E0,0E0,0E0,1.2887498E0,2.2642376E0,1.8183125E0,0E0,0E0,0E0,0E0,0E0,0E0,0E0,0E0,0E0,0E0,0E0,0E0],"parents":[2147483647,0,0,1,1,2,2,5,5,6,6,7,7,8,8,9,9,10,10,11,11,14,14,15,15,16,16,17,17,18,18,21,21,22,22,25,25,28,28,29,29,30,30],"right_children":[2,4,6,-1,-1,8,10,12,14,16,18,20,-1,-1,22,24,26,28,30,-1,-1,32,34,-1,-1,36,-1,-1,38,40,42,-1,-1,-1,-1,-1,-1,-1,-1,-1,-1,-1,-1],"split_conditions":[5.748E1,3E0,6.469E1,-2.7574328E-1,1.1373817E-1,4.8714E4,6.736E1,3.13E1,2.34E1,2.43E1,7.9E1,2.79E1,1.4726512E-1,-1.3153453E-1,3.13E1,1E0,3.9879E4,1.93E1,8.67E1,9.003322E-3,-3.0622151E-1,6.9487E4,6.7E1,5.4152254E-3,2.3913148E-1,6.592E1,-3.1781548E-1,-2.158933E-1,7.044E1,2.07E1,9.499E1,3.7673143E-1,3.757241E-3,-1.4900911E-1,1.8783122E-1,1.6973594E-1,-2.033061E-1,1.0310578E-1,-1.05906E-2,-1.1661357E-1,2.0734368E-1,-1.2778826E-1,5.141412E-2],"split_indices":[8,6,8,0,0,0,8,9,9,9,2,9,0,0,9,10,0,9,8,0,0,0,2,0,0,8,0,0,8,9,8,0,0,0,0,0,0,0,0,0,0,0,0],"split_type":[0,0,0,0,0,0,0,0,0,0,0,0,0,0,0,0,0,0,0,0,0,0,0,0,0,0,0,0,0,0,0,0,0,0,0,0,0,0,0,0,0,0,0],"sum_hessian":[3.083085E2,4.4732637E0,3.0383524E2,3.1121817E0,1.3610821E0,1.6114525E1,2.877207E2,5.363581E0,1.0750943E1,1.06423E1,2.770784E2,3.3450801E0,2.018501E0,1.2418332E0,9.5091095E0,2.4918628E0,8.150437E0,2.3356374E2,4.351467E1,1.5484221E0,1.7966579E0,6.508643E0,3.0004666E0,1.2579163E0,1.2339464E0,2.6568189E0,5.493618E0,1.6337103E0,2.3193002E2,1.1554261E1,3.196041E1,4.8913636E0,1.6172796E0,1.8456287E0,1.1548378E0,1.4519874E0,1.2048315E0,8.34907E0,2.2358095E2,1.6842284E0,9.870033E0,5.2610836E0,2.6699326E1],"tree_param":{"num_deleted":"0","num_feature":"11","num_nodes":"43","size_leaf_vector":"1"}},{"base_weights":[-3.4337868E-3,-4.286065E-1,5.557673E-3,-1.753972E-2,-2.2367966E-1,-1.1366147E-1,2.7123317E-2,-9.288319E-2,1.0634998E-1,1.4469337E-2,-6.1378217E-1,9.6153E-1,3.6968417E-3,-4.0761076E-2,2.3307149E-1,-3.4926733E-1,-2.0289321E-1,5.79459E-2,1.1844566E0,8.343213E-2,-4.3045588E-2,-2.726688E-1,1.339061E-1,2.20113E-1,-6.0517234E-1,1.1193313E-1,4.4836035E-1,2.97415E-2,6.894002E-1,-1.4031047E-1,8.562233E-2,-1.581965E-1,6.991014E-2,8.101706E-2,-1.0914098E-1,-2.732023E-1,8.872816E-2,-7.957183E-4,1.6799368E-1,2.7988654E-1,-2.9439844E-2,-1.2871791E-2,-9.965015E-2,-3.2260187E-2,8.7788954E-2],"categories":[],"categories_nodes":[],"categories_segments":[],"categories_sizes":[],"default_left":[0,0,0,0,0,0,0,0,0,0,0,0,0,0,0,0,0,0,0,0,0,0,0,0,0,0,0,0,1,1,0,0,0,0,0,0,0,0,0,0,0,0,0,0,0],"id":17,"left_children":[1,3,5,7,-1,9,11,-1,-1,13,15,17,19,21,-1,-1,23,-1,25,27,29,31,33,-1,35,-1,-1,37,39,41,43,-1,-1,-1,-1,-1,-1,-1,-1,-1,-1,-1,-1,-1,-1],"loss_changes":[1.1738526E0,8.1552863E-1,7.7715576E-1,5.218844E-1,0E0,2.9765744E0,5.5950484E0,0E0,0E0,1.625242E0,1.9052196E0,8.4205294E-1,9.372511E-1,1.5043696E0,0E0,0E0,2.942949E0,0E0,6.1242867E-1,3.002689E0,1.9967363E0,2.1701007E0,1.5443375E0,0E0,1.6971704E0,0E0,0E0,1.4855965E0,1.5335546E0,1.680628E0,2.7861898E0,0E0,0E0,0E0,0E0,0E0,0E0,0E0,0E0,0E0,0E0,0E0,0E0,0E0,0E0],"parents":[2147483647,0,0,1,1,2,2,3,3,5,5,6,6,9,9,10,10,11,11,12,12,13,13,16,16,18,18,19,19,20,20,21,21,22,22,24,24,27,27,28,28,29,29,30,30],"right_children":[2,4,6,8,-1,10,12,-1,-1,14,16,18,20,22,-1,-1,24,-1,26,28,30,32,34,-1,36,-1,-1,38,40,42,44,-1,-1,-1,-1,-1,-1,-1,-1,-1,-1,-1,-1,-1,-1],"split_conditions":[3.2E1,7.044E1,7.231E1,3.08E1,-2.2367966E-1,7.044E1,7.428E1,-9.288319E-2,1.0634998E-1,7.009E1,7.089E1,2.3368E4,2.5263E4,4.9012E4,2.3307149E-1,-3.4926733E-1,7.13E1,5.79459E-2,7.283E1,2.3368E4,1E0,7.1E1,7.9E1,2.20113E-1,1E0,1.1193313E-1,4.4836035E-1,2.287E2,3.41E1,3.16E1,3.05E1,-1.581965E-1,6.991014E-2,8.101706E-2,-1.0914098E-1,-2.732023E-1,8.872816E-2,-7.957183E-4,1.6799368E-1,2.7988654E-1,-2.9439844E-2,-1.2871791E-2,-9.965015E-2,-3.2260187E-2,8.7788954E-2],"split_indices":[2,8,8,9,0,8,8,0,0,8,8,0,0,0,0,0,8,0,8,0,1,2,2,0,1,0,0,8,9,9,9,0,0,0,0,0,0,0,0,0,0,0,0,0,0],"split_type":[0,0,0,0,0,0,0,0,0,0,0,0,0,0,0,0,0,0,0,0,0,0,0,0,0,0,0,0,0,0,0,0,0,0,0,0,0,0,0,0,0,0,0,0,0],"sum_hessian":[3.0543314E2,5.358974E0,3.0007416E2,2.792748E0,2.566226E0,4.531169E1,2.5476247E2,1.6585221E0,1.134226E0,3.6843468E1,8.46822E0,5.251523E0,2.4951094E2,3.5237427E1,1.6060414E0,2.8358202E0,5.6324E0,1.6007042E0,3.6508188E0,9.192178E1,1.5758916E2,1.48971815E1,2.0340246E1,1.4447618E0,4.1876383E0,1.6186795E0,2.0321393E0,8.5403824E1,6.5179605E0,8.969493E1,6.7894226E1,9.879491E0,5.0176907E0,1.633039E1,4.0098557E0,3.11914E0,1.0684983E0,8.142435E1,3.9794757E0,4.8373055E0,1.6806549E0,6.0303062E1,2.939187E1,3.537074E1,3.2523487E1],"tree_param":{"num_deleted":"0","num_feature":"11","num_nodes":"45","size_leaf_vector":"1"}},{"base_weights":[-1.2204817E-3,-4.556915E-1,6.0318075E-3,-9.214411E-3,-2.5787994E-1,-4.1224185E-1,1.3045909E-2,-1.3508171E-1,1.340068E-1,-2.3620237E-1,1.1803375E-1,2.1167034E-1,1.4293467E-3,-1.5526482E-1,2.9546684E-1,-2.744017E-1,1.5632797E-2,2.6044375E-1,1.2738353E-1,3.1079787E-1,-6.634461E-1,4.8770097E-1,2.5179735E-3,1.6574402E-1,-3.0419629E-2,1.9068451E-1,-1.2306409E-1,7.397505E-2,-2.4990529E-1,-4.9501806E-2,2.5423354E-1,-3.077935E-1,4.868579E-3],"categories":[],"categories_nodes":[],"categories_segments":[],"categories_sizes":[],"default_left":[0,0,0,0,0,0,0,0,0,0,0,0,0,0,0,1,0,0,1,0,0,0,0,0,0,0,0,0,0,0,0,0,0],"id":18,"left_children":[1,3,5,7,-1,9,11,-1,-1,-1,-1,13,15,-1,17,19,21,-1,23,25,27,29,31,-1,-1,-1,-1,-1,-1,-1,-1,-1,-1],"loss_changes":[1.0035664E0,8.545354E-1,8.851346E-1,8.611534E-1,0E0,1.8136716E0,6.8241787E-1,0E0,0E0,0E0,0E0,1.1515298E0,1.1034125E0,0E0,1.3616236E0,3.3463957E0,1.6564765E0,0E0,1.3199433E0,1.7101536E0,1.5331311E0,1.8380666E0,3.704485E0,0E0,0E0,0E0,0E0,0E0,0E0,0E0,0E0,0E0,0E0],"parents":[2147483647,0,0,1,1,2,2,3,3,5,5,6,6,11,11,12,12,14,14,15,15,16,16,18,18,19,19,20,20,21,21,22,22],"right_children":[2,4,6,8,-1,10,12,-1,-1,-1,-1,14,16,-1,18,20,22,-1,24,26,28,30,32,-1,-1,-1,-1,-1,-1,-1,-1,-1,-1],"split_conditions":[1.93E1,1.82E1,5.748E1,3.7923E4,-2.5787994E-1,3E0,6.469E1,-1.3508171E-1,1.340068E-1,-2.3620237E-1,1.1803375E-1,2.34E1,6.826E1,-1.5526482E-1,0E0,2.64E1,7.044E1,2.6044375E-1,2.71E1,7.9E1,1E0,5E1,7.089E1,1.6574402E-1,-3.0419629E-2,1.9068451E-1,-1.2306409E-1,7.397505E-2,-2.4990529E-1,-4.9501806E-2,2.5423354E-1,-3.077935E-1,4.868579E-3],"split_indices":[9,9,8,0,0,6,8,0,0,0,0,9,8,0,10,9,8,0,9,2,5,2,8,0,0,0,0,0,0,0,0,0,0],"split_type":[0,0,0,0,0,0,0,0,0,0,0,0,0,0,0,0,0,0,0,0,0,0,0,0,0,0,0,0,0,0,0,0,0],"sum_hessian":[3.0265033E2,3.7825005E0,2.9886783E2,2.2823842E0,1.5001163E0,3.9762766E0,2.9489157E2,1.1663586E0,1.1160257E0,2.7286744E0,1.2476022E0,1.5342262E1,2.7954932E2,1.0477957E0,1.4294467E1,1.2792847E1,2.6675647E2,2.2984416E0,1.1996025E1,5.188877E0,7.6039696E0,6.2324486E0,2.6052402E2,3.7021854E0,8.29384E0,3.6589518E0,1.5299251E0,1.1230114E0,6.480958E0,2.4068565E0,3.8255918E0,2.4560177E0,2.58068E2],"tree_param":{"num_deleted":"0","num_feature":"11","num_nodes":"33","size_leaf_vector":"1"}},{"base_weights":[-2.6493885E-3,-6.1809767E-2,4.8507575E-2,-1.9439931E-1,4.9804114E-2,2.1683723E-1,-3.542977E-2,-5.8678585E-1,-9.589003E-2,-2.2349879E-1,1.8403505E-1,1.5556633E-1,1.035739E0,-2.883633E-1,5.91252E-2,-7.136382E-1,2.956223E-2,6.870929E-2,-3.985822E-1,1.5988715E-1,-8.009791E-1,-2.9557152E-2,4.7608763E-1,4.1316614E-1,-5.956133E-2,5.7931896E-2,4.0410584E-1,2.5282162E-1,-4.0039444E-1,-3.352783E-1,1.0307137E-1,-7.8426117E-1,-3.351767E-3,-3.0300748E-1,2.284553E-1,-6.623634E-1,2.9571074E-1,-1.7559032E-1,3.1055158E-1,-9.397819E-1,4.6562837E-3,2.911128E-1,-2.81199E-1,-1.0349476E-1,5.704405E-1,-1.4612803E-1,5.2421975E-1,-1.9581719E-1,4.491144E-1,2.367432E-1,-8.930482E-2,-1.357205E-1,-5.896436E-1,1.0714891E-1,-8.1320673E-1,2.73284E-1,-2.6765784E-2,-3.2458987E-2,-2.799763E-1,-1.7610064E-1,2.375658E-1,1.1034792E-1,-7.497726E-2,-2.6614718E-2,-2.6489913E-1,-1.1067588E-1,2.0472409E-1,3.0521023E-1,-1.4074441E-3,1.237943E-2,-3.2359794E-1,2.8536198E-1,-5.039611E-2,6.26522E-2,-1.5194562E-1,2.527174E-1,8.820774E-2,-2.037233E-1,6.705902E-2,2.78943E-1,8.9050174E-2,-1.7148533E-1,1.3104125E-2,2.3866262E-1,2.3245765E-2,1.7883195E-1,-2.4495883E-1,7.825178E-2,-1.3402498E-1,-2.1498357E-1,2.8791921E-2,2.0246054E-1,-5.9046682E-2,4.1590415E-2,-3.9900628E-1,5.5805355E-2,2.9584566E-1,-2.2635284E-1,1.2891488E-2],"categories":[],"categories_nodes":[],"categories_segments":[],"categories_sizes":[],"default_left":[0,0,0,0,0,0,0,0,0,0,0,1,0,1,0,0,0,0,0,0,0,0,0,0,0,0,0,0,0,0,0,0,0,0,0,0,0,0,0,0,0,0,0,0,0,0,0,0,0,0,0,0,0,0,0,0,0,0,0,0,0,0,0,0,0,0,0,0,0,0,0,0,0,0,0,0,0,0,0,0,0,0,0,0,0,0,0,0,0,0,0,0,0,0,0,0,0,0,0],"id":19,"left_children":[1,3,5,7,9,11,13,15,17,19,21,23,25,27,29,31,-1,33,35,37,39,41,43,45,47,-1,-1,49,51,53,55,57,-1,59,61,63,65,-1,67,69,-1,71,73,-1,75,77,79,81,83,-1,85,87,89,91,93,95,97,-1,-1,-1,-1,-1,-1,-1,-1,-1,-1,-1,-1,-1,-1,-1,-1,-1,-1,-1,-1,-1,-1,-1,-1,-1,-1,-1,-1,-1,-1,-1,-1,-1,-1,-1,-1,-1,-1,-1,-1,-1,-1],"loss_changes":[9.168455E-1,2.0883636E0,2.303519E0,2.4331388E0,2.868124E0,2.5586467E0,2.6306877E0,1.1768799E0,2.6517708E0,5.8474464E0,3.271984E0,2.8846302E0,6.832669E-1,1.9144917E0,1.4276812E0,5.300946E-1,0E0,2.1459394E0,3.6208096E0,2.0184748E0,1.2016077E0,2.5920005E0,1.9104218E0,1.5431967E0,2.0977306E0,0E0,0E0,1.1241221E0,1.18047E0,1.8407093E0,1.6224461E0,8.917203E-1,0E0,3.8671937E0,1.7608109E0,1.6759777E0,1.7527739E0,0E0,3.1824584E0,1.2663927E0,0E0,4.4536433E0,2.086123E0,0E0,1.2720366E0,1.0765048E0,1.5609908E0,2.1460917E0,7.661549E-1,0E0,2.681993E0,1.5708221E0,1.320075E0,1.0284872E0,2.2027807E0,1.7894402E0,2.1827142E0,0E0,0E0,0E0,0E0,0E0,0E0,0E0,0E0,0E0,0E0,0E0,0E0,0E0,0E0,0E0,0E0,0E0,0E0,0E0,0E0,0E0,0E0,0E0,0E0,0E0,0E0,0E0,0E0,0E0,0E0,0E0,0E0,0E0,0E0,0E0,0E0,0E0,0E0,0E0,0E0,0E0,0E0],"parents":[2147483647,0,0,1,1,2,2,3,3,4,4,5,5,6,6,7,7,8,8,9,9,10,10,11,11,12,12,13,13,14,14,15,15,17,17,18,18,19,19,20,20,21,21,22,22,23,23,24,24,27,27,28,28,29,29,30,30,31,31,33,33,34,34,35,35,36,36,38,38,39,39,41,41,42,42,44,44,45,45,46,46,47,47,48,48,50,50,51,51,52,52,53,53,54,54,55,55,56,56],"right_children":[2,4,6,8,10,12,14,16,18,20,22,24,26,28,30,32,-1,34,36,38,40,42,44,46,48,-1,-1,50,52,54,56,58,-1,60,62,64,66,-1,68,70,-1,72,74,-1,76,78,80,82,84,-1,86,88,90,92,94,96,98,-1,-1,-1,-1,-1,-1,-1,-1,-1,-1,-1,-1,-1,-1,-1,-1,-1,-1,-1,-1,-1,-1,-1,-1,-1,-1,-1,-1,-1,-1,-1,-1,-1,-1,-1,-1,-1,-1,-1,-1,-1,-1],"split_conditions":[2.91E1,8.858E1,8.952E1,0E0,6.2E1,8.785E1,1.0449E2,1E0,2.7E1,1E0,1E0,3.18E1,6E1,2.93E1,3.01E1,6.8356E4,2.956223E-2,2.455E4,1E0,6.422E3,3E0,3.351E4,3.496E3,1.0051E4,7.1E1,5.7931896E-2,4.0410584E-1,5.5E1,6E1,1E0,3.49E1,4.3E1,-3.351767E-3,2.62E1,2.61E1,2.2025E4,7.009E1,-1.7559032E-1,2.2025E4,2.29E1,4.6562837E-3,7.6E1,1E0,-1.0349476E-1,1.1117E2,5.7E1,5.4E1,3.56E1,3.45E1,2.367432E-1,1.863E4,3.27E1,7.9E1,2.5263E4,1.4167E2,6.5463E4,3.56E1,-3.2458987E-2,-2.799763E-1,-1.7610064E-1,2.375658E-1,1.1034792E-1,-7.497726E-2,-2.6614718E-2,-2.6489913E-1,-1.1067588E-1,2.0472409E-1,3.0521023E-1,-1.4074441E-3,1.237943E-2,-3.2359794E-1,2.8536198E-1,-5.039611E-2,6.26522E-2,-1.5194562E-1,2.527174E-1,8.820774E-2,-2.037233E-1,6.705902E-2,2.78943E-1,8.9050174E-2,-1.7148533E-1,1.3104125E-2,2.3866262E-1,2.3245765E-2,1.7883195E-1,-2.4495883E-1,7.825178E-2,-1.3402498E-1,-2.1498357E-1,2.8791921E-2,2.0246054E-1,-5.9046682E-2,4.1590415E-2,-3.9900628E-1,5.5805355E-2,2.9584566E-1,-2.2635284E-1,1.2891488E-2],"split_indices":[9,8,8,10,2,8,8,4,9,1,1,9,2,9,9,0,0,0,3,0,6,0,0,0,2,0,0,2,2,1,9,2,0,9,9,0,8,0,0,9,0,2,10,0,8,2,2,9,9,0,0,9,2,0,8,0,9,0,0,0,0,0,0,0,0,0,0,0,0,0,0,0,0,0,0,0,0,0,0,0,0,0,0,0,0,0,0,0,0,0,0,0,0,0,0,0,0,0,0],"split_type":[0,0,0,0,0,0,0,0,0,0,0,0,0,0,0,0,0,0,0,0,0,0,0,0,0,0,0,0,0,0,0,0,0,0,0,0,0,0,0,0,0,0,0,0,0,0,0,0,0,0,0,0,0,0,0,0,0,0,0,0,0,0,0,0,0,0,0,0,0,0,0,0,0,0,0,0,0,0,0,0,0,0,0,0,0,0,0,0,0,0,0,0,0,0,0,0,0,0,0],"sum_hessian":[3.0095197E2,1.3946254E2,1.6148943E2,6.3402756E1,7.6059784E1,5.3205906E1,1.0828352E2,1.1728523E1,5.1674232E1,2.4833048E1,5.1226734E1,5.060925E1,2.5966558E0,2.8907248E1,7.9376274E1,9.861814E0,1.8667095E0,3.397316E1,1.7701073E1,1.5359254E1,9.473794E0,3.0106897E1,2.1119837E1,2.2612207E1,2.7997042E1,1.1375858E0,1.4590701E0,4.742261E0,2.4164988E1,7.2931533E0,7.208312E1,8.855116E0,1.0066972E0,9.942023E0,2.4031136E1,1.2860862E1,4.8402104E0,2.097953E0,1.3261301E1,7.9682283E0,1.5055656E0,1.3168842E1,1.6938053E1,1.9030402E0,1.9216797E1,3.6937451E0,1.8918463E1,2.256716E1,5.4298816E0,1.3380808E0,3.4041803E0,1.0790755E1,1.3374232E1,4.190103E0,3.1030502E0,3.071364E1,4.1369484E1,1.9108253E0,6.944291E0,8.262707E0,1.6793168E0,1.8788418E1,5.2427173E0,3.9619327E0,8.89893E0,1.7972479E0,3.0429623E0,3.403335E0,9.857966E0,1.0752724E0,6.892956E0,4.9622397E0,8.206603E0,5.357499E0,1.1580555E1,8.654498E0,1.0562298E1,1.169947E0,2.523798E0,5.686419E0,1.3232043E1,8.244231E0,1.4322929E1,2.219862E0,3.2100198E0,1.8452893E0,1.558891E0,4.8141384E0,5.976617E0,1.1246333E1,2.1278987E0,1.0356578E0,3.1544452E0,1.3494518E0,1.7535985E0,2.8487295E1,2.226345E0,2.758973E0,3.861051E1],"tree_param":{"num_deleted":"0","num_feature":"11","num_nodes":"99","size_leaf_vector":"1"}},{"base_weights":[-1.8694638E-3,-1.8710744E-1,1.8322513E-2,-2.8579912E-1,1.5607944E-1,4.0640047E-1,1.037748E-2,1.0414089E-2,-5.8276665E-1,-2.7549863E-1,2.8851807E-1,-1.0957395E-1,7.5765514E-1,-2.2557342E-1,2.482502E-2,-1.7976893E-1,2.6475278E-1,8.897262E-2,-8.0876404E-1,8.977722E-2,-1.6880469E-1,2.8605548E-1,2.9049959E-2,1.3210678E-1,-6.115571E-1,1.8435329E-1,4.53518E-3,-2.0974551E-1,6.7440115E-2,-2.0662273E-1,2.6586625E-1,-2.8072998E-1,-3.1148521E-2,-6.632955E-2,1.0887848E-1,-2.0062065E-1,3.452532E-1,-2.6356655E-1,-2.6768783E-1,-1.6688627E-1,2.505179E-1,-3.7490076E-1,2.3017941E-2,1.6263387E-1,-5.2975398E-2,4.6121065E-2,-2.3859337E-1,5.9995364E-2,-1.6551338E-1,2.655803E-2,2.2622399E-1,1.3200407E-1,-1.7451257E-1,2.0606486E-1,2.1947849E-4],"categories":[],"categories_nodes":[],"categories_segments":[],"categories_sizes":[],"default_left":[0,0,0,0,0,0,0,0,0,0,0,0,0,0,0,0,0,0,0,0,0,0,0,0,0,0,0,0,0,0,0,0,0,0,0,1,0,0,1,0,0,0,0,0,0,0,0,0,0,0,0,0,0,0,0],"id":20,"left_children":[1,3,5,7,9,11,13,15,17,19,-1,-1,21,23,25,27,-1,29,31,33,-1,-1,-1,35,37,39,41,-1,43,-1,-1,-1,-1,-1,-1,45,-1,-1,47,-1,49,51,53,-1,-1,-1,-1,-1,-1,-1,-1,-1,-1,-1,-1],"loss_changes":[1.1139278E0,1.036035E0,8.2404023E-1,2.0369606E0,2.76301E0,1.7303481E0,9.0645444E-1,2.2386324E0,1.8248525E0,6.2282443E-1,0E0,0E0,4.2677307E-1,2.1995423E0,8.0809915E-1,1.4757292E0,0E0,2.9712307E0,6.852226E-1,3.573878E-1,0E0,0E0,0E0,3.209602E0,4.5882845E-1,1.5200224E0,1.5707356E0,0E0,1.0745504E0,0E0,0E0,0E0,0E0,0E0,0E0,1.6976662E0,0E0,0E0,7.4022436E-1,0E0,2.0992675E0,2.0093474E0,3.1558836E0,0E0,0E0,0E0,0E0,0E0,0E0,0E0,0E0,0E0,0E0,0E0,0E0],"parents":[2147483647,0,0,1,1,2,2,3,3,4,4,5,5,6,6,7,7,8,8,9,9,12,12,13,13,14,14,15,15,17,17,18,18,19,19,23,23,24,24,25,25,26,26,28,28,35,35,38,38,40,40,41,41,42,42],"right_children":[2,4,6,8,10,12,14,16,18,20,-1,-1,22,24,26,28,-1,30,32,34,-1,-1,-1,36,38,40,42,-1,44,-1,-1,-1,-1,-1,-1,46,-1,-1,48,-1,50,52,54,-1,-1,-1,-1,-1,-1,-1,-1,-1,-1,-1,-1],"split_conditions":[4.5E1,3E0,4.6E1,8.537E1,1.135E2,2.88E1,5E1,8.32E1,1.6374E4,1E0,2.8851807E-1,-1.0957395E-1,1E0,9.049E1,8.442E3,2.9599E4,2.6475278E-1,1.0836E2,5.08E1,1E0,-1.6880469E-1,2.8605548E-1,2.9049959E-2,8.397E1,3.02E1,5.3E1,1.1404E4,-2.0974551E-1,4.0232E4,-2.0662273E-1,2.6586625E-1,-2.8072998E-1,-3.1148521E-2,-6.632955E-2,1.0887848E-1,3.09E1,3.452532E-1,-2.6356655E-1,3.26E1,-1.6688627E-1,6.027E3,2.29E1,1.2701E4,1.6263387E-1,-5.2975398E-2,4.6121065E-2,-2.3859337E-1,5.9995364E-2,-1.6551338E-1,2.655803E-2,2.2622399E-1,1.3200407E-1,-1.7451257E-1,2.0606486E-1,2.1947849E-4],"split_indices":[2,6,2,8,8,9,2,8,0,1,0,0,1,8,0,0,0,8,9,7,0,0,0,8,9,2,0,0,0,0,0,0,0,0,0,9,0,0,9,0,0,9,0,0,0,0,0,0,0,0,0,0,0,0,0],"split_type":[0,0,0,0,0,0,0,0,0,0,0,0,0,0,0,0,0,0,0,0,0,0,0,0,0,0,0,0,0,0,0,0,0,0,0,0,0,0,0,0,0,0,0,0,0,0,0,0,0,0,0,0,0,0,0],"sum_hessian":[2.9589954E2,2.8271832E1,2.6762772E2,2.2087313E1,6.184519E0,4.363018E0,2.632647E2,1.1540779E1,1.0546533E1,4.4556875E0,1.728831E0,1.3523344E0,3.0106835E0,1.4346741E1,2.4891797E2,1.0126334E1,1.414445E0,2.8076315E0,7.738901E0,2.263753E0,2.1919348E0,1.9806923E0,1.0299913E0,7.787772E0,6.558968E0,2.7174358E1,2.217436E2,2.6759727E0,7.4503613E0,1.4901203E0,1.3175112E0,6.28003E0,1.4588715E0,1.1478908E0,1.115862E0,6.475796E0,1.3119758E0,2.8168836E0,3.7420845E0,1.6210327E0,2.5553326E1,9.403971E0,2.1233963E2,2.1149154E0,5.335446E0,4.5224776E0,1.9533188E0,1.5257215E0,2.216363E0,2.0223438E1,5.329888E0,1.6752194E0,7.728751E0,5.928252E0,2.0641138E2],"tree_param":{"num_deleted":"0","num_feature":"11","num_nodes":"55","size_leaf_vector":"1"}},{"base_weights":[-2.1190965E-3,-3.5013992E-1,6.9699525E-3,-2.273879E-1,3.0397645E-3,2.9341093E-1,2.0938394E-4,3.3179855E-1,-1.4467286E-1,-1.4456573E-1,5.649729E-1,-3.0227718E-1,9.8714465E-3,1.9571699E-1,-5.0085053E-2,3.0547953E-1,1.17722005E-1,-7.420334E-1,6.2158313E-2,-9.233468E-3,1.2300287E-1,-1.0801236E-1,1.6501975E-1,-4.2833734E-2,-3.3636904E-1,-3.5296303E-1,1.8342121E-1,2.7182776E-1,-2.8616473E-2,6.795335E-1,5.340524E-2,1.3018334E-2,-1.5305665E-1,1.5725832E-1,-9.511195E-2,-1.4931318E-1,-5.04724E-3,-6.560262E-2,3.1295082E-1,-2.640562E-2,1.5137455E-1],"categories":[],"categories_nodes":[],"categories_segments":[],"categories_sizes":[],"default_left":[0,0,0,0,0,0,0,0,0,0,0,0,0,0,0,0,0,0,0,0,0,0,0,0,0,1,0,0,0,0,0,0,0,0,0,0,0,0,0,0,0],"id":21,"left_children":[1,3,5,-1,7,9,11,13,-1,-1,15,17,19,-1,-1,-1,21,23,25,27,29,-1,-1,-1,-1,31,-1,33,35,37,39,-1,-1,-1,-1,-1,-1,-1,-1,-1,-1],"loss_changes":[9.321492E-1,1.0825815E0,5.5652034E-1,0E0,9.601612E-1,1.667392E0,8.265539E-1,6.8169975E-1,0E0,0E0,9.683744E-1,1.4490584E0,5.934266E-1,0E0,0E0,0E0,9.897083E-1,7.589252E-1,1.5176213E0,1.2900527E0,1.4999163E0,0E0,0E0,0E0,0E0,2.642971E-1,0E0,2.4370022E0,1.2146553E0,1.640187E0,2.3630357E0,0E0,0E0,0E0,0E0,0E0,0E0,0E0,0E0,0E0,0E0],"parents":[2147483647,0,0,1,1,2,2,4,4,5,5,6,6,7,7,10,10,11,11,12,12,16,16,17,17,18,18,19,19,20,20,25,25,27,27,28,28,29,29,30,30],"right_children":[2,4,6,-1,8,10,12,14,-1,-1,16,18,20,-1,-1,-1,22,24,26,28,30,-1,-1,-1,-1,32,-1,34,36,38,40,-1,-1,-1,-1,-1,-1,-1,-1,-1,-1],"split_conditions":[3.4E1,3.7923E4,1.589E3,-2.273879E-1,1E0,2.23E1,3.827E3,4.9896E4,-1.4467286E-1,-1.4456573E-1,8.716E1,1E0,1E0,1.9571699E-1,-5.0085053E-2,3.0547953E-1,2.94E1,1E0,1.1077E2,8.718E3,2.34E1,-1.0801236E-1,1.6501975E-1,-4.2833734E-2,-3.3636904E-1,2.21E1,1.8342121E-1,3.45E1,1.0434E4,2.03E1,1E0,1.3018334E-2,-1.5305665E-1,1.5725832E-1,-9.511195E-2,-1.4931318E-1,-5.04724E-3,-6.560262E-2,3.1295082E-1,-2.640562E-2,1.5137455E-1],"split_indices":[2,0,0,0,7,9,0,0,0,0,8,10,4,0,0,0,9,1,8,0,9,0,0,0,0,9,0,9,0,9,3,0,0,0,0,0,0,0,0,0,0],"split_type":[0,0,0,0,0,0,0,0,0,0,0,0,0,0,0,0,0,0,0,0,0,0,0,0,0,0,0,0,0,0,0,0,0,0,0,0,0,0,0,0,0],"sum_hessian":[2.92916E2,6.500176E0,2.864158E2,2.4848244E0,4.0153513E0,5.6264486E0,2.8078937E2,2.582257E0,1.4330943E0,1.258628E0,4.3678207E0,7.7539644E0,2.730354E2,1.3843534E0,1.1979038E0,1.5351821E0,2.8326383E0,3.0443258E0,4.7096386E0,2.3437416E2,3.8661232E1,1.425081E0,1.4075574E0,1.7132938E0,1.3310319E0,2.8858633E0,1.8237753E0,1.4280291E1,2.2009387E2,3.323272E0,3.5337963E1,1.0252541E0,1.860609E0,1.0073144E1,4.207146E0,4.3866982E0,2.1570717E2,1.0725738E0,2.250698E0,2.7517387E1,7.8205748E0],"tree_param":{"num_deleted":"0","num_feature":"11","num_nodes":"41","size_leaf_vector":"1"}},{"base_weights":[-1.6520866E-3,-3.7227634E-1,4.8986035E-3,-1.8137191E-1,2.268926E-3,-4.439628E-2,4.8110433E-2,-1.557909E-1,5.589008E-2,1.8893325E-1,-2.0310195E-2,-1.9853604E-1,2.7479953E-1,-5.011811E-1,9.830389E-2,1.3397846E-1,8.659581E-1,-3.8213202E-1,3.2993846E-2,-6.456811E-2,-3.5503426E-1,5.813605E-1,-1.028686E-1,5.1381405E-2,-7.139801E-1,6.37774E-1,5.3460937E-2,3.3952396E-2,4.117557E-1,5.8581743E-2,3.2648385E-1,-2.0249401E-1,-2.6396495E-1,-2.4506472E-1,6.654603E-2,-2.0924966E-1,8.150989E-3,1.5779637E-1,-1.377128E-1,-7.670913E-3,2.3083863E-1,-2.6981187E-1,-5.5422153E-2,3.1664136E-1,2.0929484E-2,-1.508681E-2,7.644115E-2,7.051456E-2,-8.751751E-2,-3.8800485E-2,1.8095323E-1,-1.3223924E-2,-1.9523089E-1,-1.2351987E-1,1.06298834E-1,4.9710464E-2,-1.6346483E-2],"categories":[],"categories_nodes":[],"categories_segments":[],"categories_sizes":[],"default_left":[0,0,0,0,0,0,0,0,0,0,0,0,0,0,0,0,0,0,0,0,0,0,0,0,0,0,0,0,0,0,0,0,0,0,0,0,0,0,0,0,0,0,0,0,0,0,0,0,0,0,0,0,0,0,0,0,0],"id":22,"left_children":[1,3,5,-1,-1,7,9,11,13,15,17,19,21,23,25,27,29,31,33,35,37,39,-1,-1,41,43,45,47,49,-1,-1,51,-1,53,55,-1,-1,-1,-1,-1,-1,-1,-1,-1,-1,-1,-1,-1,-1,-1,-1,-1,-1,-1,-1,-1,-1],"loss_changes":[7.0992184E-1,4.5266926E-1,6.147136E-1,0E0,0E0,1.5152111E0,1.4850019E0,1.2353312E0,1.7433928E0,1.757794E0,2.0253737E0,1.2127955E0,1.3758153E0,8.716674E-1,1.5979664E0,1.313181E0,3.2399464E-1,1.0271354E0,8.7351024E-1,1.9337878E0,2.7120605E0,5.360559E-1,0E0,0E0,2.4314499E-1,1.1330602E0,1.3367504E0,2.4399908E0,1.3785567E0,0E0,0E0,7.669523E-1,0E0,1.1555481E0,1.0024225E0,0E0,0E0,0E0,0E0,0E0,0E0,0E0,0E0,0E0,0E0,0E0,0E0,0E0,0E0,0E0,0E0,0E0,0E0,0E0,0E0,0E0,0E0],"parents":[2147483647,0,0,1,1,2,2,5,5,6,6,7,7,8,8,9,9,10,10,11,11,12,12,13,13,14,14,15,15,16,16,17,17,18,18,19,19,20,20,21,21,24,24,25,25,26,26,27,27,28,28,31,31,33,33,34,34],"right_children":[2,4,6,-1,-1,8,10,12,14,16,18,20,22,24,26,28,30,32,34,36,38,40,-1,-1,42,44,46,48,50,-1,-1,52,-1,54,56,-1,-1,-1,-1,-1,-1,-1,-1,-1,-1,-1,-1,-1,-1,-1,-1,-1,-1,-1,-1,-1,-1],"split_conditions":[3.2E1,4.9617E4,2.92E1,-1.8137191E-1,2.268926E-3,8.997E1,8.952E1,8.1E1,2.03E1,8.785E1,9.561E1,7.818E1,2.7E1,1.7004E4,2.19E1,7.2E1,6E1,4.7408E4,1E0,5.928E1,4.3E1,1.071E4,-1.028686E-1,5.1381405E-2,7.9E1,1E0,2.71E1,6E1,2.0116E4,5.8581743E-2,3.2648385E-1,9.389E1,-2.6396495E-1,4.29E1,6.7E1,-2.0924966E-1,8.150989E-3,1.5779637E-1,-1.377128E-1,-7.670913E-3,2.3083863E-1,-2.6981187E-1,-5.5422153E-2,3.1664136E-1,2.0929484E-2,-1.508681E-2,7.644115E-2,7.051456E-2,-8.751751E-2,-3.8800485E-2,1.8095323E-1,-1.3223924E-2,-1.9523089E-1,-1.2351987E-1,1.06298834E-1,4.9710464E-2,-1.6346483E-2],"split_indices":[2,0,9,0,0,8,8,2,9,8,8,8,9,0,9,2,2,0,5,8,2,0,0,0,2,10,9,2,0,0,0,8,0,9,2,0,0,0,0,0,0,0,0,0,0,0,0,0,0,0,0,0,0,0,0,0,0],"split_type":[0,0,0,0,0,0,0,0,0,0,0,0,0,0,0,0,0,0,0,0,0,0,0,0,0,0,0,0,0,0,0,0,0,0,0,0,0,0,0,0,0,0,0,0,0,0,0,0,0,0,0,0,0,0,0,0,0],"sum_hessian":[2.906571E2,4.078423E0,2.8657867E2,2.1635911E0,1.9148321E0,1.3385413E2,1.5272456E2,6.3152763E1,7.0701355E1,4.9363544E1,1.0336102E2,5.7939926E1,5.2128344E0,4.2368813E0,6.646448E1,4.6765438E1,2.598105E0,1.2479906E1,9.088111E1,3.1978123E1,2.5961805E1,3.5231316E0,1.6897025E0,1.0653825E0,3.1714988E0,4.0860505E0,6.2378426E1,3.5209072E1,1.1556365E1,1.1144462E0,1.4836588E0,1.020408E1,2.2758272E0,9.106705E0,8.177441E1,3.2122958E0,2.8765827E1,2.3128886E0,2.3648916E1,1.0379939E0,2.4851377E0,1.8308005E0,1.3406981E0,1.8600385E0,2.2260122E0,4.166106E1,2.0717365E1,2.1940033E1,1.326904E1,3.1046932E0,8.451672E0,8.351211E0,1.8528682E0,7.370375E0,1.7363293E0,4.4747036E1,3.7027374E1],"tree_param":{"num_deleted":"0","num_feature":"11","num_nodes":"57","size_leaf_vector":"1"}},{"base_weights":[-1.8486016E-3,-1.21082015E-1,2.0059645E-2,-2.2882012E-1,-7.4958764E-2,2.7030352E-1,9.092302E-3,1.5436228E-1,-1.0673069E-1,-1.614039E-1,4.721305E-1,-2.042937E-1,1.7690334E-2,-3.7059393E-2,-6.5743375E-1,1.342047E-1,-1.6025908E-1,-4.5158125E-2,6.8654287E-1,1.2824944E-1,-9.600868E-3,4.097083E-2,-3.387484E-1,-2.7598312E-1,3.966505E-2,9.535507E-2,-1.1306596E-1,2.6291192E-1,1.1484206E-2,-5.8099393E-2,3.2580933E-1,-3.086067E-1,2.0115638E-2,-2.479012E-2,1.4811248E-1,-2.735209E-2,-1.8412395E-1,1.5156859E-1,-7.826607E-2,6.430879E-2,3.0958694E-1,-1.3219401E-1,2.8629752E-2,1.9564924E-1,-8.255894E-4],"categories":[],"categories_nodes":[],"categories_segments":[],"categories_sizes":[],"default_left":[0,0,0,0,0,0,0,0,0,0,0,0,1,0,0,0,0,0,0,0,0,0,1,0,0,0,0,0,0,0,1,0,0,0,0,0,0,0,0,0,0,0,0,0,0],"id":23,"left_children":[1,3,5,-1,7,9,11,-1,13,15,17,-1,19,21,23,-1,-1,25,27,29,31,33,35,-1,-1,-1,-1,-1,-1,37,39,41,43,-1,-1,-1,-1,-1,-1,-1,-1,-1,-1,-1,-1],"loss_changes":[7.6081717E-1,1.2807311E0,6.7301863E-1,0E0,8.6561346E-1,9.7354597E-1,1.4171612E0,0E0,1.5832248E0,1.1526676E0,8.376399E-1,0E0,7.0993406E-1,9.143934E-1,1.0846529E0,0E0,0E0,4.8941368E-1,6.067648E-1,1.7334284E0,1.6883035E0,1.7914915E0,4.8657435E-1,0E0,0E0,0E0,0E0,0E0,0E0,2.966451E0,1.5696843E0,9.583162E-1,2.504191E0,0E0,0E0,0E0,0E0,0E0,0E0,0E0,0E0,0E0,0E0,0E0,0E0],"parents":[2147483647,0,0,1,1,2,2,4,4,5,5,6,6,8,8,9,9,10,10,12,12,13,13,14,14,17,17,18,18,19,19,20,20,21,21,22,22,29,29,30,30,31,31,32,32],"right_children":[2,4,6,-1,8,10,12,-1,14,16,18,-1,20,22,24,-1,-1,26,28,30,32,34,36,-1,-1,-1,-1,-1,-1,38,40,42,44,-1,-1,-1,-1,-1,-1,-1,-1,-1,-1,-1,-1],"split_conditions":[5E1,6.027E3,2.751E3,-2.2882012E-1,8.979E3,9.19E2,3.496E3,1.5436228E-1,4.9E1,1E0,1E0,-2.042937E-1,2.4E1,6.0191E4,5.7583E4,1.342047E-1,-1.6025908E-1,1E0,3.58E1,3.292E4,2.55E1,4.9338E4,3.05E1,-2.7598312E-1,3.966505E-2,9.535507E-2,-1.1306596E-1,2.6291192E-1,1.1484206E-2,1.071E4,2.36E1,5.2641E4,2.59E1,-2.479012E-2,1.4811248E-1,-2.735209E-2,-1.8412395E-1,1.5156859E-1,-7.826607E-2,6.430879E-2,3.0958694E-1,-1.3219401E-1,2.8629752E-2,1.9564924E-1,-8.255894E-4],"split_indices":[2,0,0,0,0,0,0,0,2,10,10,0,9,0,0,0,0,1,9,0,9,0,9,0,0,0,0,0,0,0,9,0,9,0,0,0,0,0,0,0,0,0,0,0,0],"split_type":[0,0,0,0,0,0,0,0,0,0,0,0,0,0,0,0,0,0,0,0,0,0,0,0,0,0,0,0,0,0,0,0,0,0,0,0,0,0,0,0,0,0,0,0,0],"sum_hessian":[2.8932608E2,4.4207027E1,2.4511903E2,1.9226657E0,4.2284363E1,9.298867E0,2.3582018E2,1.3853629E0,4.0899E1,3.0261738E0,6.272693E0,1.9396994E0,2.3388048E2,3.7253258E1,3.6457405E0,1.0733889E0,1.9527848E0,2.0694208E0,4.2032723E0,4.5570602E1,1.8830988E2,3.0284525E1,6.968733E0,2.6123085E0,1.0334319E0,1.0080994E0,1.0613213E0,2.9790413E0,1.224231E0,2.381395E1,2.175665E1,1.6174809E1,1.7213506E2,2.4431747E1,5.8527784E0,4.3679266E0,2.6008062E0,5.908678E0,1.7905272E1,1.9916866E1,1.839785E0,1.2122557E1,4.052253E0,5.049532E0,1.6708553E2],"tree_param":{"num_deleted":"0","num_feature":"11","num_nodes":"45","size_leaf_vector":"1"}},{"base_weights":[-1.1495103E-3,-1.6818775E-1,1.2106311E-2,3.365695E-2,-4.6967915E-1,-3.4905557E-2,6.379804E-2,-2.0939681E-1,1.9193888E-1,2.0867517E-2,-6.1771834E-1,-7.272888E-2,1.637029E-1,2.6306784E-1,1.4435721E-2,5.0183487E-1,-1.02836095E-1,-8.3117787E-4,-2.577745E-1,-2.205785E-1,6.38409E-5,4.5433617E-1,-1.2286522E-1,4.2173654E-1,-2.0875524E-1,-4.4972036E-2,2.5657657E-1,-3.56795E-2,6.6413045E-1,-2.0237154E-1,1.5952355E-1,2.1391869E-1,-3.122193E-1,-1.5900733E-1,1.3123356E-1,-2.7222648E-1,8.0237144E-1,1.1994968E-1,-2.5357965E-1,2.534935E-1,3.798853E-1,-8.1137735E-1,2.4638176E-1,1.0515233E-1,-1.9588442E-1,3.9529917E-1,-1.545835E-1,6.95558E-2,2.8977257E-1,-1.11025766E-1,1.0726429E-1,-6.0723063E-2,1.675194E-1,-2.0368998E-1,-5.882069E-2,9.745177E-3,-1.5433489E-1,1.2148228E-1,-4.189146E-3,-1.8149012E-1,9.280892E-2,3.7723206E-2,3.5852426E-1,-1.814734E-1,1.05501235E-1,1.1631103E-1,-1.346665E-1,-3.986592E-2,-3.172253E-1,1.3302022E-1,-7.019389E-2,-2.1265812E-2,1.2772033E-1,-1.340812E-1,6.4000415E-5,-6.252924E-2,1.6228878E-1,9.577728E-2,-1.5716442E-1],"categories":[],"categories_nodes":[],"categories_segments":[],"categories_sizes":[],"default_left":[0,0,0,0,0,0,0,0,0,0,1,0,0,0,0,0,0,0,0,0,0,0,0,0,0,0,0,0,0,0,0,0,0,0,0,0,0,0,0,0,0,0,0,0,0,0,0,0,0,0,0,0,0,0,0,0,0,0,0,0,0,0,0,0,0,0,0,0,0,0,0,0,0,0,0,0,0,0,0],"id":24,"left_children":[1,3,5,7,9,11,13,-1,15,-1,17,19,21,23,25,27,29,-1,-1,31,33,35,37,39,41,43,45,-1,47,-1,49,51,53,55,57,59,61,63,-1,65,-1,67,69,71,73,75,77,-1,-1,-1,-1,-1,-1,-1,-1,-1,-1,-1,-1,-1,-1,-1,-1,-1,-1,-1,-1,-1,-1,-1,-1,-1,-1,-1,-1,-1,-1,-1,-1],"loss_changes":[6.411992E-1,1.3114301E0,6.5440214E-1,1.7188809E0,7.298627E-1,1.0725607E0,1.2570055E0,0E0,1.1510922E0,0E0,1.0153987E0,1.2839537E0,1.9626793E0,1.9887981E0,1.5045251E0,6.872592E-1,1.1573777E0,0E0,0E0,1.6339536E0,1.7097138E0,3.1466177E0,2.261623E0,2.425764E0,2.1358614E0,1.9280024E0,1.2358549E0,0E0,4.2024064E-1,0E0,7.2024065E-1,1.181299E0,1.2687604E0,2.537251E0,1.7903903E0,1.0574253E0,1.9974604E0,1.9080024E0,0E0,1.8114692E0,0E0,4.0537357E-1,5.569192E-1,2.4487743E0,2.0842721E0,1.4917936E0,1.2022779E0,0E0,0E0,0E0,0E0,0E0,0E0,0E0,0E0,0E0,0E0,0E0,0E0,0E0,0E0,0E0,0E0,0E0,0E0,0E0,0E0,0E0,0E0,0E0,0E0,0E0,0E0,0E0,0E0,0E0,0E0,0E0,0E0],"parents":[2147483647,0,0,1,1,2,2,3,3,4,4,5,5,6,6,8,8,10,10,11,11,12,12,13,13,14,14,15,15,16,16,19,19,20,20,21,21,22,22,23,23,24,24,25,25,26,26,28,28,30,30,31,31,32,32,33,33,34,34,35,35,36,36,37,37,39,39,41,41,42,42,43,43,44,44,45,45,46,46],"right_children":[2,4,6,8,10,12,14,-1,16,-1,18,20,22,24,26,28,30,-1,-1,32,34,36,38,40,42,44,46,-1,48,-1,50,52,54,56,58,60,62,64,-1,66,-1,68,70,72,74,76,78,-1,-1,-1,-1,-1,-1,-1,-1,-1,-1,-1,-1,-1,-1,-1,-1,-1,-1,-1,-1,-1,-1,-1,-1,-1,-1,-1,-1,-1,-1,-1,-1],"split_conditions":[4.2E1,4.1069E4,3.02E1,2E0,2.2E1,2E0,3.16E1,-2.0939681E-1,3E1,2.0867517E-2,2.43E1,6.5E1,9.803E1,1.8071E2,7.6E1,1.5966E4,3.45E1,-8.3117787E-4,-2.577745E-1,1E0,8.883E1,5.8E1,3E0,1.3904E2,2.6719E4,6.1E1,4.8006E4,-3.56795E-2,2.63E1,-2.0237154E-1,3.5E1,2.7E1,0E0,8.178E1,7.5E1,2.81E1,2.7641E4,1.0449E2,-2.5357965E-1,1.213E2,3.798853E-1,3.08E1,6.4258E4,5.7E1,3.59E1,1E0,1.0707E2,6.95558E-2,2.8977257E-1,-1.11025766E-1,1.0726429E-1,-6.0723063E-2,1.675194E-1,-2.0368998E-1,-5.882069E-2,9.745177E-3,-1.5433489E-1,1.2148228E-1,-4.189146E-3,-1.8149012E-1,9.280892E-2,3.7723206E-2,3.5852426E-1,-1.814734E-1,1.05501235E-1,1.1631103E-1,-1.346665E-1,-3.986592E-2,-3.172253E-1,1.3302022E-1,-7.019389E-2,-2.1265812E-2,1.2772033E-1,-1.340812E-1,6.4000415E-5,-6.252924E-2,1.6228878E-1,9.577728E-2,-1.5716442E-1],"split_indices":[2,0,9,6,2,10,9,0,9,0,9,2,8,8,2,0,9,0,0,6,8,2,6,8,0,2,0,0,9,0,2,9,10,8,2,9,0,8,0,8,0,9,0,2,9,5,8,0,0,0,0,0,0,0,0,0,0,0,0,0,0,0,0,0,0,0,0,0,0,0,0,0,0,0,0,0,0,0,0],"split_type":[0,0,0,0,0,0,0,0,0,0,0,0,0,0,0,0,0,0,0,0,0,0,0,0,0,0,0,0,0,0,0,0,0,0,0,0,0,0,0,0,0,0,0,0,0,0,0,0,0,0,0,0,0,0,0,0,0,0,0,0,0,0,0,0,0,0,0,0,0,0,0,0,0,0,0,0,0,0,0],"sum_hessian":[2.8766165E2,2.0290514E1,2.6737112E2,1.2685857E1,7.604657E0,1.401941E2,1.2717703E2,1.6498348E0,1.1036022E1,1.7522318E0,5.852425E0,1.18298874E2,2.1895226E1,2.4389637E1,1.0278739E2,5.037588E0,5.9984336E0,1.9356445E0,3.9167805E0,3.835851E1,7.994037E1,1.0579853E1,1.1315372E1,1.8331215E1,6.0584216E0,8.3191216E1,1.9596178E1,1.099456E0,3.9381323E0,1.3925685E0,4.6058655E0,6.4487386E0,3.1909771E1,3.6031857E1,4.390851E1,3.4970949E0,7.0827584E0,9.092977E0,2.2223964E0,1.637024E1,1.9609761E0,2.270055E0,3.7883663E0,4.1856503E1,4.1334717E1,1.4681361E1,4.914816E0,2.3459697E0,1.5921626E0,1.0170097E0,3.5888555E0,3.1065993E0,3.3421395E0,6.509691E0,2.540008E1,2.4006947E1,1.202491E1,1.4599159E1,2.930935E1,2.1988735E0,1.2982215E0,3.0859497E0,3.9968088E0,1.812541E0,7.2804356E0,1.4120192E1,2.2500467E0,1.0139751E0,1.25608E0,2.741068E0,1.0472987E0,2.7522306E1,1.4334195E1,1.756635E1,2.3768366E1,2.7699332E0,1.1911428E1,2.2120569E0,2.7027588E0],"tree_param":{"num_deleted":"0","num_feature":"11","num_nodes":"79","size_leaf_vector":"1"}},{"base_weights":[-3.073582E-3,-3.6844143E-1,2.3606764E-3,7.706429E-3,-2.1710572E-1,3.218683E-1,-4.6773273E-3,-6.958991E-2,2.0693226E-1,-2.112517E-1,8.888735E-3,1.04256116E-1,-1.3141945E-1,4.1325837E-2,-4.6921685E-1,3.5058784E-1,-1.2559346E-3,-4.21579E-1,4.3072426E-1,4.3467976E-2,-6.6189843E-1,7.3784405E-1,-2.7041227E-1,-2.5375688E-1,1.0473097E-2,-2.4956404E-1,1.9104008E-2,-1.570062E-2,1.9741511E-1,-7.438684E-2,-2.7299702E-1,2.8843266E-1,8.044073E-2,-2.6800275E-1,1.0312882E-1,-2.4401952E-1,8.0886595E-3,1.5319918E-1,-1.5462507E-3],"categories":[],"categories_nodes":[],"categories_segments":[],"categories_sizes":[],"default_left":[0,0,0,0,0,0,0,0,0,0,0,0,0,0,0,1,0,0,0,0,0,0,0,0,0,0,0,0,0,0,0,0,0,0,0,0,0,0,0],"id":25,"left_children":[1,3,5,-1,-1,7,9,11,-1,13,15,-1,-1,17,19,21,23,25,27,-1,29,31,33,35,37,-1,-1,-1,-1,-1,-1,-1,-1,-1,-1,-1,