{"learner":{"attributes":{"scikit_learn":"{\"_estimator_type\": \"classifier\"}"},"feature_names":["id","gender","age","hypertension","heart_disease","ever_married","work_type","Residence_type","avg_glucose_level","bmi","smoking_status"],"feature_types":["int","int","float","int","int","int","int","int","float","float","int"],"gradient_booster":{"model":{"gbtree_model_param":{"num_parallel_tree":"1","num_trees":"100"},"iteration_indptr":[0,1,2,3,4,5,6,7,8,9,10,11,12,13,14,15,16,17,18,19,20,21,22,23,24,25,26,27,28,29,30,31,32,33,34,35,36,37,38,39,40,41,42,43,44,45,46,47,48,49,50,51,52,53,54,55,56,57,58,59,60,61,62,63,64,65,66,67,68,69,70,71,72,73,74,75,76,77,78,79,80,81,82,83,84,85,86,87,88,89,90,91,92,93,94,95,96,97,98,99,100],"tree_info":[0,0,0,0,0,0,0,0,0,0,0,0,0,0,0,0,0,0,0,0,0,0,0,0,0,0,0,0,0,0,0,0,0,0,0,0,0,0,0,0,0,0,0,0,0,0,0,0,0,0,0,0,0,0,0,0,0,0,0,0,0,0,0,0,0,0,0,0,0,0,0,0,0,0,0,0,0,0,0,0,0,0,0,0,0,0,0,0,0,0,0,0,0,0,0,0,0,0,0,0],"trees":[{"base_weights":[-9.825234E-1,-1.0731491E0,-5.1786315E-1,-1.0861673E0,-6.0886014E-1,4.5992097E-1,-5.885731E-1,-1.1187367E0,-9.6605265E-1,-1.0038067E0,8.798854E-2,-3.513905E-2,9.6451044E-1,-6.597573E-1,-2.0996302E-1,-3.3989266E-1,-1.065004E0,-9.898255E-1,-6.3146704E-1,-5.364652E-2,-1.0155573E0,5.554218E-1,-7.965499E-1,-7.716144E-1,4.2146653E-1,1.204187E0,-3.1489196E-1,-8.0680245E-1,-4.5980167E-1,-4.7413749E-1,1.5739833E-1,-1.0676532E0,-3.9921775E-1,-1.0209363E0,-8.679765E-1,-6.6911197E-1,1.23375125E-1,-3.2568252E-1,-7.6637495E-1,-4.425347E-1,1.7424395E0,-2.7212417E-1,2.6111873E-2,-8.974213E-1,-2.308198E-1,9.93885E-1,-5.703734E-1,-2.3390031E-1,1.4839717E0,5.6706622E-2,-2.2451366E-1,-8.5650444E-1,-6.09806E-1,-5.207112E-1,-2.2862615E-1,1.8463406E-1,-5.386507E-1,-4.666893E-2,1.2195499E0,-3.2463774E-1,-2.8039402E-1,1.0718463E-2,-2.0898916E-1,-3.108287E-1,-2.7158526E-1,5.6706622E-2,-2.648064E-1,-2.0863605E-1,1.0387201E-1,-8.588784E-2,-2.7555633E-1,1.2953934E-1,-2.8188968E-1,6.7147243E-1,-2.2451366E-1,-3.8399864E-2,-2.980693E-1,6.1292607E-2,-1.8067172E-1,9.702008E-2,4.1154334E-1,-2.1748377E-1,-3.986776E-2,1.4366238E-1,-2.2892244E-1,6.226784E-1,1.5334739E-1,-1.8062887E-1,-2.6492763E-1,-1.278942E-1,-2.3650111E-1,-1.8924083E-1,-1.1870452E-1,4.497692E-2,-1.3118874E-1,-1.5457459E-1,3.99471E-1,-1.3553907E-1,-2.8122583E-1,-6.5116934E-2,7.8316145E-2,6.1876667E-1,-1.5648048E-1],"categories":[],"categories_nodes":[],"categories_segments":[],"categories_sizes":[],"default_left":[0,0,1,0,0,0,0,0,0,0,0,0,0,0,0,0,0,0,0,0,0,0,0,0,0,0,0,0,0,0,0,0,0,0,0,0,0,0,0,0,0,0,0,0,0,0,0,0,0,0,0,0,0,0,0,0,0,0,0,0,0,0,0,0,0,0,0,0,0,0,0,0,0,0,0,0,0,0,0,0,0,0,0,0,0,0,0,0,0,0,0,0,0,0,0,0,0,0,0,0,0,0,0],"id":0,"left_children":[1,3,5,7,9,11,13,15,17,19,21,23,25,27,29,-1,31,33,35,-1,37,39,41,43,45,47,49,51,53,55,57,59,61,63,65,67,-1,-1,69,71,73,-1,-1,75,77,79,81,83,85,-1,-1,87,89,91,93,95,97,99,101,-1,-1,-1,-1,-1,-1,-1,-1,-1,-1,-1,-1,-1,-1,-1,-1,-1,-1,-1,-1,-1,-1,-1,-1,-1,-1,-1,-1,-1,-1,-1,-1,-1,-1,-1,-1,-1,-1,-1,-1,-1,-1,-1,-1],"loss_changes":[2.0209863E2,2.3673828E1,5.470781E1,1.4234863E1,3.0936302E1,1.3438358E1,1.9662354E1,1.1450195E0,6.0759277E0,5.126953E-1,1.7586786E1,9.758094E0,8.53882E0,1.7798523E1,1.1500968E1,0E0,7.3876953E-1,2.0889893E0,2.5773354E0,0E0,3.9688873E-1,3.360585E1,1.5192108E0,5.4727983E-1,1.0764865E1,9.44775E0,1.2317169E0,2.9512634E0,3.600975E0,3.0207767E0,1.0894832E1,2.5390625E-1,5.7014215E-1,1.4813232E-1,2.7527695E0,1.7649403E0,0E0,0E0,1.113821E0,7.297096E0,1.7559551E1,0E0,0E0,5.126748E-1,6.7883795E-1,2.5346947E0,3.911085E-1,2.080708E0,9.915043E0,0E0,0E0,1.3677826E0,2.1190891E0,2.6177979E0,4.558246E0,6.205425E0,1.7536793E0,2.3063445E0,1.2958102E1,0E0,0E0,0E0,0E0,0E0,0E0,0E0,0E0,0E0,0E0,0E0,0E0,0E0,0E0,0E0,0E0,0E0,0E0,0E0,0E0,0E0,0E0,0E0,0E0,0E0,0E0,0E0,0E0,0E0,0E0,0E0,0E0,0E0,0E0,0E0,0E0,0E0,0E0,0E0,0E0,0E0,0E0,0E0,0E0],"parents":[2147483647,0,0,1,1,2,2,3,3,4,4,5,5,6,6,7,7,8,8,9,9,10,10,11,11,12,12,13,13,14,14,16,16,17,17,18,18,20,20,21,21,22,22,23,23,24,24,25,25,26,26,27,27,28,28,29,29,30,30,31,31,32,32,33,33,34,34,35,35,38,38,39,39,40,40,43,43,44,44,45,45,46,46,47,47,48,48,51,51,52,52,53,53,54,54,55,55,56,56,57,57,58,58],"right_children":[2,4,6,8,10,12,14,16,18,20,22,24,26,28,30,-1,32,34,36,-1,38,40,42,44,46,48,50,52,54,56,58,60,62,64,66,68,-1,-1,70,72,74,-1,-1,76,78,80,82,84,86,-1,-1,88,90,92,94,96,98,100,102,-1,-1,-1,-1,-1,-1,-1,-1,-1,-1,-1,-1,-1,-1,-1,-1,-1,-1,-1,-1,-1,-1,-1,-1,-1,-1,-1,-1,-1,-1,-1,-1,-1,-1,-1,-1,-1,-1,-1,-1,-1,-1,-1,-1],"split_conditions":[6.7E1,1.9520001E2,1.58E1,5.4E1,2.2596E4,7.5E1,1E0,4.5E1,1E0,6.598E1,1E0,1.3756E4,2E0,7.7E1,1.2438E2,-3.3989266E-1,7.2652E4,1.4162E2,2.4205E2,-5.364652E-2,1.1159E2,5.1E1,1E0,1.994E2,1E0,3.323E3,1E0,1.7523E2,1E0,1E0,2E0,1.654E2,3.04E1,1E0,1.924E3,4.79E1,1.23375125E-1,-3.2568252E-1,0E0,1.0151E2,2.1739E2,-2.7212417E-1,2.6111873E-2,8.19E2,7.1E1,3.3458E4,1.9498E2,1.091E3,1.2653E2,5.6706622E-2,-2.2451366E-1,8.429E3,1E0,1E0,2.65E1,1E0,2E0,7.9E1,3.15E1,-3.2463774E-1,-2.8039402E-1,1.0718463E-2,-2.0898916E-1,-3.108287E-1,-2.7158526E-1,5.6706622E-2,-2.648064E-1,-2.0863605E-1,1.0387201E-1,-8.588784E-2,-2.7555633E-1,1.2953934E-1,-2.8188968E-1,6.7147243E-1,-2.2451366E-1,-3.8399864E-2,-2.980693E-1,6.1292607E-2,-1.8067172E-1,9.702008E-2,4.1154334E-1,-2.1748377E-1,-3.986776E-2,1.4366238E-1,-2.2892244E-1,6.226784E-1,1.5334739E-1,-1.8062887E-1,-2.6492763E-1,-1.278942E-1,-2.3650111E-1,-1.8924083E-1,-1.1870452E-1,4.497692E-2,-1.3118874E-1,-1.5457459E-1,3.99471E-1,-1.3553907E-1,-2.8122583E-1,-6.5116934E-2,7.8316145E-2,6.1876667E-1,-1.5648048E-1],"split_indices":[2,9,9,2,0,2,4,2,4,8,3,0,10,2,8,0,0,8,8,0,8,2,4,8,3,0,1,8,3,5,10,8,9,3,0,9,0,0,10,8,8,0,0,0,2,0,8,0,8,0,0,0,7,10,9,3,10,2,9,0,0,0,0,0,0,0,0,0,0,0,0,0,0,0,0,0,0,0,0,0,0,0,0,0,0,0,0,0,0,0,0,0,0,0,0,0,0,0,0,0,0,0,0],"split_type":[0,0,0,0,0,0,0,0,0,0,0,0,0,0,0,0,0,0,0,0,0,0,0,0,0,0,0,0,0,0,0,0,0,0,0,0,0,0,0,0,0,0,0,0,0,0,0,0,0,0,0,0,0,0,0,0,0,0,0,0,0,0,0,0,0,0,0,0,0,0,0,0,0,0,0,0,0,0,0,0,0,0,0,0,0,0,0,0,0,0,0,0,0,0,0,0,0,0,0,0,0,0,0],"sum_hessian":[4.811493E3,4.0251355E3,7.863576E2,3.9140498E3,1.11085625E2,5.266035E1,7.3369727E2,3.0725928E3,8.41457E2,7.06203E1,4.046532E1,2.705079E1,2.560956E1,6.169576E2,1.1673968E2,2.4130635E3,6.595293E2,7.8380774E2,5.7649223E1,1.2195028E0,6.9400795E1,2.6718199E1,1.3747123E1,1.0088614E1,1.6962175E1,2.161846E1,3.9911003E0,3.537667E2,2.631909E2,6.773784E1,4.9001842E1,6.563143E2,3.2150528E0,6.1850964E2,1.6529807E2,5.5986267E1,1.6629584E0,5.1551712E1,1.7849087E1,1.4855762E1,1.1862436E1,1.2195028E1,1.5520945E0,7.6496086E0,2.4390056E0,1.0753798E1,6.208378E0,3.5476446E0,1.8070814E1,2.106414E0,1.8846862E0,2.7982047E2,7.394622E1,2.0731548E2,5.5875404E1,5.8757863E0,6.1862053E1,4.190655E1,7.095289E0,5.854722E2,7.0842026E1,1.6629584E0,1.5520945E0,5.397963E2,7.871336E1,2.106414E0,1.6319165E2,5.487763E1,1.108639E0,4.9888754E0,1.2860211E1,5.4323306E0,9.423431E0,9.977751E0,1.8846862E0,1.108639E0,6.54097E0,1.3303667E0,1.108639E0,4.5454197E0,6.208378E0,4.101964E0,2.106414E0,1.5520945E0,1.9955502E0,1.053207E1,7.538745E0,2.8713749E1,2.5110672E2,3.813718E1,3.5809036E1,1.080923E2,9.922318E1,1.9955502E1,3.5919903E1,3.9911003E0,1.8846862E0,5.2549484E1,9.312567E0,2.7161654E1,1.4744898E1,4.6562834E0,2.4390056E0],"tree_param":{"num_deleted":"0","num_feature":"11","num_nodes":"103","size_leaf_vector":"1"}},{"base_weights":[-9.0635294E-1,-1.0135267E0,-4.2664948E-1,-1.0732801E0,-8.7705684E-1,2.5194067E-1,-4.8903963E-1,-1.0784199E0,-8.31182E-1,-9.117633E-1,-2.363257E-1,6.6922784E-2,8.404556E-1,-6.3187844E-1,-3.20794E-1,-3.2991034E-1,-3.1257182E-1,-9.5896333E-1,5.295706E-1,-9.3516684E-1,-5.587895E-1,-8.286492E-1,3.381877E-1,-6.1389256E-1,2.3851952E-1,1.8163553E-1,1.6081492E0,-7.07577E-1,-2.0031855E-1,-4.3202308E-1,-1.6604526E-1,8.984152E-2,-9.9899614E-1,1.2647147E0,-2.0077457E-1,-9.67974E-1,-7.957439E-1,-6.100376E-1,2.0473583E-1,-2.7989665E-1,-5.076407E-1,7.9374963E-1,-6.543829E-1,-7.662487E-1,7.031303E-2,4.919575E-1,-2.3119202E-1,6.586613E-1,-2.4348256E-1,2.3243272E0,4.5279086E-1,-7.596804E-1,-4.8601538E-1,-3.386106E-1,5.0167215E-1,-2.8829765E-1,-6.652096E-1,5.867587E-1,-2.1673472E-1,-3.1639418E-1,-2.088202E-1,6.191796E-1,-4.1081358E-2,-2.9608765E-1,-2.4502422E-1,5.1638167E-2,-2.4415153E-1,-2.1129072E-1,-5.762894E-2,3.734859E-2,-2.2941746E-1,4.035663E-1,-5.371869E-2,-2.7570826E-1,-4.402621E-2,-7.326842E-2,-2.8509575E-1,2.5307238E-1,-6.071926E-2,-1.4358766E-1,1.0282205E-1,-4.1492924E-2,5.5104274E-1,9.66099E-2,9.0227985E-1,3.7371272E-1,-1.0787309E-1,-2.3896423E-1,-1.419918E-1,1.07028335E-1,-1.6201225E-1,-1.4438401E-1,4.549776E-2,-1.9719012E-1,2.3707676E-1,-3.455031E-2,-1.3789849E-1,-2.4418758E-1,-1.5022574E-1,2.0400543E-2,5.362769E-1,-9.485969E-2,2.7653722E-2],"categories":[],"categories_nodes":[],"categories_segments":[],"categories_sizes":[],"default_left":[0,0,1,0,0,0,0,0,0,0,0,0,0,0,0,0,0,0,0,0,0,0,0,0,0,0,0,0,0,0,0,0,0,0,0,0,0,0,0,0,0,0,0,0,0,0,0,0,0,0,0,0,0,0,0,0,0,0,0,0,0,0,0,0,0,0,0,0,0,0,0,0,0,0,0,0,0,0,0,0,0,0,0,0,0,0,0,0,0,0,0,0,0,0,0,0,0,0,0,0,0,0,0],"id":1,"left_children":[1,3,5,7,9,11,13,15,17,19,21,23,25,27,29,-1,-1,31,33,35,37,39,41,43,45,47,49,51,53,55,57,-1,59,61,-1,63,65,67,-1,-1,69,71,73,75,-1,77,79,81,-1,83,85,87,89,91,93,95,97,99,101,-1,-1,-1,-1,-1,-1,-1,-1,-1,-1,-1,-1,-1,-1,-1,-1,-1,-1,-1,-1,-1,-1,-1,-1,-1,-1,-1,-1,-1,-1,-1,-1,-1,-1,-1,-1,-1,-1,-1,-1,-1,-1,-1,-1],"loss_changes":[1.9693921E2,2.4641357E1,2.987799E1,1.8129883E0,2.1150696E1,6.458995E0,1.5273071E1,5.083008E-1,9.137077E0,7.0039062E0,1.754019E1,5.5917006E0,6.902651E0,1.1202362E1,5.052746E0,0E0,0E0,2.6026535E0,5.168751E0,3.1311646E0,4.1781464E0,3.7252617E-1,1.2482817E1,1.4284017E0,4.6311054E0,4.6958995E0,4.2783356E0,3.0366821E0,5.335983E0,5.592575E0,4.9400625E0,0E0,1.6841888E-2,4.075963E0,0E0,1.1630249E0,3.083969E0,2.1229763E0,0E0,0E0,1.4587693E0,1.021191E1,1.0568988E0,5.775256E-1,0E0,6.266585E0,2.1492767E0,6.3433843E0,0E0,4.1416283E0,2.8359299E0,2.1260834E0,2.8766375E0,3.22437E0,3.583433E0,3.1673346E0,1.18367E0,5.003114E0,3.6824512E0,0E0,0E0,0E0,0E0,0E0,0E0,0E0,0E0,0E0,0E0,0E0,0E0,0E0,0E0,0E0,0E0,0E0,0E0,0E0,0E0,0E0,0E0,0E0,0E0,0E0,0E0,0E0,0E0,0E0,0E0,0E0,0E0,0E0,0E0,0E0,0E0,0E0,0E0,0E0,0E0,0E0,0E0,0E0,0E0],"parents":[2147483647,0,0,1,1,2,2,3,3,4,4,5,5,6,6,7,7,8,8,9,9,10,10,11,11,12,12,13,13,14,14,17,17,18,18,19,19,20,20,21,21,22,22,23,23,24,24,25,25,26,26,27,27,28,28,29,29,30,30,32,32,33,33,35,35,36,36,37,37,40,40,41,41,42,42,43,43,45,45,46,46,47,47,49,49,50,50,51,51,52,52,53,53,54,54,55,55,56,56,57,57,58,58],"right_children":[2,4,6,8,10,12,14,16,18,20,22,24,26,28,30,-1,-1,32,34,36,38,40,42,44,46,48,50,52,54,56,58,-1,60,62,-1,64,66,68,-1,-1,70,72,74,76,-1,78,80,82,-1,84,86,88,90,92,94,96,98,100,102,-1,-1,-1,-1,-1,-1,-1,-1,-1,-1,-1,-1,-1,-1,-1,-1,-1,-1,-1,-1,-1,-1,-1,-1,-1,-1,-1,-1,-1,-1,-1,-1,-1,-1,-1,-1,-1,-1,-1,-1,-1,-1,-1,-1],"split_conditions":[6.7E1,5E1,1.58E1,1.9520001E2,9.76E1,7.9E1,7.7E1,3.4E1,5.6808E4,1E0,2.177E4,6.712E3,2.2329E4,1E0,1.0438E2,-3.2991034E-1,-3.1257182E-1,6.633E1,9.968E1,1.4162E2,4.69E1,1.2144E2,1E0,7.8E1,1E0,1.708E2,1E0,1E0,2.1739E2,8.74E1,5.572E3,8.984152E-2,4.5E1,1E0,-2.0077457E-1,1E0,1.924E3,2.0586E2,2.0473583E-1,-2.7989665E-1,0E0,1E0,1.7945E2,7.1E1,7.031303E-2,1E0,1.994E2,9.587E1,-2.4348256E-1,9.914E1,8.484E1,2.0586E2,1E0,1E0,0E0,2.71E1,1E0,4.721E3,1E0,-3.1639418E-1,-2.088202E-1,6.191796E-1,-4.1081358E-2,-2.9608765E-1,-2.4502422E-1,5.1638167E-2,-2.4415153E-1,-2.1129072E-1,-5.762894E-2,3.734859E-2,-2.2941746E-1,4.035663E-1,-5.371869E-2,-2.7570826E-1,-4.402621E-2,-7.326842E-2,-2.8509575E-1,2.5307238E-1,-6.071926E-2,-1.4358766E-1,1.0282205E-1,-4.1492924E-2,5.5104274E-1,9.66099E-2,9.0227985E-1,3.7371272E-1,-1.0787309E-1,-2.3896423E-1,-1.419918E-1,1.07028335E-1,-1.6201225E-1,-1.4438401E-1,4.549776E-2,-1.9719012E-1,2.3707676E-1,-3.455031E-2,-1.3789849E-1,-2.4418758E-1,-1.5022574E-1,2.0400543E-2,5.362769E-1,-9.485969E-2,2.7653722E-2],"split_indices":[2,2,9,9,9,2,2,2,0,4,0,0,0,4,8,0,0,8,8,8,9,8,3,2,3,8,3,3,8,8,0,0,2,3,0,3,0,8,0,0,10,4,8,2,0,4,8,8,0,8,8,8,5,3,10,9,10,0,4,0,0,0,0,0,0,0,0,0,0,0,0,0,0,0,0,0,0,0,0,0,0,0,0,0,0,0,0,0,0,0,0,0,0,0,0,0,0,0,0,0,0,0,0],"split_type":[0,0,0,0,0,0,0,0,0,0,0,0,0,0,0,0,0,0,0,0,0,0,0,0,0,0,0,0,0,0,0,0,0,0,0,0,0,0,0,0,0,0,0,0,0,0,0,0,0,0,0,0,0,0,0,0,0,0,0,0,0,0,0,0,0,0,0,0,0,0,0,0,0,0,0,0,0,0,0,0,0,0,0,0,0,0,0,0,0,0,0,0,0,0,0,0,0,0,0,0,0,0,0],"sum_hessian":[3.8380457E3,3.1362437E3,7.0180194E2,2.176428E3,9.598158E2,5.8835537E1,6.429664E2,2.1278E3,4.8627922E1,9.1009564E2,4.972013E1,4.5610256E1,1.3225282E1,3.46249E2,2.967174E2,1.325911E3,8.0188904E2,4.4723442E1,3.9044802E0,8.5195807E2,5.813758E1,2.4262812E1,2.545732E1,8.6628E0,3.6947456E1,7.7828155E0,5.4424663E0,2.9403384E2,5.221515E1,1.7159087E2,1.2512654E2,1.1790559E0,4.3544388E1,2.386224E0,1.5182561E0,6.848626E2,1.6709547E2,5.6320747E1,1.8168325E0,1.6872272E1,7.3905396E0,1.7586103E1,7.871217E0,7.425763E0,1.2370368E0,2.3967936E1,1.2979522E1,5.485264E0,2.2975516E0,2.7352018E0,2.7072647E0,2.3608603E2,5.7947807E1,4.4054134E1,8.161014E0,1.07542786E2,6.404808E1,7.226603E0,1.1789993E2,3.4689983E1,8.8544035E0,1.2187808E0,1.1674433E0,6.0356537E2,8.129723E1,2.9103239E0,1.6418515E2,4.5396584E1,1.0924165E1,2.2857997E0,5.1047397E0,1.0979299E1,6.6068044E0,4.6411777E0,3.2300391E0,2.5423942E0,4.883369E0,1.5768143E1,8.199792E0,9.185521E0,3.7940001E0,3.7983992E0,1.6868649E0,1.0702369E0,1.6649648E0,1.1000865E0,1.6071781E0,2.0758116E2,2.8504866E1,3.153335E0,5.479447E1,3.413819E1,9.915941E0,1.3722566E0,6.7887564E0,5.4327484E1,5.32153E1,3.155642E1,3.249166E1,5.7843866E0,1.4422163E0,8.916648E1,2.8733454E1],"tree_param":{"num_deleted":"0","num_feature":"11","num_nodes":"103","size_leaf_vector":"1"}},{"base_weights":[-8.3342093E-1,-9.7099024E-1,-3.783805E-1,-1.0353947E0,-8.153633E-1,1.546523E-1,-4.3548697E-1,-1.0418643E0,-7.5168866E-1,-8.4783703E-1,-2.615366E-1,-4.503644E-2,4.3877697E-1,-5.7376814E-1,-2.487942E-1,-3.208225E-1,-9.9535394E-1,-8.932708E-1,3.822811E-1,-8.793097E-1,-3.808163E-1,-7.514544E-1,1.3575836E-1,-7.004567E-1,1.3554506E-1,8.069326E-1,-1.441399E-1,-6.218271E-1,-1.5285593E-1,-3.4605107E-1,-1.2105418E-1,-2.9937705E-1,-5.7457465E-1,1.1768525E-1,-9.419985E-1,-1.3446619E-1,3.113034E-1,-9.17856E-1,-7.324489E-1,-4.4749144E-1,2.5610375E-1,-8.3543825E-1,-1.0737036E-2,4.970193E-1,-5.2590567E-1,-8.447009E-1,1.9686325E-3,-5.8963937E-1,2.1955162E-1,1.5070416E0,8.0016315E-2,-8.274181E-1,3.1456512E-1,-6.755004E-1,-4.0700528E-1,7.984764E-1,-3.5870022E-1,-2.2127047E-1,-5.6692636E-1,4.1922694E-1,-1.6286823E-1,-2.5360915E-1,4.871335E-2,-3.0274993E-1,-1.8270266E-1,-2.8192058E-1,-2.2337283E-1,-1.058986E-1,-2.3823065E-1,-2.0693658E-1,-2.606023E-2,-2.7838886E-1,-1.0081631E-1,-2.712788E-1,2.476452E-1,-2.0791073E-1,9.941718E-2,-7.945761E-2,-2.836086E-1,-2.7760502E-2,-2.2333507E-1,8.38626E-2,-2.0216289E-1,5.925414E-1,1.9258235E-2,-1.1278833E-1,3.0533534E-1,-2.9072732E-1,-5.3501036E-2,2.1987934E-1,-2.2460794E-1,-1.8104091E-1,-2.4311753E-1,-1.7590585E-1,-1.0123473E-2,3.2219744E-1,-7.046618E-2,-1.330949E-1,1.0049766E-1,-9.249978E-2,2.0188916E-2,-7.573888E-2,-1.9424033E-1,-8.429885E-2,2.946925E-1,-5.7133477E-2,1.8565896E-1],"categories":[],"categories_nodes":[],"categories_segments":[],"categories_sizes":[],"default_left":[0,0,1,0,0,0,0,0,0,0,0,0,0,0,0,0,0,0,0,0,0,0,0,0,0,0,0,0,0,0,0,0,0,0,0,0,0,0,0,0,0,0,0,0,0,0,0,0,0,0,0,0,0,0,0,0,0,0,0,0,0,0,0,0,0,0,0,0,0,0,0,0,0,0,0,0,0,0,0,0,0,0,0,0,0,0,0,0,0,0,0,0,0,0,0,0,0,0,0,0,0,0,0,0,0,0,0],"id":2,"left_children":[1,3,5,7,9,11,13,15,17,19,21,23,25,27,29,-1,31,33,35,37,39,41,43,45,47,49,51,53,55,57,59,-1,61,-1,63,-1,-1,65,67,69,-1,71,-1,73,75,77,-1,79,81,83,85,87,89,91,93,95,97,99,101,103,105,-1,-1,-1,-1,-1,-1,-1,-1,-1,-1,-1,-1,-1,-1,-1,-1,-1,-1,-1,-1,-1,-1,-1,-1,-1,-1,-1,-1,-1,-1,-1,-1,-1,-1,-1,-1,-1,-1,-1,-1,-1,-1,-1,-1,-1,-1],"loss_changes":[1.9189673E2,2.278711E1,2.1820152E1,2.270874E0,1.2274445E1,3.9850914E0,1.6527504E1,1.0164795E0,6.8738766E0,9.305695E0,7.874161E0,5.0600986E0,6.3268585E0,7.393547E0,3.393652E0,0E0,9.539795E-2,2.6541557E0,3.3044908E0,2.8019104E0,3.935666E0,1.0540152E0,5.7344246E0,9.4621277E-1,2.1841135E0,8.983362E0,4.0372787E0,3.5523376E0,7.975123E0,4.1867847E0,2.8034601E0,0E0,1.3568776E0,0E0,1.7791748E-1,0E0,0E0,1.1283264E0,2.8204575E0,3.5765543E0,0E0,4.3183804E-1,0E0,7.7998495E0,1.45788E0,1.9720507E-1,0E0,2.2144926E-1,1.8474365E0,5.9897747E0,4.587001E0,2.976241E-1,4.078411E0,2.076683E0,4.590665E0,2.3289952E0,2.0914211E0,2.5737638E0,1.250864E0,3.815442E0,2.5559177E0,0E0,0E0,0E0,0E0,0E0,0E0,0E0,0E0,0E0,0E0,0E0,0E0,0E0,0E0,0E0,0E0,0E0,0E0,0E0,0E0,0E0,0E0,0E0,0E0,0E0,0E0,0E0,0E0,0E0,0E0,0E0,0E0,0E0,0E0,0E0,0E0,0E0,0E0,0E0,0E0,0E0,0E0,0E0,0E0,0E0,0E0],"parents":[2147483647,0,0,1,1,2,2,3,3,4,4,5,5,6,6,7,7,8,8,9,9,10,10,11,11,12,12,13,13,14,14,16,16,17,17,18,18,19,19,20,20,21,21,22,22,23,23,24,24,25,25,26,26,27,27,28,28,29,29,30,30,32,32,34,34,37,37,38,38,39,39,41,41,43,43,44,44,45,45,47,47,48,48,49,49,50,50,51,51,52,52,53,53,54,54,55,55,56,56,57,57,58,58,59,59,60,60],"right_children":[2,4,6,8,10,12,14,16,18,20,22,24,26,28,30,-1,32,34,36,38,40,42,44,46,48,50,52,54,56,58,60,-1,62,-1,64,-1,-1,66,68,70,-1,72,-1,74,76,78,-1,80,82,84,86,88,90,92,94,96,98,100,102,104,106,-1,-1,-1,-1,-1,-1,-1,-1,-1,-1,-1,-1,-1,-1,-1,-1,-1,-1,-1,-1,-1,-1,-1,-1,-1,-1,-1,-1,-1,-1,-1,-1,-1,-1,-1,-1,-1,-1,-1,-1,-1,-1,-1,-1,-1,-1],"split_conditions":[6.5E1,5E1,1.58E1,1.9520001E2,9.76E1,3.3138E4,7.7E1,3.4E1,5.6808E4,1E0,2.177E4,6.9E1,1.8316E2,2.1739E2,1.0438E2,-3.208225E-1,2.3688E2,6.598E1,1E0,1.3202E2,4.69E1,6.3E1,1.9498E2,2.2596E4,1E0,1E0,4.4862E4,1E0,2.67E1,8.74E1,5.572E3,-2.9937705E-1,2E0,1.1768525E-1,4.5E1,-1.3446619E-1,3.113034E-1,1E0,1.5472E4,6E1,2.5610375E-1,3E0,-1.0737036E-2,1E0,6.5435E4,6.6E1,1.9686325E-3,7.4E1,3.0907E4,1E0,7.9E1,1E0,1E0,3.16E1,3E0,6.255E4,6.4563E4,1E0,2.31E1,1E0,4.25E1,-2.5360915E-1,4.871335E-2,-3.0274993E-1,-1.8270266E-1,-2.8192058E-1,-2.2337283E-1,-1.058986E-1,-2.3823065E-1,-2.0693658E-1,-2.606023E-2,-2.7838886E-1,-1.0081631E-1,-2.712788E-1,2.476452E-1,-2.0791073E-1,9.941718E-2,-7.945761E-2,-2.836086E-1,-2.7760502E-2,-2.2333507E-1,8.38626E-2,-2.0216289E-1,5.925414E-1,1.9258235E-2,-1.1278833E-1,3.0533534E-1,-2.9072732E-1,-5.3501036E-2,2.1987934E-1,-2.2460794E-1,-1.8104091E-1,-2.4311753E-1,-1.7590585E-1,-1.0123473E-2,3.2219744E-1,-7.046618E-2,-1.330949E-1,1.0049766E-1,-9.249978E-2,2.0188916E-2,-7.573888E-2,-1.9424033E-1,-8.429885E-2,2.946925E-1,-5.7133477E-2,1.8565896E-1],"split_indices":[2,2,9,9,9,0,2,2,0,4,0,2,8,8,8,0,8,8,7,8,9,2,8,0,6,10,0,3,9,8,0,0,10,0,2,0,0,3,0,2,0,6,0,6,0,2,0,2,0,3,2,4,4,9,6,0,0,3,9,10,9,0,0,0,0,0,0,0,0,0,0,0,0,0,0,0,0,0,0,0,0,0,0,0,0,0,0,0,0,0,0,0,0,0,0,0,0,0,0,0,0,0,0,0,0,0,0],"split_type":[0,0,0,0,0,0,0,0,0,0,0,0,0,0,0,0,0,0,0,0,0,0,0,0,0,0,0,0,0,0,0,0,0,0,0,0,0,0,0,0,0,0,0,0,0,0,0,0,0,0,0,0,0,0,0,0,0,0,0,0,0,0,0,0,0,0,0,0,0,0,0,0,0,0,0,0,0,0,0,0,0,0,0,0,0,0,0,0,0,0,0,0,0,0,0,0,0,0,0,0,0,0,0,0,0,0,0],"sum_hessian":[3.0703303E3,2.3567085E3,7.1362164E2,1.6628884E3,6.938202E2,6.8890305E1,6.447314E2,1.6232008E3,3.968763E1,6.548897E2,3.893049E1,4.0950752E1,2.793955E1,3.6919766E2,2.755337E2,1.00564856E3,6.175522E2,3.547113E1,4.216497E0,6.127158E2,4.2173912E1,1.703394E1,2.189655E1,8.223754E0,3.2726997E1,1.6888742E1,1.1050808E1,3.3093478E2,3.82629E1,1.5546156E2,1.2007212E2,6.124407E2,5.1115317E0,1.0379136E0,3.443322E1,1.9992315E0,2.2172654E0,4.8117337E2,1.3154243E2,4.061766E1,1.5562506E0,1.5095149E1,1.9387898E0,1.4324417E1,7.572132E0,6.668523E0,1.5552313E0,2.7727072E0,2.995429E1,8.056324E0,8.832419E0,4.115952E0,6.9348555E0,2.630638E2,6.787096E1,6.2942576E0,3.1968643E1,1.0061962E2,5.4841946E1,7.9768543E0,1.1209527E2,3.630439E0,1.4810927E0,2.6963703E1,7.4695153E0,4.2330176E2,5.7871628E1,1.9325632E1,1.1221681E2,2.374861E1,1.6869051E1,1.20114765E1,3.083672E0,2.3872094E0,1.1937208E1,6.4971204E0,1.0750115E0,1.5235493E0,5.1449738E0,1.0378513E0,1.7348559E0,2.8713404E1,1.2408862E0,5.8043337E0,2.2519898E0,6.345899E0,2.48652E0,2.9738414E0,1.1421106E0,5.1996107E0,1.7352448E0,1.7505812E2,8.80057E1,4.5457993E1,2.2412964E1,4.938295E0,1.3559626E0,2.8802008E1,3.166637E0,7.72457E1,2.3373924E1,1.2025297E1,4.281665E1,3.7787433E0,4.198111E0,1.09006294E2,3.088972E0],"tree_param":{"num_deleted":"0","num_feature":"11","num_nodes":"107","size_leaf_vector":"1"}},{"base_weights":[-7.598587E-1,-9.219165E-1,-3.0325916E-1,-1.022385E0,-7.71429E-1,-4.7630855E-1,-1.6614081E-1,-3.0937865E-1,-8.6965746E-1,-8.06102E-1,-2.3246644E-1,-5.507734E-1,-1.11013E-1,-2.194557E-1,2.5369906E-1,-9.873789E-1,-6.822562E-1,-8.338084E-1,-3.7015343E-1,-4.017231E-1,8.184059E-1,-1.3630399E-1,-5.9668106E-1,-3.9825618E-1,2.041071E-1,-1.9025628E-1,-6.281887E-1,3.8460413E-1,-6.298793E-1,-1.0086088E0,-5.365346E-2,-4.74998E-1,-7.782265E-1,-8.691262E-1,-6.435186E-1,-6.8622816E-1,-8.4969334E-2,-6.9436985E-1,-1.4278685E-1,1.3688015E0,-6.7861035E-2,-3.9799654E-1,4.6971476E-1,-6.5137327E-1,-3.7682715E-1,2.6413068E-1,-6.037621E-1,-6.387826E-2,9.255E-1,-2.3846577E-1,-4.4531992E-4,-1.947145E-1,-3.0077368E-1,9.6141493E-1,1.7127001E-1,-2.5901598E-1,-2.9043255E-2,-9.27469E-2,-3.0957383E-1,-1.9500796E-1,9.1719925E-2,-2.5302398E-1,-1.269522E-1,-2.725684E-1,-2.3786499E-1,3.8164392E-2,-2.0078938E-1,-2.8742725E-1,-1.3175724E-1,-1.0939688E-1,1.1205946E-1,-2.4194215E-1,-3.9404053E-2,4.243766E-2,-2.1095972E-1,4.6992135E-1,1.1130004E-1,2.2835311E-1,-2.1885121E-1,1.1221961E-1,-2.2831939E-1,2.740607E-1,-1.4205673E-1,-2.087522E-1,-1.08399324E-1,-1.8289338E-1,2.0502446E-2,2.5479877E-1,-2.3256688E-1,3.518313E-2,-2.0000547E-1,1.1473982E-1,-1.3746826E-1,5.5912524E-1,-3.2672097E-3,-8.236634E-2,-5.4930383E-3,-1.3008943E-1,3.7938662E-2,-1.5927434E-1,1.022447E-1,2.1328233E-2,4.063322E-1,-2.3941074E-1,1.0664724E-1],"categories":[],"categories_nodes":[],"categories_segments":[],"categories_sizes":[],"default_left":[0,0,0,0,0,0,0,0,0,0,0,1,0,0,0,0,1,0,0,0,0,0,0,1,0,0,0,0,0,0,0,0,0,0,0,0,0,0,0,0,0,0,0,0,0,0,0,0,0,0,0,0,0,0,0,0,0,0,0,0,0,0,0,0,0,0,0,0,0,0,0,0,0,0,0,0,0,0,0,0,0,0,0,0,0,0,0,0,0,0,0,0,0,0,0,0,0,0,0,0,0,0,0,0,0],"id":3,"left_children":[1,3,5,7,9,11,13,-1,15,17,19,21,23,25,27,29,31,33,35,37,39,41,43,45,47,49,51,53,55,57,-1,59,61,63,65,67,69,71,73,75,77,79,81,83,85,87,89,91,93,95,97,99,-1,101,103,-1,-1,-1,-1,-1,-1,-1,-1,-1,-1,-1,-1,-1,-1,-1,-1,-1,-1,-1,-1,-1,-1,-1,-1,-1,-1,-1,-1,-1,-1,-1,-1,-1,-1,-1,-1,-1,-1,-1,-1,-1,-1,-1,-1,-1,-1,-1,-1,-1,-1],"loss_changes":[1.8331396E2,2.6890259E1,1.5378117E1,5.8740234E-1,1.3585114E1,7.7578735E0,8.225322E0,0E0,7.9376984E-1,8.050171E0,8.502123E0,4.457077E0,4.600381E0,3.7520227E0,5.0527325E0,4.8248672E-1,2.0516396E-1,3.8082886E0,3.831399E0,2.9507418E0,3.3629456E0,4.1645126E0,2.333023E0,3.7609215E0,4.789498E0,2.7835073E0,3.244421E0,4.36913E0,6.3161254E-1,2.9081726E-1,0E0,1.7993E0,6.400299E-2,9.1915894E-1,2.183075E0,9.4432926E-1,3.1915615E0,1.0702829E0,3.7015924E0,2.4356413E-1,2.4866502E0,5.3465366E0,3.7911334E0,1.9456329E0,4.7150326E0,4.891903E0,1.0081158E0,3.4802248E0,5.899901E0,1.9223204E0,3.4970722E0,2.1728332E0,0E0,3.3087368E0,5.3037586E0,0E0,0E0,0E0,0E0,0E0,0E0,0E0,0E0,0E0,0E0,0E0,0E0,0E0,0E0,0E0,0E0,0E0,0E0,0E0,0E0,0E0,0E0,0E0,0E0,0E0,0E0,0E0,0E0,0E0,0E0,0E0,0E0,0E0,0E0,0E0,0E0,0E0,0E0,0E0,0E0,0E0,0E0,0E0,0E0,0E0,0E0,0E0,0E0,0E0,0E0],"parents":[2147483647,0,0,1,1,2,2,3,3,4,4,5,5,6,6,8,8,9,9,10,10,11,11,12,12,13,13,14,14,15,15,16,16,17,17,18,18,19,19,20,20,21,21,22,22,23,23,24,24,25,25,26,26,27,27,28,28,29,29,31,31,32,32,33,33,34,34,35,35,36,36,37,37,38,38,39,39,40,40,41,41,42,42,43,43,44,44,45,45,46,46,47,47,48,48,49,49,50,50,51,51,53,53,54,54],"right_children":[2,4,6,8,10,12,14,-1,16,18,20,22,24,26,28,30,32,34,36,38,40,42,44,46,48,50,52,54,56,58,-1,60,62,64,66,68,70,72,74,76,78,80,82,84,86,88,90,92,94,96,98,100,-1,102,104,-1,-1,-1,-1,-1,-1,-1,-1,-1,-1,-1,-1,-1,-1,-1,-1,-1,-1,-1,-1,-1,-1,-1,-1,-1,-1,-1,-1,-1,-1,-1,-1,-1,-1,-1,-1,-1,-1,-1,-1,-1,-1,-1,-1,-1,-1,-1,-1,-1,-1],"split_conditions":[6.5E1,4.5E1,7.4E1,4.34E1,9.76E1,1E0,4.46E1,-3.0937865E-1,3.5E1,1E0,6.17E4,1.55E1,1.3053E2,3.71E1,2E0,6.9527E4,4.46E1,1.6089E2,1.0271E2,1.9195E4,1E0,4.1131E4,1E0,2.34E1,2E0,1E0,1E0,8.303E1,1.1874E2,6.087E1,-5.365346E-2,5.6808E4,4.3E1,5.7E1,4.6E1,2.88E1,6.1E1,3E0,1E0,6E1,9.159E1,0E0,1E0,2.0364E2,3E0,9.361E1,1E0,1E0,2.0144E2,3.26E1,1.7759E4,1.9498E2,-3.0077368E-1,1.49E4,9.311E1,-2.5901598E-1,-2.9043255E-2,-9.27469E-2,-3.0957383E-1,-1.9500796E-1,9.1719925E-2,-2.5302398E-1,-1.269522E-1,-2.725684E-1,-2.3786499E-1,3.8164392E-2,-2.0078938E-1,-2.8742725E-1,-1.3175724E-1,-1.0939688E-1,1.1205946E-1,-2.4194215E-1,-3.9404053E-2,4.243766E-2,-2.1095972E-1,4.6992135E-1,1.1130004E-1,2.2835311E-1,-2.1885121E-1,1.1221961E-1,-2.2831939E-1,2.740607E-1,-1.4205673E-1,-2.087522E-1,-1.08399324E-1,-1.8289338E-1,2.0502446E-2,2.5479877E-1,-2.3256688E-1,3.518313E-2,-2.0000547E-1,1.1473982E-1,-1.3746826E-1,5.5912524E-1,-3.2672097E-3,-8.236634E-2,-5.4930383E-3,-1.3008943E-1,3.7938662E-2,-1.5927434E-1,1.022447E-1,2.1328233E-2,4.063322E-1,-2.3941074E-1,1.0664724E-1],"split_indices":[2,2,2,9,9,4,9,0,2,4,0,9,8,9,10,0,9,8,8,0,10,0,3,9,10,4,7,8,8,8,0,0,2,2,2,9,2,6,3,2,8,10,3,8,6,8,5,7,8,9,0,8,0,0,8,0,0,0,0,0,0,0,0,0,0,0,0,0,0,0,0,0,0,0,0,0,0,0,0,0,0,0,0,0,0,0,0,0,0,0,0,0,0,0,0,0,0,0,0,0,0,0,0,0,0],"split_type":[0,0,0,0,0,0,0,0,0,0,0,0,0,0,0,0,0,0,0,0,0,0,0,0,0,0,0,0,0,0,0,0,0,0,0,0,0,0,0,0,0,0,0,0,0,0,0,0,0,0,0,0,0,0,0,0,0,0,0,0,0,0,0,0,0,0,0,0,0,0,0,0,0,0,0,0,0,0,0,0,0,0,0,0,0,0,0,0,0,0,0,0,0,0,0,0,0,0,0,0,0,0,0,0,0],"sum_hessian":[2.4801443E3,1.8297166E3,6.504278E2,1.0937274E3,7.3598914E2,2.864463E2,3.6398154E2,1.0282113E3,6.551612E1,6.910371E2,4.4952E1,2.3752045E2,4.8925858E1,3.2339172E2,4.058979E1,3.7617085E1,2.7899038E1,6.48885E2,4.2152096E1,3.924828E1,5.703721E0,2.408073E1,2.1343971E2,2.5457039E1,2.3468819E1,3.0319714E2,2.019459E1,3.584409E1,4.7457E0,3.641351E1,1.203575E0,1.0712865E1,1.7186174E1,5.4429626E2,1.0458877E2,1.9326225E1,2.282587E1,1.7635366E1,2.1612913E1,3.1827137E0,2.5210075E0,1.7057974E1,7.0227566E0,1.693487E2,4.4091015E1,5.9603534E0,1.9496685E1,1.7776571E1,5.6922474E0,2.4158212E2,6.161502E1,1.0063273E1,1.0131316E1,8.730912E0,2.7113178E1,2.8692076E0,1.8764924E0,1.6340731E0,3.4779434E1,8.88777E0,1.8250954E0,1.3358186E1,3.827988E0,3.515483E2,1.9274794E2,3.2576778E0,1.01331085E2,7.830501E0,1.1495724E1,1.4304661E1,8.521211E0,1.4346437E1,3.288929E0,1.4835702E1,6.77721E0,2.1809464E0,1.0017674E0,1.0521853E0,1.4688221E0,5.4462557E0,1.1611717E1,4.7970786E0,2.225678E0,1.4562355E2,2.3725142E1,2.8707758E1,1.5383256E1,3.9302762E0,2.030077E0,1.4955206E0,1.8001165E1,8.352699E0,9.423872E0,2.3486128E0,3.3436346E0,2.0734612E2,3.4236015E1,1.3413268E1,4.820175E1,6.187468E0,3.8758056E0,3.0354948E0,5.6954174E0,3.797914E0,2.3315264E1],"tree_param":{"num_deleted":"0","num_feature":"11","num_nodes":"105","size_leaf_vector":"1"}},{"base_weights":[-6.8377167E-1,-9.306073E-1,-3.3586428E-1,-9.9758416E-1,-7.734829E-1,-4.8278522E-1,-1.2705733E-1,-3.0847022E-1,-9.201726E-1,-8.040628E-1,-3.080318E-1,-5.503569E-1,-1.00952655E-1,8.098263E-2,-1.913934E-1,-9.497834E-1,-6.4205736E-1,-8.5674304E-1,-4.9619406E-1,1.12169705E-1,-7.2148156E-1,-5.973993E-1,-6.1740436E-2,-3.31308E-1,7.875458E-2,-2.2254974E-1,2.1028283E-1,-1.773884E-1,-2.6537448E-1,-9.5373535E-1,-6.059664E-2,-4.5751366E-1,-7.330857E-1,-8.6264426E-1,3.50946E-2,-6.2447494E-1,-8.1420474E-2,-6.583236E-1,5.6307817E-1,-8.180647E-1,2.3443598E-2,-6.494517E-1,-4.1156927E-1,-3.2817945E-1,5.5568004E-1,-2.7322444E-1,-1.8616568E-1,-1.188413E-1,5.75213E-1,-4.343095E-1,2.511037E-1,6.3411075E-1,1.202393E-1,-2.2502273E-1,-2.110598E-3,-2.8729746E-1,-8.957272E-2,-1.8925083E-1,5.6281697E-2,-2.4154148E-1,-1.0762329E-1,-2.2177601E-1,-2.6933888E-1,-3.706542E-2,-2.2253746E-1,-1.3759916E-1,2.5275248E-1,-2.3991491E-1,-1.35192005E-2,4.3725199E-1,1.5471245E-2,-2.3662206E-2,-2.6777768E-1,-2.1757343E-1,-1.6070738E-1,2.0814803E-1,-1.3766639E-1,4.848091E-2,-1.6134931E-1,3.1783456E-1,-1.8230227E-1,2.1430503E-1,-8.27433E-2,2.1494534E-2,-1.4507541E-1,3.127424E-1,-3.912497E-2,-2.4122936E-1,-5.869105E-2,2.818343E-1,-4.1734934E-2,2.6912197E-1,-6.0059973E-3,-9.860358E-2,8.583945E-2,-7.340846E-2,9.042455E-2,-1.8327868E-1,4.5952037E-2],"categories":[],"categories_nodes":[],"categories_segments":[],"categories_sizes":[],"default_left":[0,0,0,0,0,0,1,0,0,0,0,0,0,0,0,0,1,0,0,0,0,0,0,0,0,0,0,0,0,0,0,0,0,0,0,0,0,0,0,0,0,0,0,0,0,0,0,0,0,0,0,0,0,0,0,0,0,0,0,0,0,0,0,0,0,0,0,0,0,0,0,0,0,0,0,0,0,0,0,0,0,0,0,0,0,0,0,0,0,0,0,0,0,0,0,0,0,0,0],"id":4,"left_children":[1,3,5,7,9,11,13,-1,15,17,19,21,23,25,27,29,31,33,35,37,39,41,43,45,47,49,51,53,-1,55,-1,57,59,61,-1,63,65,67,69,71,-1,73,75,77,79,-1,81,83,85,87,89,91,93,95,97,-1,-1,-1,-1,-1,-1,-1,-1,-1,-1,-1,-1,-1,-1,-1,-1,-1,-1,-1,-1,-1,-1,-1,-1,-1,-1,-1,-1,-1,-1,-1,-1,-1,-1,-1,-1,-1,-1,-1,-1,-1,-1,-1,-1],"loss_changes":[1.7413208E2,1.1727539E1,2.585051E1,1.0214233E0,4.868164E0,1.2727089E1,4.702801E0,0E0,1.4056091E0,5.0348053E0,4.2121315E0,9.633537E0,3.160509E0,3.3208475E0,2.4427433E0,4.5483398E-1,1.12047195E-1,1.7447662E0,2.6927328E0,4.768607E0,9.999933E-1,3.4437256E0,6.443924E0,2.6372879E0,4.3201694E0,2.65735E0,2.175963E0,2.2014723E0,0E0,2.735138E-1,0E0,1.3995812E0,1.4749146E-1,5.701904E-1,0E0,2.2139635E0,5.0326724E0,4.0915656E-1,3.824832E0,5.3015804E-1,0E0,2.1806793E0,4.852213E0,2.881726E0,7.585927E0,0E0,2.4530327E0,2.2463098E0,4.2609124E0,1.4245865E0,2.4092863E0,1.7564926E0,3.8108287E0,2.2212467E0,5.516969E0,0E0,0E0,0E0,0E0,0E0,0E0,0E0,0E0,0E0,0E0,0E0,0E0,0E0,0E0,0E0,0E0,0E0,0E0,0E0,0E0,0E0,0E0,0E0,0E0,0E0,0E0,0E0,0E0,0E0,0E0,0E0,0E0,0E0,0E0,0E0,0E0,0E0,0E0,0E0,0E0,0E0,0E0,0E0,0E0],"parents":[2147483647,0,0,1,1,2,2,3,3,4,4,5,5,6,6,8,8,9,9,10,10,11,11,12,12,13,13,14,14,15,15,16,16,17,17,18,18,19,19,20,20,21,21,22,22,23,23,24,24,25,25,26,26,27,27,29,29,31,31,32,32,33,33,35,35,36,36,37,37,38,38,39,39,41,41,42,42,43,43,44,44,46,46,47,47,48,48,49,49,50,50,51,51,52,52,53,53,54,54],"right_children":[2,4,6,8,10,12,14,-1,16,18,20,22,24,26,28,30,32,34,36,38,40,42,44,46,48,50,52,54,-1,56,-1,58,60,62,-1,64,66,68,70,72,-1,74,76,78,80,-1,82,84,86,88,90,92,94,96,98,-1,-1,-1,-1,-1,-1,-1,-1,-1,-1,-1,-1,-1,-1,-1,-1,-1,-1,-1,-1,-1,-1,-1,-1,-1,-1,-1,-1,-1,-1,-1,-1,-1,-1,-1,-1,-1,-1,-1,-1,-1,-1,-1,-1],"split_conditions":[5.7E1,4.5E1,7.4E1,3.4E1,9.76E1,1E0,2.27E1,-3.0847022E-1,4.34E1,1.6089E2,5.2E1,9.76E1,1.1103E2,2.13E1,7.1793E4,2.3688E2,4.46E1,7.2652E4,2E0,1.5759E4,6.0556E4,1.708E2,4.2291E4,1.2071E4,2E0,8.1E1,7.613E1,1.971E2,-2.6537448E-1,1E0,-6.059664E-2,2E0,4.3E1,7.507E1,3.50946E-2,1.8624E2,3.79E1,1.7945E2,0E0,1.656E3,2.3443598E-2,6.6E1,2.498E3,0E0,1E0,-2.7322444E-1,1.6608E4,5.0222E4,2.0144E2,1.93E1,1.81E1,1E0,9.185E1,6.9817E4,2.61E1,-2.8729746E-1,-8.957272E-2,-1.8925083E-1,5.6281697E-2,-2.4154148E-1,-1.0762329E-1,-2.2177601E-1,-2.6933888E-1,-3.706542E-2,-2.2253746E-1,-1.3759916E-1,2.5275248E-1,-2.3991491E-1,-1.35192005E-2,4.3725199E-1,1.5471245E-2,-2.3662206E-2,-2.6777768E-1,-2.1757343E-1,-1.6070738E-1,2.0814803E-1,-1.3766639E-1,4.848091E-2,-1.6134931E-1,3.1783456E-1,-1.8230227E-1,2.1430503E-1,-8.27433E-2,2.1494534E-2,-1.4507541E-1,3.127424E-1,-3.912497E-2,-2.4122936E-1,-5.869105E-2,2.818343E-1,-4.1734934E-2,2.6912197E-1,-6.0059973E-3,-9.860358E-2,8.583945E-2,-7.340846E-2,9.042455E-2,-1.8327868E-1,4.5952037E-2],"split_indices":[2,2,2,2,9,4,9,0,9,8,2,9,8,9,0,8,9,0,10,0,0,8,0,0,10,2,8,8,0,4,0,10,2,8,0,8,9,8,10,0,0,2,0,10,3,0,0,0,8,9,9,4,8,0,9,0,0,0,0,0,0,0,0,0,0,0,0,0,0,0,0,0,0,0,0,0,0,0,0,0,0,0,0,0,0,0,0,0,0,0,0,0,0,0,0,0,0,0,0],"split_type":[0,0,0,0,0,0,0,0,0,0,0,0,0,0,0,0,0,0,0,0,0,0,0,0,0,0,0,0,0,0,0,0,0,0,0,0,0,0,0,0,0,0,0,0,0,0,0,0,0,0,0,0,0,0,0,0,0,0,0,0,0,0,0,0,0,0,0,0,0,0,0,0,0,0,0,0,0,0,0,0,0,0,0,0,0,0,0,0,0,0,0,0,0,0,0,0,0,0,0],"sum_hessian":[2.030355E3,1.186719E3,8.43636E2,8.282955E2,3.5842355E2,4.944315E2,3.4920447E2,5.845643E2,2.4373116E2,3.356444E2,2.2779146E1,4.197146E2,7.471691E1,8.242207E1,2.6678238E2,2.1809552E2,2.5635628E1,2.8508066E2,5.0563725E1,1.1658727E1,1.11204195E1,3.8265152E2,3.7063072E1,3.2374493E1,4.234242E1,2.440653E1,5.8015545E1,2.6273016E2,4.052231E0,2.1667503E2,1.4204888E0,1.0458646E1,1.5176983E1,2.8347675E2,1.603928E0,3.823336E1,1.2330364E1,4.134269E0,7.5244575E0,9.901417E0,1.2190025E0,2.9697247E2,8.5679054E1,2.6217674E1,1.0845397E1,5.428373E0,2.6946121E1,3.083169E1,1.1510727E1,1.6923487E1,7.483044E0,9.107058E0,4.890849E1,2.063639E2,5.6366245E1,2.1492642E2,1.7486055E0,8.261257E0,2.1973886E0,1.1762203E1,3.4147794E0,6.773663E1,2.1574011E2,7.6447244E0,3.0588638E1,9.113047E0,3.2173173E0,3.1125898E0,1.0216794E0,2.0646863E0,5.459771E0,1.0953795E0,8.806037E0,1.7500194E2,1.21970535E2,2.9562485E0,8.27228E1,7.927303E0,1.829037E1,7.630479E0,3.2149184E0,1.8086847E0,2.5137436E1,2.078181E1,1.0049879E1,6.6378407E0,4.8728867E0,5.7090735E0,1.1214413E1,2.1981142E0,5.28493E0,6.2308435E0,2.8762143E0,1.2932042E1,3.5976444E1,1.9944612E2,6.9177847E0,1.0858668E1,4.550758E1],"tree_param":{"num_deleted":"0","num_feature":"11","num_nodes":"99","size_leaf_vector":"1"}},{"base_weights":[-6.0478306E-1,-8.967673E-1,-2.7647287E-1,-9.7340244E-1,-7.1325725E-1,-4.5073494E-1,-1.2872945E-1,-3.0408072E-1,-8.754458E-1,-7.509545E-1,-2.3618068E-1,-5.3916717E-1,-2.2191569E-1,-2.0834254E-1,-1.2861884E-2,-9.121839E-1,-5.6555176E-1,-7.955832E-1,-3.8615236E-1,7.721364E-2,-6.389311E-1,-6.320753E-1,-4.0658832E-1,6.0006815E-1,-2.6863548E-1,-1.0368177E-1,-3.1913197E-1,3.3776355E-1,-5.554567E-2,-9.170971E-1,-5.1850777E-2,-3.8176972E-1,-6.6375303E-1,-8.443526E-1,-6.06731E-1,-8.456661E-1,1.2911823E-1,-5.967885E-1,3.9928165E-1,-7.617497E-1,-3.354958E-2,-6.016008E-2,-6.722681E-1,-2.5148836E-1,-6.2104946E-1,4.1880777E-1,-2.3884822E-1,-1.9869976E-1,-7.421731E-1,-2.879552E-1,4.5368608E-2,-5.100592E-1,-1.3366199E-1,9.7989976E-1,1.0276636E-1,-6.681395E-1,-1.7183589E-2,-2.7659005E-1,-7.7059805E-2,-1.6854525E-1,8.09332E-2,-2.2280495E-1,-9.035483E-2,-2.2918738E-1,-2.7998227E-1,-2.3754185E-1,-9.662154E-2,-1.03843E-1,-2.6759988E-1,4.5639712E-1,-7.039125E-2,-2.2398078E-1,-1.1550195E-2,-7.956639E-3,3.6254305E-1,-9.178423E-2,-2.7675593E-1,-1.4836703E-1,3.885206E-1,-2.1525556E-1,-1.2272186E-1,6.8194475E-3,-1.5183458E-1,-2.0507826E-1,1.01289526E-1,-1.9941247E-1,1.304237E-1,2.122163E-1,-7.142525E-2,-2.500471E-1,-1.18110485E-1,3.1615827E-2,-1.3586664E-1,1.4446673E-1,-1.8124342E-2,-7.243864E-2,-2.2715229E-1,-9.670914E-2,3.9436776E-2,-1.7353594E-2,4.992083E-1,-1.9598E-1,9.965469E-2,1.0443765E-1,-2.5507313E-1,5.7002578E-2,-3.1819895E-2],"categories":[],"categories_nodes":[],"categories_segments":[],"categories_sizes":[],"default_left":[0,0,0,0,0,0,0,0,0,0,0,0,0,1,1,0,1,0,0,0,0,0,0,0,1,0,0,0,0,0,0,0,0,0,0,0,0,0,0,0,0,0,0,0,0,0,0,0,0,0,0,0,0,0,0,0,0,0,0,0,0,0,0,0,0,0,0,0,0,0,0,0,0,0,0,0,0,0,0,0,0,0,0,0,0,0,0,0,0,0,0,0,0,0,0,0,0,0,0,0,0,0,0,0,0,0,0],"id":5,"left_children":[1,3,5,7,9,11,13,-1,15,17,19,21,23,25,27,29,31,33,35,37,39,41,43,45,47,49,51,53,55,57,-1,59,61,63,65,67,69,71,73,75,-1,77,79,81,83,-1,85,87,89,91,93,95,97,99,101,103,105,-1,-1,-1,-1,-1,-1,-1,-1,-1,-1,-1,-1,-1,-1,-1,-1,-1,-1,-1,-1,-1,-1,-1,-1,-1,-1,-1,-1,-1,-1,-1,-1,-1,-1,-1,-1,-1,-1,-1,-1,-1,-1,-1,-1,-1,-1,-1,-1,-1,-1],"loss_changes":[1.619289E2,1.1892151E1,2.0482208E1,1.5879517E0,4.631531E0,7.279251E0,3.9929552E0,0E0,1.6499939E0,3.719818E0,2.7050033E0,2.9828796E0,4.1405954E0,2.9431553E0,2.6748497E0,4.5336914E-1,1.579833E-1,1.5088501E0,6.953116E0,3.0005238E0,5.178571E-1,3.4730453E0,3.5419502E0,4.261197E0,3.1225266E0,3.6789603E0,4.3301306E0,2.8270066E0,3.7267933E0,3.004303E-1,0E0,1.3589216E0,1.6272163E-1,5.155792E-1,2.3049965E0,4.7935486E-2,7.696705E0,3.4891105E-1,3.205277E0,2.5876427E-1,0E0,7.195576E0,1.4061584E0,4.6337757E0,2.9877758E0,0E0,1.3554254E0,3.2873342E0,6.4548016E-2,3.9285088E0,3.473583E0,3.855896E0,3.2621288E0,3.7033868E0,2.8743336E0,2.0260053E0,2.7958739E0,0E0,0E0,0E0,0E0,0E0,0E0,0E0,0E0,0E0,0E0,0E0,0E0,0E0,0E0,0E0,0E0,0E0,0E0,0E0,0E0,0E0,0E0,0E0,0E0,0E0,0E0,0E0,0E0,0E0,0E0,0E0,0E0,0E0,0E0,0E0,0E0,0E0,0E0,0E0,0E0,0E0,0E0,0E0,0E0,0E0,0E0,0E0,0E0,0E0,0E0],"parents":[2147483647,0,0,1,1,2,2,3,3,4,4,5,5,6,6,8,8,9,9,10,10,11,11,12,12,13,13,14,14,15,15,16,16,17,17,18,18,19,19,20,20,21,21,22,22,23,23,24,24,25,25,26,26,27,27,28,28,29,29,31,31,32,32,33,33,34,34,35,35,36,36,37,37,38,38,39,39,41,41,42,42,43,43,44,44,46,46,47,47,48,48,49,49,50,50,51,51,52,52,53,53,54,54,55,55,56,56],"right_children":[2,4,6,8,10,12,14,-1,16,18,20,22,24,26,28,30,32,34,36,38,40,42,44,46,48,50,52,54,56,58,-1,60,62,64,66,68,70,72,74,76,-1,78,80,82,84,-1,86,88,90,92,94,96,98,100,102,104,106,-1,-1,-1,-1,-1,-1,-1,-1,-1,-1,-1,-1,-1,-1,-1,-1,-1,-1,-1,-1,-1,-1,-1,-1,-1,-1,-1,-1,-1,-1,-1,-1,-1,-1,-1,-1,-1,-1,-1,-1,-1,-1,-1,-1,-1,-1,-1,-1,-1,-1],"split_conditions":[5.6E1,4.5E1,7E1,3.4E1,9.76E1,1.708E2,7.9E1,-3.0408072E-1,4.34E1,1E0,5.2E1,1E0,2.46E1,2.81E1,1.81E1,2.3688E2,4.46E1,2E0,1E0,1.5759E4,3E0,1E0,4.3744E4,2.7775E4,4.25E1,2.58E1,1.0517E2,8.21E1,2.06E1,1E0,-5.1850777E-2,5.6808E4,4.3E1,3.09E1,3.11E1,7.347E1,1.4047E4,1.7945E2,5.1E1,9.159E1,-3.354958E-2,6.8E1,6.114E4,1E0,9.76E1,4.1880777E-1,5.5066E4,2.498E3,1E0,8.126E1,2.67E1,7.5E1,7.6E1,8.1E1,9.311E1,1.2629E4,8E1,-2.7659005E-1,-7.7059805E-2,-1.6854525E-1,8.09332E-2,-2.2280495E-1,-9.035483E-2,-2.2918738E-1,-2.7998227E-1,-2.3754185E-1,-9.662154E-2,-1.03843E-1,-2.6759988E-1,4.5639712E-1,-7.039125E-2,-2.2398078E-1,-1.1550195E-2,-7.956639E-3,3.6254305E-1,-9.178423E-2,-2.7675593E-1,-1.4836703E-1,3.885206E-1,-2.1525556E-1,-1.2272186E-1,6.8194475E-3,-1.5183458E-1,-2.0507826E-1,1.01289526E-1,-1.9941247E-1,1.304237E-1,2.122163E-1,-7.142525E-2,-2.500471E-1,-1.18110485E-1,3.1615827E-2,-1.3586664E-1,1.4446673E-1,-1.8124342E-2,-7.243864E-2,-2.2715229E-1,-9.670914E-2,3.9436776E-2,-1.7353594E-2,4.992083E-1,-1.9598E-1,9.965469E-2,1.0443765E-1,-2.5507313E-1,5.7002578E-2,-3.1819895E-2],"split_indices":[2,2,2,2,9,8,2,0,9,3,2,1,9,9,9,8,9,10,7,0,6,5,0,0,9,9,8,8,9,4,0,0,2,9,9,8,0,8,2,8,0,2,0,10,9,0,0,0,1,8,9,2,2,2,8,0,2,0,0,0,0,0,0,0,0,0,0,0,0,0,0,0,0,0,0,0,0,0,0,0,0,0,0,0,0,0,0,0,0,0,0,0,0,0,0,0,0,0,0,0,0,0,0,0,0,0,0],"split_type":[0,0,0,0,0,0,0,0,0,0,0,0,0,0,0,0,0,0,0,0,0,0,0,0,0,0,0,0,0,0,0,0,0,0,0,0,0,0,0,0,0,0,0,0,0,0,0,0,0,0,0,0,0,0,0,0,0,0,0,0,0,0,0,0,0,0,0,0,0,0,0,0,0,0,0,0,0,0,0,0,0,0,0,0,0,0,0,0,0,0,0,0,0,0,0,0,0,0,0,0,0,0,0,0,0,0,0],"sum_hessian":[1.6907839E3,8.9398364E2,7.968003E2,6.2759235E2,2.663913E2,3.646491E2,4.3215118E2,4.3835184E2,1.8924051E2,2.4635124E2,2.0040054E1,2.6202682E2,1.02622284E2,2.556766E2,1.764746E2,1.6744617E2,2.1794338E1,2.1844635E2,2.7904888E1,1.1724833E1,8.315222E0,1.5184785E2,1.1017898E2,4.8821497E0,9.7740135E1,1.3247023E2,1.2320638E2,1.8401611E1,1.5807298E2,1.6610196E2,1.3442159E0,9.29205E0,1.2502287E1,1.708539E2,4.759245E1,1.4411571E1,1.3493319E1,3.5152874E0,8.209544E0,6.382801E0,1.9324206E0,1.013473E1,1.4171313E2,6.519913E1,4.4979855E1,2.1644516E0,2.717698E0,8.639958E1,1.1340554E1,5.8819183E1,7.365104E1,5.984767E1,6.3358707E1,4.080821E0,1.4320791E1,8.348078E0,1.497249E2,1.6449226E2,1.6096867E0,7.3881392E0,1.9039116E0,9.406209E0,3.0960777E0,9.476634E1,7.608756E1,2.7761398E1,1.9831049E1,1.9422971E0,1.2469273E1,2.1359835E0,1.1357335E1,2.5056105E0,1.009677E0,6.012796E0,2.1967487E0,2.421258E0,3.9615428E0,8.155645E0,1.9790853E0,1.1945021E2,2.2262915E1,3.183029E1,3.3368835E1,4.2494442E1,2.4854097E0,1.6731131E0,1.0445851E0,2.8925169E0,8.3507065E1,7.8829703E0,3.457584E0,1.7483873E1,4.1335308E1,1.3682046E1,5.9968994E1,2.9624744E1,3.0222929E1,3.6887516E1,2.6471191E1,1.9850975E0,2.0957236E0,2.9038205E0,1.141697E1,1.130035E0,7.218043E0,4.4606388E1,1.05118515E2],"tree_param":{"num_deleted":"0","num_feature":"11","num_nodes":"107","size_leaf_vector":"1"}},{"base_weights":[-5.24039E-1,-8.5158336E-1,-2.1633819E-1,-9.4799554E-1,-6.3904274E-1,-4.0680307E-1,-1.18489385E-1,-3.001617E-1,-8.256386E-1,-6.7919374E-1,-2.0046549E-1,-4.5940384E-1,7.3757105E-2,-1.6526157E-1,4.252409E-2,-8.8379675E-1,-5.486833E-1,-7.2898674E-1,-3.2035357E-1,1.0596398E-2,-7.398586E-1,-5.875969E-1,-3.2276514E-1,-5.000783E-1,3.6380738E-1,-3.1024122E-1,-9.135947E-2,1.6193557E-1,-1.9824195E-1,-8.9071053E-1,-1.3125174E-2,-2.7067944E-1,-6.4490217E-1,-2.597208E-1,-6.375763E-1,-7.910208E-1,9.681771E-2,3.7990847E-1,-3.6621958E-1,-2.602441E-1,-3.480794E-2,-4.1625357E-1,-6.879742E-1,-2.356367E-1,-5.9854156E-1,1.9541018E-2,-6.412418E-1,5.194976E-1,-2.0738745E-1,-1.8145375E-1,-4.3193227E-1,2.9355912E-2,-2.1824743E-1,-3.1968457E-1,2.8818184E-1,1.9087672E-1,-7.550195E-1,-2.6926666E-1,-4.157967E-2,-1.5341948E-1,1.6602686E-1,-2.1107203E-1,-4.4103473E-2,-2.0658542E-1,-9.012017E-2,-1.3156685E-1,-2.7342996E-1,3.640732E-1,-4.0423855E-2,-1.7578666E-1,1.9320664E-1,-2.3869084E-1,8.01502E-2,-1.9637115E-1,-4.37996E-2,-2.1727256E-1,-9.4382204E-2,-1.5104E-1,-3.661136E-2,-1.2529506E-1,-2.555967E-1,-2.5754204E-1,-2.40756E-3,2.4124162E-1,-8.108232E-2,-7.405802E-2,3.5776052E-1,-1.6974136E-1,-3.2457404E-2,-8.576249E-3,2.1858548E-1,-1.3958247E-1,-4.0653836E-2,8.5539065E-2,-2.1275635E-1,4.0989333E-1,5.7105687E-2,9.556156E-3,2.920799E-1,-2.7068985E-1,-7.813339E-2],"categories":[],"categories_nodes":[],"categories_segments":[],"categories_sizes":[],"default_left":[0,0,0,0,0,0,0,0,0,0,0,0,0,0,0,0,0,0,0,0,0,0,0,0,0,0,1,0,0,0,0,0,0,0,0,0,0,0,0,0,0,0,0,0,0,0,0,0,0,0,0,0,0,0,0,0,0,0,0,0,0,0,0,0,0,0,0,0,0,0,0,0,0,0,0,0,0,0,0,0,0,0,0,0,0,0,0,0,0,0,0,0,0,0,0,0,0,0,0,0,0],"id":6,"left_children":[1,3,5,7,9,11,13,-1,15,17,19,21,23,25,27,29,31,33,35,37,39,41,43,45,47,49,51,53,55,57,-1,59,61,-1,63,65,67,69,71,-1,-1,73,75,77,79,-1,81,83,-1,85,87,89,91,93,95,97,99,-1,-1,-1,-1,-1,-1,-1,-1,-1,-1,-1,-1,-1,-1,-1,-1,-1,-1,-1,-1,-1,-1,-1,-1,-1,-1,-1,-1,-1,-1,-1,-1,-1,-1,-1,-1,-1,-1,-1,-1,-1,-1,-1,-1],"loss_changes":[1.4494083E2,1.3679626E1,1.3813812E1,2.2438965E0,3.7487793E0,6.404461E0,3.7181096E0,0E0,1.9178925E0,3.3703308E0,2.2758715E0,3.7916946E0,4.4637547E0,4.0651503E0,3.2440395E0,6.675644E-1,5.8850193E-1,1.6522598E0,5.2525682E0,2.2690072E0,3.4655213E-1,1.7096367E0,2.5559235E0,7.6453066E-1,3.2612863E0,1.9367495E0,3.9043581E0,4.666342E0,8.266042E0,4.964981E-1,0E0,2.0799098E0,4.9449253E-1,0E0,1.6773338E0,1.3060522E-1,4.0078173E0,2.474339E0,2.4114952E0,0E0,0E0,2.8287215E0,7.42363E-1,2.5838437E0,8.4986305E-1,0E0,1.0028315E0,3.806604E0,0E0,6.063208E0,2.7726297E0,5.3405266E0,2.4750385E0,3.9946537E0,6.0822067E0,2.8149765E0,9.030361E-1,0E0,0E0,0E0,0E0,0E0,0E0,0E0,0E0,0E0,0E0,0E0,0E0,0E0,0E0,0E0,0E0,0E0,0E0,0E0,0E0,0E0,0E0,0E0,0E0,0E0,0E0,0E0,0E0,0E0,0E0,0E0,0E0,0E0,0E0,0E0,0E0,0E0,0E0,0E0,0E0,0E0,0E0,0E0,0E0],"parents":[2147483647,0,0,1,1,2,2,3,3,4,4,5,5,6,6,8,8,9,9,10,10,11,11,12,12,13,13,14,14,15,15,16,16,17,17,18,18,19,19,20,20,21,21,22,22,23,23,24,24,25,25,26,26,27,27,28,28,29,29,31,31,32,32,34,34,35,35,36,36,37,37,38,38,41,41,42,42,43,43,44,44,46,46,47,47,49,49,50,50,51,51,52,52,53,53,54,54,55,55,56,56],"right_children":[2,4,6,8,10,12,14,-1,16,18,20,22,24,26,28,30,32,34,36,38,40,42,44,46,48,50,52,54,56,58,-1,60,62,-1,64,66,68,70,72,-1,-1,74,76,78,80,-1,82,84,-1,86,88,90,92,94,96,98,100,-1,-1,-1,-1,-1,-1,-1,-1,-1,-1,-1,-1,-1,-1,-1,-1,-1,-1,-1,-1,-1,-1,-1,-1,-1,-1,-1,-1,-1,-1,-1,-1,-1,-1,-1,-1,-1,-1,-1,-1,-1,-1,-1,-1],"split_conditions":[5.6E1,4.5E1,6.7E1,3.4E1,9.76E1,9.76E1,1E0,-3.001617E-1,3.92E1,1E0,1.8911E2,1.009E2,2.2596E4,7.4E1,3.4E1,2.3688E2,8.25E1,1E0,1E0,1E0,2.3289E2,6E1,3.77E1,2.498E3,2.1739E2,3.6622E4,2.71E1,1.7463E4,4.0571E4,1E0,-1.3125174E-2,1E0,3E0,-2.597208E-1,1.654E2,3.1E1,5.284E3,6.712E3,9.968E1,-2.602441E-1,-3.480794E-2,5.8E1,1E0,2.72E1,4.8234E4,1.9541018E-2,1.971E2,2E0,-2.0738745E-1,3.5497E4,1.7945E2,2.1739E2,2.89E1,5.856E3,2.0896E4,2E0,7.9E1,-2.6926666E-1,-4.157967E-2,-1.5341948E-1,1.6602686E-1,-2.1107203E-1,-4.4103473E-2,-2.0658542E-1,-9.012017E-2,-1.3156685E-1,-2.7342996E-1,3.640732E-1,-4.0423855E-2,-1.7578666E-1,1.9320664E-1,-2.3869084E-1,8.01502E-2,-1.9637115E-1,-4.37996E-2,-2.1727256E-1,-9.4382204E-2,-1.5104E-1,-3.661136E-2,-1.2529506E-1,-2.555967E-1,-2.5754204E-1,-2.40756E-3,2.4124162E-1,-8.108232E-2,-7.405802E-2,3.5776052E-1,-1.6974136E-1,-3.2457404E-2,-8.576249E-3,2.1858548E-1,-1.3958247E-1,-4.0653836E-2,8.5539065E-2,-2.1275635E-1,4.0989333E-1,5.7105687E-2,9.556156E-3,2.920799E-1,-2.7068985E-1,-7.813339E-2],"split_indices":[2,2,2,2,9,9,4,0,9,3,8,8,0,2,9,8,8,10,7,1,8,2,9,0,8,0,9,0,0,4,0,3,6,0,8,9,0,0,8,0,0,2,4,9,0,0,8,10,0,0,8,8,9,0,0,10,2,0,0,0,0,0,0,0,0,0,0,0,0,0,0,0,0,0,0,0,0,0,0,0,0,0,0,0,0,0,0,0,0,0,0,0,0,0,0,0,0,0,0,0,0],"split_type":[0,0,0,0,0,0,0,0,0,0,0,0,0,0,0,0,0,0,0,0,0,0,0,0,0,0,0,0,0,0,0,0,0,0,0,0,0,0,0,0,0,0,0,0,0,0,0,0,0,0,0,0,0,0,0,0,0,0,0,0,0,0,0,0,0,0,0,0,0,0,0,0,0,0,0,0,0,0,0,0,0,0,0,0,0,0,0,0,0,0,0,0,0,0,0,0,0,0,0,0,0],"sum_hessian":[1.4389376E3,6.961382E2,7.427995E2,4.765199E2,2.1961827E2,2.5102205E2,4.9177744E2,3.2834335E2,1.4817657E2,2.0069623E2,1.8922045E1,2.2629631E2,2.4725744E1,3.8105878E2,1.10718666E2,1.2065001E2,2.7526562E1,1.7533507E2,2.536116E1,1.4304945E1,4.6171E0,1.1505372E2,1.1124259E2,8.058567E0,1.6667177E1,1.2757893E2,2.5347984E2,7.4230415E1,3.648826E1,1.19605316E2,1.0446924E0,8.057961E0,1.94686E1,6.6852875E1,1.0848219E2,1.1495444E1,1.3865717E1,7.220261E0,7.0846844E0,3.5087285E0,1.1083713E0,4.440375E1,7.064996E1,8.5944E1,2.5298592E1,1.7180617E0,6.340505E0,1.4966373E1,1.7008044E0,6.3192474E1,6.438646E1,1.3029337E2,1.2318647E2,1.5098504E1,5.913191E1,2.1864706E1,1.462355E1,1.1833496E2,1.2703513E0,6.530007E0,1.5279549E0,1.7046713E1,2.4218867E0,9.331397E1,1.5168214E1,4.1092334E0,7.3862114E0,1.6530055E0,1.2212711E1,1.288745E0,5.931516E0,4.0695176E0,3.0151668E0,2.2840464E1,2.1563288E1,6.353831E1,7.111655E0,2.45741E1,6.13699E1,1.6307455E1,8.991137E0,4.4560695E0,1.8844357E0,1.0988005E1,3.9783695E0,6.1104057E1,2.0884166E0,4.5021576E1,1.9364883E1,1.21208694E2,9.084674E0,2.9746445E1,9.3440025E1,6.0194917E0,9.079012E0,3.8405821E0,5.5291325E1,1.9037605E1,2.8271024E0,1.0632804E1,3.9907467E0],"tree_param":{"num_deleted":"0","num_feature":"11","num_nodes":"101","size_leaf_vector":"1"}},{"base_weights":[-4.4562685E-1,-8.21181E-1,-1.8283993E-1,-9.877884E-1,-6.651291E-1,-3.5463524E-1,-8.9105755E-2,-2.985474E-1,-5.530601E-1,-7.084104E-1,-1.462278E-1,-4.1780677E-1,-7.8831755E-2,-1.292544E-1,2.7358491E-2,1.3367914E-1,-2.4905755E-1,-7.4270064E-1,-3.9485145E-1,-6.135536E-1,7.511372E-2,-4.7051746E-1,6.088833E-2,1.3608555E-1,-4.3902063E-1,7.466305E-2,-1.6018595E-1,7.8351045E-1,-6.066287E-2,-2.7867264E-1,-7.068411E-1,-5.1001847E-1,2.4679148E-1,-2.5807983E-1,1.02435015E-1,4.970115E-1,-4.0510297E-1,-5.857329E-1,-3.4746194E-1,3.2692227E-1,-7.233609E-1,-6.774651E-1,3.0371806E-1,-7.0603234E-1,1.9527918E-1,-5.44573E-1,2.5259987E-1,-2.1984108E-1,6.698473E-2,-5.132075E-1,1.1095066E0,4.7122434E-2,-4.8107278E-1,-2.149492E-1,-5.3070486E-2,-1.8678033E-1,3.575587E-2,-1.9891994E-1,3.1563142E-1,2.7171972E-1,-1.4494912E-1,1.145009E-1,-1.7222235E-1,-2.0926462E-1,-1.23418234E-1,-5.121447E-2,-1.6061236E-1,-2.273304E-2,2.6140592E-1,-3.6103833E-2,-2.5546604E-1,-7.2851614E-3,-2.437505E-1,4.1208938E-2,2.4430473E-1,-2.7680561E-2,-2.457654E-1,-1.9810127E-1,1.9485219E-1,1.1330113E-1,-2.1980289E-1,9.883059E-2,-2.040375E-1,-7.208352E-2,9.545005E-2,-4.6541453E-3,2.0913269E-1,-2.0096049E-2,-2.0389417E-1,4.7782746E-1,-7.906464E-2,5.690279E-2,-5.674377E-2,-1.9296248E-1,7.0863456E-2],"categories":[],"categories_nodes":[],"categories_segments":[],"categories_sizes":[],"default_left":[0,0,0,0,0,0,0,0,0,0,0,0,0,1,0,0,0,0,0,0,0,0,0,0,0,0,0,0,0,0,0,0,0,0,0,0,0,0,0,0,0,0,1,0,0,0,0,0,0,0,0,1,0,0,0,0,0,0,0,0,0,0,0,0,0,0,0,0,0,0,0,0,0,0,0,0,0,0,0,0,0,0,0,0,0,0,0,0,0,0,0,0,0,0,0],"id":7,"left_children":[1,3,5,7,9,11,13,-1,15,17,19,21,23,25,27,-1,-1,29,31,33,35,37,39,41,43,45,47,49,51,-1,53,55,57,-1,-1,59,61,63,65,67,69,71,73,75,77,79,81,83,85,87,89,91,93,-1,-1,-1,-1,-1,-1,-1,-1,-1,-1,-1,-1,-1,-1,-1,-1,-1,-1,-1,-1,-1,-1,-1,-1,-1,-1,-1,-1,-1,-1,-1,-1,-1,-1,-1,-1,-1,-1,-1,-1,-1,-1],"loss_changes":[1.2333423E2,1.2727692E1,1.1843109E1,2.4069214E-1,5.9352417E0,4.496662E0,2.240659E0,0E0,2.132083E0,2.372429E0,2.3177102E0,5.3601685E0,3.9057002E0,2.2571893E0,8.265781E0,0E0,0E0,8.28125E-1,2.0896592E0,1.9824791E0,3.4011607E0,2.4966965E0,4.7939816E0,4.553399E0,3.3224452E0,5.3785367E0,4.207648E0,6.0422645E0,5.0765104E0,0E0,8.4872437E-1,1.6933441E0,4.154549E0,0E0,0E0,3.9856353E0,1.2742999E0,1.6020088E0,3.048934E0,3.7931004E0,3.4929824E-1,4.879732E-1,2.1921618E0,8.5872173E-1,2.8982193E0,2.173492E0,2.9209595E0,2.773425E0,3.395833E0,1.9841981E-1,7.4943094E0,3.0564134E0,2.8091235E0,0E0,0E0,0E0,0E0,0E0,0E0,0E0,0E0,0E0,0E0,0E0,0E0,0E0,0E0,0E0,0E0,0E0,0E0,0E0,0E0,0E0,0E0,0E0,0E0,0E0,0E0,0E0,0E0,0E0,0E0,0E0,0E0,0E0,0E0,0E0,0E0,0E0,0E0,0E0,0E0,0E0,0E0],"parents":[2147483647,0,0,1,1,2,2,3,3,4,4,5,5,6,6,8,8,9,9,10,10,11,11,12,12,13,13,14,14,17,17,18,18,19,19,20,20,21,21,22,22,23,23,24,24,25,25,26,26,27,27,28,28,30,30,31,31,32,32,35,35,36,36,37,37,38,38,39,39,40,40,41,41,42,42,43,43,44,44,45,45,46,46,47,47,48,48,49,49,50,50,51,51,52,52],"right_children":[2,4,6,8,10,12,14,-1,16,18,20,22,24,26,28,-1,-1,30,32,34,36,38,40,42,44,46,48,50,52,-1,54,56,58,-1,-1,60,62,64,66,68,70,72,74,76,78,80,82,84,86,88,90,92,94,-1,-1,-1,-1,-1,-1,-1,-1,-1,-1,-1,-1,-1,-1,-1,-1,-1,-1,-1,-1,-1,-1,-1,-1,-1,-1,-1,-1,-1,-1,-1,-1,-1,-1,-1,-1,-1,-1,-1,-1,-1,-1],"split_conditions":[5.4E1,3.4E1,6.7E1,1.9520001E2,9.76E1,2E0,1E0,-2.985474E-1,7.232E1,1E0,1.5759E4,9.76E1,6.2E1,1.81E1,1E0,1.3367914E-1,-2.4905755E-1,1.1224E4,6.255E4,3E0,1.0517E2,1.009E2,1E0,7.483E1,5.0222E4,6.712E3,1E0,1.5472E4,5.9106E4,-2.7867264E-1,5.09E1,2.078E2,1E0,-2.5807983E-1,1.02435015E-1,1E0,2.2329E4,1E0,1E0,3.9697E4,5.8E1,2.6654E4,3.55E1,2.6E1,2.83E1,6.892E1,6.8066E4,7.0383E4,2.2695E2,1E0,1.8316E2,2.95E1,8.1E1,-2.149492E-1,-5.3070486E-2,-1.8678033E-1,3.575587E-2,-1.9891994E-1,3.1563142E-1,2.7171972E-1,-1.4494912E-1,1.145009E-1,-1.7222235E-1,-2.0926462E-1,-1.23418234E-1,-5.121447E-2,-1.6061236E-1,-2.273304E-2,2.6140592E-1,-3.6103833E-2,-2.5546604E-1,-7.2851614E-3,-2.437505E-1,4.1208938E-2,2.4430473E-1,-2.7680561E-2,-2.457654E-1,-1.9810127E-1,1.9485219E-1,1.1330113E-1,-2.1980289E-1,9.883059E-2,-2.040375E-1,-7.208352E-2,9.545005E-2,-4.6541453E-3,2.0913269E-1,-2.0096049E-2,-2.0389417E-1,4.7782746E-1,-7.906464E-2,5.690279E-2,-5.674377E-2,-1.9296248E-1,7.0863456E-2],"split_indices":[2,2,2,9,9,10,3,0,8,3,0,9,2,9,5,0,0,0,0,6,8,8,3,8,0,0,4,0,0,0,9,8,7,0,0,3,0,1,10,0,2,0,9,9,9,8,0,0,8,10,8,9,2,0,0,0,0,0,0,0,0,0,0,0,0,0,0,0,0,0,0,0,0,0,0,0,0,0,0,0,0,0,0,0,0,0,0,0,0,0,0,0,0,0,0],"split_type":[0,0,0,0,0,0,0,0,0,0,0,0,0,0,0,0,0,0,0,0,0,0,0,0,0,0,0,0,0,0,0,0,0,0,0,0,0,0,0,0,0,0,0,0,0,0,0,0,0,0,0,0,0,0,0,0,0,0,0,0,0,0,0,0,0,0,0,0,0,0,0,0,0,0,0,0,0,0,0,0,0,0,0,0,0,0,0,0,0,0,0,0,0,0,0],"sum_hessian":[1.2502257E3,5.138078E2,7.364179E2,2.4592172E2,2.6788605E2,2.5897922E2,4.774387E2,2.4055464E2,5.367085E0,2.4692497E2,2.0961084E1,2.1029683E2,4.8682407E1,3.5496277E2,1.2247593E2,1.0338105E0,4.3332744E0,2.2134995E2,2.5575027E1,6.167487E0,1.4793598E1,1.8945265E2,2.0844168E1,3.0879454E1,1.7802954E1,4.65653E1,3.0839746E2,1.19466095E1,1.1052932E2,3.1722084E1,1.8962785E2,2.1857086E1,3.7179422E0,4.9801364E0,1.1873506E0,7.856362E0,6.937236E0,9.5901405E1,9.355125E1,1.5999828E1,4.8443403E0,4.7560616E0,2.6123392E1,1.2449278E1,5.353676E0,9.933911E0,3.6631386E1,2.4428134E2,6.411613E1,2.2846525E0,9.661957E0,8.868105E1,2.1848265E1,1.8588869E2,3.7391725E0,1.8548693E1,3.3083935E0,1.8285959E0,1.8893462E0,5.59801E0,2.2583518E0,1.0039266E0,5.9333096E0,5.6599216E1,3.9302193E1,4.9191303E1,4.4359943E1,9.691863E0,6.3079653E0,1.1891937E0,3.6551466E0,1.0169305E0,3.7391312E0,2.0661297E1,5.462095E0,2.2209706E0,1.0228308E1,1.6991943E0,3.6544814E0,1.5121713E0,8.421741E0,3.444103E1,2.190358E0,2.3587456E2,8.406781E0,5.755603E1,6.560101E0,1.0016698E0,1.2829828E0,7.02831E0,2.6336472E0,5.5432697E1,3.324836E1,1.7904411E1,3.9438534E0],"tree_param":{"num_deleted":"0","num_feature":"11","num_nodes":"95","size_leaf_vector":"1"}},{"base_weights":[-3.7182882E-1,-8.254877E-1,-1.6597591E-1,-9.7444683E-1,-6.4890754E-1,-3.3719277E-1,-7.744674E-2,-9.8411137E-1,-4.8591107E-1,-6.941841E-1,-2.164029E-1,-3.913216E-1,4.98751E-2,-5.6071304E-2,-3.3059412E-1,-9.893263E-1,-4.3930843E-1,1.334003E-1,-2.3806463E-1,-8.344235E-1,-5.51541E-1,3.4618193E-1,-3.7911478E-1,-4.29624E-1,-1.2467551E-2,-3.7786803E-1,3.4176552E-1,-5.847082E-1,-4.5245886E-2,-6.3826287E-1,4.2214386E-2,-2.984037E-1,-4.5676643E-1,-2.274179E-3,-1.8264472E-1,-7.9841234E-2,-8.574883E-1,-3.5147846E-1,-6.927968E-1,2.1728481E-1,-7.068357E-2,-1.0607265E-1,-7.266647E-1,-4.9610496E-1,-1.0527589E-1,-5.149667E-1,4.1547906E-1,-8.5855585E-1,4.5878474E-2,8.985541E-1,-2.5441904E-2,-8.502776E-1,1.7623235E-1,5.5149925E-1,-5.29819E-2,-8.5117245E-1,-1.3446584E-1,3.3974963E-1,-5.93241E-1,-3.2666337E-3,-1.874457E-1,-1.6728647E-1,1.4654918E-1,-2.6405358E-1,-7.760778E-2,1.0924998E-1,-1.4579698E-1,-2.3278509E-1,-4.216826E-2,-2.0465003E-1,4.829611E-2,-2.525606E-1,-7.608199E-2,-1.6984412E-1,-6.308594E-2,1.6893905E-1,-9.0822324E-2,-1.9919267E-1,1.19143605E-1,2.4082002E-1,-1.7138569E-1,-4.13969E-2,-2.9082862E-1,9.527319E-2,-1.962135E-1,1.7704595E-2,4.5790955E-1,-2.1642523E-1,1.3399152E-1,-2.876376E-1,-7.295291E-2,-4.077597E-2,1.281245E-1,-3.7178606E-2,4.1858438E-1,-3.0483546E-2,1.1363332E-2,-2.7246642E-1,-1.045572E-2,2.0370607E-1,-1.9803096E-1,-1.51071185E-2,4.09731E-1,-2.6169726E-1,1.1640512E-1],"categories":[],"categories_nodes":[],"categories_segments":[],"categories_sizes":[],"default_left":[0,0,0,0,0,0,1,0,0,0,0,0,0,0,0,0,0,0,0,0,0,0,0,0,0,1,0,0,0,0,0,0,0,0,0,0,0,0,0,0,0,0,0,0,0,0,0,0,0,0,0,0,0,0,0,0,0,0,0,0,0,0,0,0,0,0,0,0,0,0,0,0,0,0,0,0,0,0,0,0,0,0,0,0,0,0,0,0,0,0,0,0,0,0,0,0,0,0,0,0,0,0,0,0,0],"id":8,"left_children":[1,3,5,7,9,11,13,15,17,19,21,23,25,27,29,31,33,-1,-1,35,37,39,41,43,45,47,49,51,53,55,57,-1,59,-1,-1,61,63,65,67,-1,-1,69,71,73,75,77,79,81,83,85,87,89,91,93,95,97,99,101,103,-1,-1,-1,-1,-1,-1,-1,-1,-1,-1,-1,-1,-1,-1,-1,-1,-1,-1,-1,-1,-1,-1,-1,-1,-1,-1,-1,-1,-1,-1,-1,-1,-1,-1,-1,-1,-1,-1,-1,-1,-1,-1,-1,-1,-1,-1],"loss_changes":[1.0335309E2,8.459259E0,1.1547388E1,3.9759827E-1,3.005516E0,5.4656296E0,2.7119262E0,7.940674E-2,1.9485058E0,2.4489517E0,1.6621842E0,3.3054962E0,4.221599E0,2.6432776E0,4.5101633E0,5.4214478E-2,2.5254905E-1,0E0,0E0,1.1738892E0,1.8772926E0,1.1109695E0,1.1992499E0,4.41523E0,4.940414E0,2.8441882E0,4.1136236E0,2.0247092E0,2.1446383E0,2.1891108E0,3.720184E0,0E0,2.6477832E-1,0E0,0E0,1.1467166E0,7.1200943E-1,3.3620906E0,1.8635807E0,0E0,0E0,1.4488218E0,9.967518E-2,3.317669E0,4.989522E0,1.6983297E0,5.2059984E0,3.8570118E-1,1.779968E0,4.115394E0,4.602975E0,2.3123693E-1,3.1085575E-1,3.5650795E0,2.0066886E0,6.626339E-1,3.6840165E0,5.396658E0,2.0634806E0,0E0,0E0,0E0,0E0,0E0,0E0,0E0,0E0,0E0,0E0,0E0,0E0,0E0,0E0,0E0,0E0,0E0,0E0,0E0,0E0,0E0,0E0,0E0,0E0,0E0,0E0,0E0,0E0,0E0,0E0,0E0,0E0,0E0,0E0,0E0,0E0,0E0,0E0,0E0,0E0,0E0,0E0,0E0,0E0,0E0,0E0],"parents":[2147483647,0,0,1,1,2,2,3,3,4,4,5,5,6,6,7,7,8,8,9,9,10,10,11,11,12,12,13,13,14,14,15,15,16,16,19,19,20,20,21,21,22,22,23,23,24,24,25,25,26,26,27,27,28,28,29,29,30,30,32,32,35,35,36,36,37,37,38,38,41,41,42,42,43,43,44,44,45,45,46,46,47,47,48,48,49,49,50,50,51,51,52,52,53,53,54,54,55,55,56,56,57,57,58,58],"right_children":[2,4,6,8,10,12,14,16,18,20,22,24,26,28,30,32,34,-1,-1,36,38,40,42,44,46,48,50,52,54,56,58,-1,60,-1,-1,62,64,66,68,-1,-1,70,72,74,76,78,80,82,84,86,88,90,92,94,96,98,100,102,104,-1,-1,-1,-1,-1,-1,-1,-1,-1,-1,-1,-1,-1,-1,-1,-1,-1,-1,-1,-1,-1,-1,-1,-1,-1,-1,-1,-1,-1,-1,-1,-1,-1,-1,-1,-1,-1,-1,-1,-1,-1,-1,-1,-1,-1,-1],"split_conditions":[5E1,3.4E1,6.5E1,1.9520001E2,5.09E1,1E0,3.75E1,1.8624E2,7.11E1,1E0,3.9E1,9.76E1,1.0708E2,5.792E1,1.9209E2,7.1793E4,2.56E1,1.334003E-1,-2.3806463E-1,5.84E1,8.715E1,1E0,1E0,1E0,2.7235E4,2.72E1,2.9765E4,8E1,5.936E1,4.3E1,4.8234E4,-2.984037E-1,7.558E1,-2.274179E-3,-1.8264472E-1,3.02E1,2.1349E2,1E0,3E0,2.1728481E-1,-7.068357E-2,4.4E1,1.7523E2,2E0,1.4047E4,6.3E1,1E0,7.142E1,3E0,3.57E1,4.7704E4,1E0,5.7379E4,3.13E1,7.9E1,6.8066E4,4.53E1,3.6081E4,2.3688E2,-3.2666337E-3,-1.874457E-1,-1.6728647E-1,1.4654918E-1,-2.6405358E-1,-7.760778E-2,1.0924998E-1,-1.4579698E-1,-2.3278509E-1,-4.216826E-2,-2.0465003E-1,4.829611E-2,-2.525606E-1,-7.608199E-2,-1.6984412E-1,-6.308594E-2,1.6893905E-1,-9.0822324E-2,-1.9919267E-1,1.19143605E-1,2.4082002E-1,-1.7138569E-1,-4.13969E-2,-2.9082862E-1,9.527319E-2,-1.962135E-1,1.7704595E-2,4.5790955E-1,-2.1642523E-1,1.3399152E-1,-2.876376E-1,-7.295291E-2,-4.077597E-2,1.281245E-1,-3.7178606E-2,4.1858438E-1,-3.0483546E-2,1.1363332E-2,-2.7246642E-1,-1.045572E-2,2.0370607E-1,-1.9803096E-1,-1.51071185E-2,4.09731E-1,-2.6169726E-1,1.1640512E-1],"split_indices":[2,2,2,9,9,4,9,8,8,7,2,9,8,8,8,0,9,0,0,8,8,7,1,3,0,9,0,2,8,9,0,0,8,0,0,9,8,5,6,0,0,2,8,10,0,2,3,8,6,9,0,3,0,9,2,0,9,0,8,0,0,0,0,0,0,0,0,0,0,0,0,0,0,0,0,0,0,0,0,0,0,0,0,0,0,0,0,0,0,0,0,0,0,0,0,0,0,0,0,0,0,0,0,0,0],"split_type":[0,0,0,0,0,0,0,0,0,0,0,0,0,0,0,0,0,0,0,0,0,0,0,0,0,0,0,0,0,0,0,0,0,0,0,0,0,0,0,0,0,0,0,0,0,0,0,0,0,0,0,0,0,0,0,0,0,0,0,0,0,0,0,0,0,0,0,0,0,0,0,0,0,0,0,0,0,0,0,0,0,0,0,0,0,0,0,0,0,0,0,0,0,0,0,0,0,0,0,0,0,0,0,0,0],"sum_hessian":[1.107185E3,3.4464526E2,7.625398E2,1.8449278E2,1.6015248E2,2.5893887E2,5.036009E2,1.799191E2,4.5736837E0,1.4442805E2,1.5724434E1,2.2716098E2,3.1777903E1,4.6551492E2,3.8085964E1,1.7740501E2,2.5140846E0,1.025675E0,3.548009E0,7.03822E1,7.404585E1,3.274635E0,1.24498E1,2.0618184E2,2.097914E1,1.2769955E1,1.9007946E1,8.277709E0,4.572372E2,2.0475801E1,1.7610165E1,1.7478058E2,2.6244311E0,1.0033405E0,1.5107441E0,2.219846E0,6.816236E1,3.208776E1,4.1958088E1,1.83632E0,1.4383152E0,7.703208E0,4.7465916E0,1.7067035E2,3.5511494E1,9.555561E0,1.1423578E1,5.5022397E0,7.2677155E0,6.97894E0,1.2029007E1,6.0491447E0,2.2285638E0,4.9520645E0,4.5228516E2,1.39084425E1,6.567359E0,1.2311141E1,5.299023E0,1.0098602E0,1.6145709E0,1.2162489E0,1.003597E0,6.522101E1,2.9413526E0,4.806782E0,2.7280981E1,3.611494E1,5.843147E0,1.9475794E0,5.755628E0,3.190081E0,1.5565106E0,1.3629051E2,3.437984E1,7.676221E0,2.7835274E1,8.447557E0,1.108004E0,8.337887E0,3.0856912E0,1.0330423E0,4.4691973E0,5.6289268E0,1.6387886E0,3.454038E0,3.524902E0,4.6481686E0,7.3808384E0,4.6404138E0,1.4087309E0,1.1970893E0,1.0314746E0,3.2242522E0,1.7278122E0,2.94529E2,1.5775618E2,1.2894711E1,1.0137326E0,2.4633026E0,4.1040564E0,9.608703E0,2.7024379E0,4.212068E0,1.0869552E0],"tree_param":{"num_deleted":"0","num_feature":"11","num_nodes":"105","size_leaf_vector":"1"}},{"base_weights":[-3.039195E-1,-8.4905887E-1,-1.5060882E-1,-9.712378E-1,-6.623057E-1,-3.0906793E-1,-5.7573877E-2,-9.851941E-1,-3.702196E-1,-7.4398583E-1,-3.4252867E-1,-5.5565554E-1,-2.3490134E-1,-4.043361E-2,-2.736008E-1,-2.9781783E-1,-3.9975968E-1,1.3651434E-1,-2.1889822E-1,-8.022932E-1,-3.0066842E-1,-2.312866E-1,-2.2175911E-1,-6.139598E-1,-7.65282E-2,-1.1109531E-1,-3.7856472E-1,-5.0732607E-1,-3.176433E-2,-5.630338E-1,2.487136E-2,-1.7052174E-1,-2.5062978E-3,-4.9432895E-1,-8.703337E-1,-6.359776E-1,2.2466922E-1,-2.1850881E-1,-8.51207E-2,-6.9015974E-1,-3.3567068E-1,-4.2846647E-1,2.3889995E-1,4.9995983E-1,-1.5347514E-1,-4.4797027E-1,7.157539E-2,1.250175E-1,-6.9947815E-1,-4.0370113E-1,-2.212638E-2,-1.0723804E-1,-8.013393E-1,2.732316E-1,-4.7905478E-1,-4.679841E-2,-2.2333318E-1,-2.0994379E-1,-2.9266757E-1,-2.1550524E-1,-2.3974765E-2,7.6287925E-2,-8.874634E-2,-2.2711612E-1,-1.3223884E-1,-1.628712E-1,4.641426E-2,-2.0043458E-1,1.3651656E-1,-2.0803674E-1,3.030154E-1,-1.0246102E-1,4.385096E-3,-1.0981694E-1,-2.1683933E-1,-2.1951061E-1,8.503311E-2,9.787173E-2,-2.7812868E-1,-2.1129784E-1,5.2191403E-2,1.3967249E-1,-8.686441E-3,-1.5236583E-1,2.2244193E-1,-2.819089E-1,-4.9326688E-2,-1.2870245E-1,1.3772824E-1,-2.5304115E-1,7.433956E-2],"categories":[],"categories_nodes":[],"categories_segments":[],"categories_sizes":[],"default_left":[0,0,0,0,0,0,1,0,0,0,0,0,1,0,0,0,0,0,0,0,0,0,0,0,0,0,0,0,0,0,0,0,0,0,0,0,0,0,0,0,0,0,0,0,0,0,0,0,0,0,0,0,0,0,0,0,0,0,0,0,0,0,0,0,0,0,0,0,0,0,0,0,0,0,0,0,0,0,0,0,0,0,0,0,0,0,0,0,0,0,0],"id":9,"left_children":[1,3,5,7,9,11,13,15,17,19,21,23,25,27,29,-1,31,-1,-1,33,35,-1,37,39,41,43,45,47,49,51,53,-1,-1,55,57,59,-1,-1,61,63,65,67,-1,69,71,73,75,-1,77,79,81,83,85,87,89,-1,-1,-1,-1,-1,-1,-1,-1,-1,-1,-1,-1,-1,-1,-1,-1,-1,-1,-1,-1,-1,-1,-1,-1,-1,-1,-1,-1,-1,-1,-1,-1,-1,-1,-1,-1],"loss_changes":[8.3735725E1,4.377487E0,1.1546061E1,7.330475E-1,2.1002922E0,5.172144E0,1.8235011E0,1.6448212E-1,1.6882682E0,1.593235E0,8.741307E-1,1.8054008E0,3.9533758E0,1.8466438E0,3.1453907E0,0E0,2.1249896E-1,0E0,0E0,8.714447E-1,3.942299E0,0E0,1.1258922E0,1.0189171E0,2.902022E0,3.237934E0,3.2676086E0,1.7692449E0,1.6145386E0,1.9175358E0,2.484195E0,0E0,0E0,1.0309942E0,2.066307E-1,3.092494E-1,0E0,0E0,1.1227533E0,4.2277527E-1,1.5701265E0,1.6995758E0,0E0,5.6629887E0,3.6377752E0,1.7584953E0,2.7086856E0,0E0,1.9982164E0,2.0990257E0,1.4871297E0,2.9224937E0,8.992362E-1,1.9240241E0,1.9494776E0,0E0,0E0,0E0,0E0,0E0,0E0,0E0,0E0,0E0,0E0,0E0,0E0,0E0,0E0,0E0,0E0,0E0,0E0,0E0,0E0,0E0,0E0,0E0,0E0,0E0,0E0,0E0,0E0,0E0,0E0,0E0,0E0,0E0,0E0,0E0,0E0],"parents":[2147483647,0,0,1,1,2,2,3,3,4,4,5,5,6,6,7,7,8,8,9,9,10,10,11,11,12,12,13,13,14,14,16,16,19,19,20,20,22,22,23,23,24,24,25,25,26,26,27,27,28,28,29,29,30,30,33,33,34,34,35,35,38,38,39,39,40,40,41,41,43,43,44,44,45,45,46,46,48,48,49,49,50,50,51,51,52,52,53,53,54,54],"right_children":[2,4,6,8,10,12,14,16,18,20,22,24,26,28,30,-1,32,-1,-1,34,36,-1,38,40,42,44,46,48,50,52,54,-1,-1,56,58,60,-1,-1,62,64,66,68,-1,70,72,74,76,-1,78,80,82,84,86,88,90,-1,-1,-1,-1,-1,-1,-1,-1,-1,-1,-1,-1,-1,-1,-1,-1,-1,-1,-1,-1,-1,-1,-1,-1,-1,-1,-1,-1,-1,-1,-1,-1,-1,-1,-1,-1],"split_conditions":[4.5E1,3.2E1,6.5E1,1.9520001E2,3.92E1,2.7E1,3.75E1,7.1793E4,7.142E1,3E0,1E0,1E0,3.26E1,5.792E1,1.9209E2,-2.9781783E-1,2.55E1,1.3651434E-1,-2.1889822E-1,0E0,1.1363E2,-2.312866E-1,3.5E1,5.6549E4,6.2E1,6.46E1,1E0,2.16E1,1.93E1,8.505E1,3E0,-1.7052174E-1,-2.5062978E-3,3.4068E4,8.53E1,2E0,2.2466922E-1,-2.1850881E-1,8.599E1,2E0,2.55E1,1.994E2,2.3889995E-1,4.5994E4,9.94E1,6.1E1,8.832E1,1.250175E-1,4.0003E4,8.1E1,5.936E1,4.39E1,7.9E1,6.8E1,7.7E1,-4.679841E-2,-2.2333318E-1,-2.0994379E-1,-2.9266757E-1,-2.1550524E-1,-2.3974765E-2,7.6287925E-2,-8.874634E-2,-2.2711612E-1,-1.3223884E-1,-1.628712E-1,4.641426E-2,-2.0043458E-1,1.3651656E-1,-2.0803674E-1,3.030154E-1,-1.0246102E-1,4.385096E-3,-1.0981694E-1,-2.1683933E-1,-2.1951061E-1,8.503311E-2,9.787173E-2,-2.7812868E-1,-2.1129784E-1,5.2191403E-2,1.3967249E-1,-8.686441E-3,-1.5236583E-1,2.2244193E-1,-2.819089E-1,-4.9326688E-2,-1.2870245E-1,1.3772824E-1,-2.5304115E-1,7.433956E-2],"split_indices":[2,2,2,9,9,9,9,0,8,6,6,3,9,8,8,0,9,0,0,10,8,0,2,0,2,8,4,9,9,8,6,0,0,0,8,10,0,0,8,10,9,8,0,0,8,2,8,0,0,2,8,9,2,2,2,0,0,0,0,0,0,0,0,0,0,0,0,0,0,0,0,0,0,0,0,0,0,0,0,0,0,0,0,0,0,0,0,0,0,0,0],"split_type":[0,0,0,0,0,0,0,0,0,0,0,0,0,0,0,0,0,0,0,0,0,0,0,0,0,0,0,0,0,0,0,0,0,0,0,0,0,0,0,0,0,0,0,0,0,0,0,0,0,0,0,0,0,0,0,0,0,0,0,0,0,0,0,0,0,0,0,0,0,0,0,0,0,0,0,0,0,0,0,0,0,0,0,0,0,0,0,0,0,0,0],"sum_hessian":[1.00244495E3,2.1904181E2,7.8340314E2,1.2987405E2,8.9167755E1,2.8894452E2,4.944586E2,1.2630197E2,3.572076E0,6.996909E1,1.9198664E1,6.5310265E1,2.2363426E2,4.5921054E2,3.5248062E1,1.2401079E2,2.291183E0,1.0030689E0,2.5690072E0,6.112047E1,8.848623E0,3.0379453E0,1.6160719E1,5.797408E1,7.336184E0,1.2107108E2,1.0256318E2,7.322644E0,4.5188788E2,1.7444994E1,1.7803068E1,1.285205E0,1.0059779E0,1.2555783E1,4.8564686E1,7.0048203E0,1.843803E0,2.5129747E0,1.3647744E1,4.435026E1,1.3623817E1,5.5910096E0,1.7451745E0,7.152038E0,1.13919044E2,8.886605E1,1.3697126E1,1.059385E0,6.2632594E0,1.0381215E1,4.4150668E2,6.4872108E0,1.0957784E1,1.2232211E1,5.5708566E0,6.0268564E0,6.528927E0,2.1451809E1,2.7112877E1,5.8468356E0,1.1579846E0,5.148009E0,8.499735E0,3.336411E1,1.09861555E1,9.501466E0,4.122351E0,4.5898504E0,1.001159E0,2.0339391E0,5.118099E0,5.3278824E1,6.0640217E1,7.02574E1,1.8608648E1,2.346612E0,1.1350514E1,1.0587795E0,5.2044797E0,6.683714E0,3.6975012E0,5.168641E0,4.3633804E2,4.679673E0,1.8075374E0,8.6116905E0,2.3460932E0,2.2861826E0,9.946029E0,3.603675E0,1.9671819E0],"tree_param":{"num_deleted":"0","num_feature":"11","num_nodes":"91","size_leaf_vector":"1"}},{"base_weights":[-2.4449708E-1,-8.040451E-1,-1.15634516E-1,-9.570345E-1,-5.940348E-1,-3.398481E-1,-6.362908E-2,-9.751446E-1,-3.170167E-1,-6.81985E-1,-2.9123726E-1,-4.3203443E-1,-3.2842003E-2,-5.6513526E-2,-2.606421E-1,-9.850662E-1,-3.595612E-1,-2.0968752E-1,1.347138E-1,-7.482935E-1,-2.468028E-1,-2.1685523E-1,-1.8288128E-1,-1.3024727E-1,-5.2954614E-1,3.0998513E-1,-1.2908375E-1,-4.4062655E-2,-3.2877266E-1,-4.8015288E-1,-2.9862848E-1,-1.6712566E-3,-1.5789534E-1,-5.339774E-1,-9.0029603E-1,-5.167882E-1,2.8337196E-1,-2.0406994E-1,-6.4861774E-2,-3.195315E-1,4.316917E-1,-8.165809E-1,-4.0905464E-1,1.8001705E-1,-4.732258E-1,-6.616404E-2,3.1082222E-1,5.5998E-1,-5.32387E-1,-1.9451566E-1,-1.1902215E-3,-2.0188592E-1,1.4821362E-1,-6.5269075E-2,-2.7964127E-1,-6.818864E-2,-2.2748694E-1,-1.9294025E-1,1.9331481E-2,7.8329794E-2,-1.4129947E-1,2.8735378E-1,-4.5198493E-2,-2.5380605E-1,-9.065535E-2,6.36835E-2,-1.4513583E-1,1.4457868E-1,-1.14049114E-1,1.0906308E-1,-2.0030993E-1,-2.2612274E-2,1.1877909E-1,-1.0738216E-1,1.6543373E-1,3.1373006E-1,-1.8838142E-1,3.0265752E-2,-2.3844925E-1],"categories":[],"categories_nodes":[],"categories_segments":[],"categories_sizes":[],"default_left":[0,0,0,0,0,0,1,0,0,0,0,0,0,0,0,0,0,0,0,0,0,0,0,0,0,0,0,0,0,0,0,0,0,0,0,0,0,0,0,0,0,0,0,0,0,1,0,0,0,0,0,0,0,0,0,0,0,0,0,0,0,0,0,0,0,0,0,0,0,0,0,0,0,0,0,0,0,0,0],"id":10,"left_children":[1,3,5,7,9,11,13,15,17,19,21,23,25,27,-1,29,31,-1,-1,33,35,-1,37,39,41,-1,43,45,47,49,-1,-1,-1,51,53,55,-1,-1,57,59,61,63,65,67,69,71,73,75,77,-1,-1,-1,-1,-1,-1,-1,-1,-1,-1,-1,-1,-1,-1,-1,-1,-1,-1,-1,-1,-1,-1,-1,-1,-1,-1,-1,-1,-1,-1],"loss_changes":[6.682715E1,5.007889E0,8.788157E0,8.3574677E-1,1.8196278E0,4.005188E0,3.4716392E0,2.295456E-1,1.5426772E0,1.4884624E0,7.471913E-1,3.1427727E0,3.6095564E0,2.0540166E0,0E0,1.1154175E-2,1.7952013E-1,0E0,0E0,1.1423397E0,3.4340723E0,0E0,9.166732E-1,3.113952E0,2.5075283E0,0E0,3.4852164E0,4.606409E0,5.099153E0,3.0279088E-1,0E0,0E0,0E0,3.6372976E0,3.9919472E-1,3.9484715E-1,0E0,0E0,1.113263E0,2.014154E0,2.434753E0,9.701252E-2,2.88276E0,3.1535735E0,2.7487283E0,2.3758233E0,5.7415285E0,3.7916827E0,3.7528238E0,0E0,0E0,0E0,0E0,0E0,0E0,0E0,0E0,0E0,0E0,0E0,0E0,0E0,0E0,0E0,0E0,0E0,0E0,0E0,0E0,0E0,0E0,0E0,0E0,0E0,0E0,0E0,0E0,0E0,0E0],"parents":[2147483647,0,0,1,1,2,2,3,3,4,4,5,5,6,6,7,7,8,8,9,9,10,10,11,11,12,12,13,13,15,15,16,16,19,19,20,20,22,22,23,23,24,24,26,26,27,27,28,28,29,29,33,33,34,34,35,35,38,38,39,39,40,40,41,41,42,42,43,43,44,44,45,45,46,46,47,47,48,48],"right_children":[2,4,6,8,10,12,14,16,18,20,22,24,26,28,-1,30,32,-1,-1,34,36,-1,38,40,42,-1,44,46,48,50,-1,-1,-1,52,54,56,-1,-1,58,60,62,64,66,68,70,72,74,76,78,-1,-1,-1,-1,-1,-1,-1,-1,-1,-1,-1,-1,-1,-1,-1,-1,-1,-1,-1,-1,-1,-1,-1,-1,-1,-1,-1,-1,-1,-1],"split_conditions":[4.5E1,3.2E1,5.7E1,1.9520001E2,3.92E1,1.5334E2,4.93E1,7.1793E4,3.6372E4,3E0,1E0,7.507E1,4.6E1,7.0104E4,-2.606421E-1,5.84E1,7.953E1,-2.0968752E-1,1.347138E-1,8.53E1,1.4162E2,-2.1685523E-1,3.5E1,7.11E1,8.578E1,3.0998513E-1,1E0,6.6008E4,2.42E1,2.58E1,-2.9862848E-1,-1.6712566E-3,-1.5789534E-1,8.323E1,2.11E1,2.97E1,2.8337196E-1,-2.0406994E-1,6.132E3,1E0,3.04E1,5.6E1,8.876E1,4.3E1,1.8316E2,4.39E1,2.58E1,1E0,8.27E1,-1.9451566E-1,-1.1902215E-3,-2.0188592E-1,1.4821362E-1,-6.5269075E-2,-2.7964127E-1,-6.818864E-2,-2.2748694E-1,-1.9294025E-1,1.9331481E-2,7.8329794E-2,-1.4129947E-1,2.8735378E-1,-4.5198493E-2,-2.5380605E-1,-9.065535E-2,6.36835E-2,-1.4513583E-1,1.4457868E-1,-1.14049114E-1,1.0906308E-1,-2.0030993E-1,-2.2612274E-2,1.1877909E-1,-1.0738216E-1,1.6543373E-1,3.1373006E-1,-1.8838142E-1,3.0265752E-2,-2.3844925E-1],"split_indices":[2,2,2,9,9,8,9,0,0,6,6,8,2,0,0,8,8,0,0,8,8,0,2,8,8,0,1,0,9,9,0,0,0,8,9,9,0,0,0,6,9,2,8,9,8,9,9,3,8,0,0,0,0,0,0,0,0,0,0,0,0,0,0,0,0,0,0,0,0,0,0,0,0,0,0,0,0,0,0],"split_type":[0,0,0,0,0,0,0,0,0,0,0,0,0,0,0,0,0,0,0,0,0,0,0,0,0,0,0,0,0,0,0,0,0,0,0,0,0,0,0,0,0,0,0,0,0,0,0,0,0,0,0,0,0,0,0,0,0,0,0,0,0,0,0,0,0,0,0,0,0,0,0,0,0,0,0,0,0,0,0],"sum_hessian":[9.270955E2,1.7256085E2,7.5453467E2,9.777563E1,7.478523E1,1.4101874E2,6.135159E2,9.457587E1,3.1997597E0,5.6982014E1,1.7803215E1,1.0813979E2,3.2878944E1,6.0920245E2,4.313483E0,9.248505E1,2.0908272E0,2.193651E0,1.0061088E0,4.8823334E1,8.158683E0,2.434564E0,1.536865E1,2.6978935E1,8.116086E1,1.9161626E0,3.0962782E1,5.83672E2,2.5530468E1,2.8118038E0,8.967324E1,1.0004603E0,1.0903671E0,2.2131685E1,2.6691647E1,7.112988E0,1.0456944E0,2.0338721E0,1.3334778E1,2.0503788E1,6.4751463E0,2.2288397E1,5.8872463E1,1.656309E1,1.4399692E1,5.502192E2,3.3452778E1,4.4325795E0,2.1097887E1,1.8105328E0,1.0012711E0,1.9800322E1,2.331363E0,1.5384071E0,2.515324E1,4.1179247E0,2.9950633E0,1.7105718E0,1.1624207E1,4.092362E0,1.6411427E1,3.0629747E0,3.4121716E0,2.0472082E1,1.816314E0,6.1231084E0,5.2749355E1,1.0853331E1,5.7097597E0,2.551576E0,1.1848116E1,5.4028735E2,9.931822E0,8.722597E0,2.4730183E1,3.230971E0,1.2016083E0,6.362021E0,1.4735867E1],"tree_param":{"num_deleted":"0","num_feature":"11","num_nodes":"79","size_leaf_vector":"1"}},{"base_weights":[-1.9346535E-1,-7.523486E-1,-8.744627E-2,-9.400555E-1,-5.239021E-1,-2.7331117E-1,-4.7316466E-2,-9.633622E-1,-2.703521E-1,-6.133545E-1,-2.5420442E-1,-3.5451686E-1,-1.8167116E-2,-3.0054336E-2,-3.1156355E-1,-9.7633725E-1,-9.721186E-2,1.2138836E-1,-1.9756801E-1,-6.8634975E-1,-1.9936478E-1,-3.2932576E-2,-4.3621954E-1,-2.4442211E-1,-6.2318146E-1,3.913761E-1,-2.3208217E-1,-4.5091277E-1,-2.116097E-2,-3.8238215E-1,1.9803463E-1,-4.317832E-1,-2.9700327E-1,-2.9796457E-1,-7.8586113E-1,-4.730887E-1,2.5278693E-1,-2.6303303E-1,2.4750885E-1,2.4109507E-1,-7.3161197E-1,-5.5844474E-1,-5.9896905E-2,-2.2947516E-1,-7.0600647E-1,9.265186E-3,1.053915E0,-4.4932854E-1,3.7690642E-1,2.147244E-1,-6.6085404E-1,-5.4313447E-2,9.917206E-2,-1.9523285E-1,-7.235059E-1,-8.922109E-4,-1.8078567E-1,1.5838852E-2,-1.8659285E-1,-1.7088312E-1,-2.8383994E-1,-2.1941899E-1,-5.437292E-2,-2.2704868E-1,5.001219E-2,-1.68418E-1,2.5184795E-1,-2.5429496E-1,-1.1562938E-2,-4.2757895E-2,-2.1067818E-1,3.7036118E-1,-3.6781244E-2,-1.8712866E-1,2.3046458E-1,-2.6320013E-1,-1.0426903E-1,3.9031306E-1,-1.1328072E-1,-5.8434125E-2,4.9262175E-1,1.392993E-1,-1.7481492E-1,2.2110392E-1,-1.7957175E-1,1.1319182E-1,-2.4718426E-1,-7.177243E-2,-3.9745946E-3,2.7591956E-1,1.3454026E-2,-8.513718E-2,2.610065E-1,-2.5514734E-1,1.4800449E-2],"categories":[],"categories_nodes":[],"categories_segments":[],"categories_sizes":[],"default_left":[0,0,0,0,0,0,1,0,0,0,0,1,0,0,0,0,0,0,0,0,0,0,1,0,0,0,0,0,0,0,0,0,0,0,0,0,0,1,0,0,0,0,0,0,0,0,1,0,0,0,0,0,0,0,0,0,0,0,0,0,0,0,0,0,0,0,0,0,0,0,0,0,0,0,0,0,0,0,0,0,0,0,0,0,0,0,0,0,0,0,0,0,0,0,0],"id":11,"left_children":[1,3,5,7,9,11,13,15,17,19,21,23,25,27,29,31,-1,-1,-1,33,35,37,39,41,43,45,47,49,51,53,-1,55,-1,57,59,61,-1,63,-1,65,67,69,71,73,75,77,79,81,83,-1,85,87,89,91,93,-1,-1,-1,-1,-1,-1,-1,-1,-1,-1,-1,-1,-1,-1,-1,-1,-1,-1,-1,-1,-1,-1,-1,-1,-1,-1,-1,-1,-1,-1,-1,-1,-1,-1,-1,-1,-1,-1,-1,-1],"loss_changes":[5.1665012E1,5.4713287E0,5.469092E0,9.1156006E-1,1.4119835E0,2.693287E0,2.7534285E0,2.823105E-1,1.2924362E0,1.3165874E0,7.0634353E-1,2.7696924E0,2.939204E0,2.122561E0,2.8008037E0,9.555817E-2,0E0,0E0,0E0,1.3302345E0,2.8567975E0,2.0249786E0,2.124443E0,4.1222878E0,7.533035E-1,2.9086428E0,3.0779996E0,3.3482764E0,2.2350588E0,2.1028247E0,0E0,2.5416374E-1,0E0,1.1541646E0,5.566673E-1,4.3026936E-1,0E0,1.8194773E0,0E0,2.2523687E0,5.325124E-1,1.4805212E0,3.9090483E0,2.9811683E0,1.0896769E0,4.6491838E0,3.4101357E0,2.3010237E0,2.6628017E0,0E0,2.0834246E0,3.329329E0,5.3560014E0,2.5173721E0,1.2278008E0,0E0,0E0,0E0,0E0,0E0,0E0,0E0,0E0,0E0,0E0,0E0,0E0,0E0,0E0,0E0,0E0,0E0,0E0,0E0,0E0,0E0,0E0,0E0,0E0,0E0,0E0,0E0,0E0,0E0,0E0,0E0,0E0,0E0,0E0,0E0,0E0,0E0,0E0,0E0,0E0],"parents":[2147483647,0,0,1,1,2,2,3,3,4,4,5,5,6,6,7,7,8,8,9,9,10,10,11,11,12,12,13,13,14,14,15,15,19,19,20,20,21,21,22,22,23,23,24,24,25,25,26,26,27,27,28,28,29,29,31,31,33,33,34,34,35,35,37,37,39,39,40,40,41,41,42,42,43,43,44,44,45,45,46,46,47,47,48,48,50,50,51,51,52,52,53,53,54,54],"right_children":[2,4,6,8,10,12,14,16,18,20,22,24,26,28,30,32,-1,-1,-1,34,36,38,40,42,44,46,48,50,52,54,-1,56,-1,58,60,62,-1,64,-1,66,68,70,72,74,76,78,80,82,84,-1,86,88,90,92,94,-1,-1,-1,-1,-1,-1,-1,-1,-1,-1,-1,-1,-1,-1,-1,-1,-1,-1,-1,-1,-1,-1,-1,-1,-1,-1,-1,-1,-1,-1,-1,-1,-1,-1,-1,-1,-1,-1,-1,-1],"split_conditions":[4.5E1,3.2E1,5.7E1,1.9520001E2,3.92E1,1.6089E2,3.95E1,7.1793E4,7.051E1,3E0,3.6372E4,3.3E1,1.9498E2,5.84E1,2.4205E2,5.84E1,-9.721186E-2,1.2138836E-1,-1.9756801E-1,0E0,1.5735E2,3.1435E4,4.03E1,2.7E1,1.4625E4,5.6266E4,5.5E1,3.8112E4,3.57E1,4.7704E4,1.9803463E-1,1.5E1,-2.9700327E-1,3.4068E4,8.53E1,3.0907E4,2.5278693E-1,4.06E1,2.4750885E-1,5.6808E4,3E0,7.43E1,2.72E1,1.1224E4,3.92E1,1.2071E4,2.73E1,4.6E1,4.06E1,2.147244E-1,2.15E1,0E0,5.9E1,4.5418E4,7.9E1,-8.922109E-4,-1.8078567E-1,1.5838852E-2,-1.8659285E-1,-1.7088312E-1,-2.8383994E-1,-2.1941899E-1,-5.437292E-2,-2.2704868E-1,5.001219E-2,-1.68418E-1,2.5184795E-1,-2.5429496E-1,-1.1562938E-2,-4.2757895E-2,-2.1067818E-1,3.7036118E-1,-3.6781244E-2,-1.8712866E-1,2.3046458E-1,-2.6320013E-1,-1.0426903E-1,3.9031306E-1,-1.1328072E-1,-5.8434125E-2,4.9262175E-1,1.392993E-1,-1.7481492E-1,2.2110392E-1,-1.7957175E-1,1.1319182E-1,-2.4718426E-1,-7.177243E-2,-3.9745946E-3,2.7591956E-1,1.3454026E-2,-8.513718E-2,2.610065E-1,-2.5514734E-1,1.4800449E-2],"split_indices":[2,2,2,9,9,8,9,0,8,6,0,9,8,8,8,8,0,0,0,10,8,0,9,9,0,0,2,0,9,0,0,2,0,0,8,0,0,9,0,0,6,8,9,0,9,0,9,2,9,0,9,10,2,0,2,0,0,0,0,0,0,0,0,0,0,0,0,0,0,0,0,0,0,0,0,0,0,0,0,0,0,0,0,0,0,0,0,0,0,0,0,0,0,0,0],"split_type":[0,0,0,0,0,0,0,0,0,0,0,0,0,0,0,0,0,0,0,0,0,0,0,0,0,0,0,0,0,0,0,0,0,0,0,0,0,0,0,0,0,0,0,0,0,0,0,0,0,0,0,0,0,0,0,0,0,0,0,0,0,0,0,0,0,0,0,0,0,0,0,0,0,0,0,0,0,0,0,0,0,0,0,0,0,0,0,0,0,0,0,0,0,0,0],"sum_hessian":[8.7206006E2,1.3807845E2,7.339816E2,7.408788E1,6.3990562E1,1.2930107E2,6.0468054E2,7.117248E1,2.9154084E0,4.7095776E1,1.6894789E1,9.778818E1,3.1512897E1,5.6864703E2,3.603354E1,6.924011E1,1.9323666E0,1.0490758E0,1.8663327E0,3.9477207E1,7.6185675E0,8.158098E0,8.7366905E0,7.0718544E1,2.7069635E1,1.0527765E1,2.0985132E1,1.0739145E1,5.579079E2,3.4150993E1,1.8825451E0,2.4939973E0,6.674611E1,8.866444E0,3.0610764E1,6.4659705E0,1.1525968E0,6.9796247E0,1.1784737E0,2.708986E0,6.0277042E0,2.5424711E1,4.5293835E1,5.3602824E0,2.1709352E1,7.32002E0,3.2077448E0,1.5660638E1,5.324495E0,1.2703618E0,9.468783E0,4.3783133E2,1.2007654E2,2.306775E1,1.1083242E1,1.0003812E0,1.4936162E0,4.659417E0,4.2070265E0,1.4968362E1,1.5642403E1,2.6311102E0,3.8348603E0,2.8935926E0,4.086032E0,1.1835767E0,1.5254093E0,4.972191E0,1.0555131E0,7.04409E0,1.8380621E1,1.2293644E0,4.406447E1,4.110577E0,1.2497052E0,1.3709103E1,8.00025E0,1.1424103E0,6.17761E0,1.2412732E0,1.9664716E0,1.6790031E0,1.3981635E1,4.067428E0,1.2570665E0,1.107247E0,8.361537E0,7.868074E1,3.5915057E2,6.4668937E0,1.1360964E2,2.1974537E1,1.0932143E0,9.432858E0,1.6503832E0],"tree_param":{"num_deleted":"0","num_feature":"11","num_nodes":"95","size_leaf_vector":"1"}},{"base_weights":[-1.5107352E-1,-8.362357E-1,-8.282049E-2,-8.7661636E-1,-2.1240179E-1,-2.6376718E-1,-3.4472425E-2,-9.024665E-1,3.584349E-2,-1.9859062E-1,1.6337323E-1,-3.4749356E-1,-4.495575E-2,-2.9220818E-2,-2.3779783E-1,-9.143679E-1,-9.864733E-2,-6.0247928E-2,1.2735742E-1,-2.3771052E-1,-5.7841724E-1,-6.9624287E-1,8.0855414E-2,-1.2543091E-1,4.157915E-3,-9.6500736E-1,-6.897439E-1,-3.451033E-1,5.1044352E-2,-8.7396204E-1,-3.7713283E-1,-2.6591018E-1,3.708217E-2,8.567882E-1,-6.913698E-2,-8.616777E-2,-6.5349656E-1,1.2560976E-1,-6.754896E-2,-1.14317775E-1,-2.95009E-1,-4.3123853E-3,-2.2067721E-1,1.9133544E-1,-1.1421212E-1,-1.1212745E-1,1.5846102E-1,-2.8044584E-1,-6.946926E-2,2.8772028E-2,-1.4732969E-1,4.1951165E-1,2.3005072E-2,1.733624E-2,-1.6991827E-1,-5.1716376E-2,6.059399E-2,1.1269278E-1,-2.417614E-1,6.089849E-2,-7.6886095E-2,-3.4659408E-2,5.9633415E-2],"categories":[],"categories_nodes":[],"categories_segments":[],"categories_sizes":[],"default_left":[0,0,0,0,0,0,1,0,0,0,0,0,0,0,0,0,0,0,0,0,0,0,0,0,0,0,0,0,0,0,0,0,0,0,0,0,0,0,0,0,0,0,0,0,0,0,0,0,0,0,0,0,0,0,0,0,0,0,0,0,0,0,0],"id":12,"left_children":[1,3,5,7,9,11,13,15,-1,-1,17,19,21,23,-1,25,-1,-1,-1,27,29,31,33,35,37,39,41,43,45,47,49,-1,-1,51,53,55,57,59,61,-1,-1,-1,-1,-1,-1,-1,-1,-1,-1,-1,-1,-1,-1,-1,-1,-1,-1,-1,-1,-1,-1,-1,-1],"loss_changes":[3.8753006E1,1.7055359E0,6.6053348E0,1.9157028E0,1.1023741E0,2.902277E0,2.357097E0,1.6734695E-1,0E0,0E0,4.664387E-1,2.779067E0,3.762113E0,1.9104064E0,0E0,9.192276E-2,0E0,0E0,0E0,2.4882793E0,1.8341331E0,1.2671008E0,4.5749702E0,3.1204386E0,3.862253E0,1.8094254E-1,4.7733164E-1,2.2795906E0,4.7520194E0,3.299427E-1,1.3083653E0,0E0,0E0,2.5798178E0,2.1432846E0,3.6065652E0,1.94173E0,4.917158E0,3.5868325E0,0E0,0E0,0E0,0E0,0E0,0E0,0E0,0E0,0E0,0E0,0E0,0E0,0E0,0E0,0E0,0E0,0E0,0E0,0E0,0E0,0E0,0E0,0E0,0E0],"parents":[2147483647,0,0,1,1,2,2,3,3,4,4,5,5,6,6,7,7,10,10,11,11,12,12,13,13,15,15,19,19,20,20,21,21,22,22,23,23,24,24,25,25,26,26,27,27,28,28,29,29,30,30,33,33,34,34,35,35,36,36,37,37,38,38],"right_children":[2,4,6,8,10,12,14,16,-1,-1,18,20,22,24,-1,26,-1,-1,-1,28,30,32,34,36,38,40,42,44,46,48,50,-1,-1,52,54,56,58,60,62,-1,-1,-1,-1,-1,-1,-1,-1,-1,-1,-1,-1,-1,-1,-1,-1,-1,-1,-1,-1,-1,-1,-1,-1],"split_conditions":[3.7E1,5.09E1,5.7E1,1.8624E2,2.2061E4,3.9E1,4.93E1,7.1793E4,3.584349E-2,-1.9859062E-1,2.9E1,3.18E1,1E0,1.833E4,-2.3779783E-1,3.2E1,-9.864733E-2,-6.0247928E-2,1.2735742E-1,2.94E1,1E0,5.8788E4,4.1E1,8.2E1,3.8112E4,5.84E1,2.12E1,1.924E3,4.2024E4,5.6E1,1.4333E4,-2.6591018E-1,3.708217E-2,3.6372E4,5.4E1,7.9E1,1.656E3,2.0984E2,2.1172E2,-1.14317775E-1,-2.95009E-1,-4.3123853E-3,-2.2067721E-1,1.9133544E-1,-1.1421212E-1,-1.1212745E-1,1.5846102E-1,-2.8044584E-1,-6.946926E-2,2.8772028E-2,-1.4732969E-1,4.1951165E-1,2.3005072E-2,1.733624E-2,-1.6991827E-1,-5.1716376E-2,6.059399E-2,1.1269278E-1,-2.417614E-1,6.089849E-2,-7.6886095E-2,-3.4659408E-2,5.9633415E-2],"split_indices":[2,9,2,8,0,9,9,0,0,0,2,9,6,0,0,2,0,0,0,9,10,0,9,2,0,8,9,0,0,2,0,0,0,0,2,2,0,8,8,0,0,0,0,0,0,0,0,0,0,0,0,0,0,0,0,0,0,0,0,0,0,0,0],"split_type":[0,0,0,0,0,0,0,0,0,0,0,0,0,0,0,0,0,0,0,0,0,0,0,0,0,0,0,0,0,0,0,0,0,0,0,0,0,0,0,0,0,0,0,0,0,0,0,0,0,0,0,0,0,0,0,0,0,0,0,0,0,0,0],"sum_hessian":[8.291671E2,7.4096176E1,7.550709E2,6.921096E1,4.885223E0,1.582714E2,5.9679956E2,6.755188E1,1.6590732E0,1.8774655E0,3.0077574E0,1.1404494E2,4.4226444E1,5.9372565E2,3.0739207E0,6.559696E1,1.9549252E0,1.3525287E0,1.6552286E0,7.867268E1,3.5372257E1,6.4261484E0,3.7800297E1,1.5221803E2,4.415076E2,5.0839546E1,1.4757411E1,5.7202847E1,2.1469837E1,1.29767065E1,2.2395552E1,5.150587E0,1.2755612E0,5.3600025E0,3.2440296E1,1.4276614E2,9.451884E0,1.6362311E2,2.7788452E2,2.212532E0,4.8627014E1,1.0216105E0,1.37358E1,1.4084122E0,5.5794434E1,1.14726925E1,9.997146E0,1.1437934E1,1.5387721E0,4.3788214E0,1.801673E1,2.6958663E0,2.6641362E0,2.6547785E1,5.89251E0,1.1019508E2,3.257106E1,1.0300013E0,8.421884E0,1.3644348E2,2.7179615E1,2.3594249E2,4.1942013E1],"tree_param":{"num_deleted":"0","num_feature":"11","num_nodes":"63","size_leaf_vector":"1"}},{"base_weights":[-1.1758515E-1,-7.916027E-1,-6.334851E-2,-8.93702E-1,-4.5924538E-1,-3.0711633E-1,-3.5481006E-2,-9.3148184E-1,-1.7546262E-1,-5.447051E-1,8.615804E-2,-5.648497E-1,-1.4818917E-1,-3.0386528E-2,-2.4029414E-1,-9.532254E-1,-7.0704944E-2,-1.7689863E-1,1.1629894E-1,-5.2566722E-2,-7.25734E-1,-7.629219E-1,-7.574138E-2,5.6812847E-1,-3.2852882E-1,-6.47991E-2,7.533596E-2,-3.3921638E-1,-2.929755E-1,-4.6688858E-1,1.9075778E-1,-4.468359E-3,-7.9942846E-1,-8.779111E-2,-8.4315306E-1,2.0489381E-1,-3.6774328E-1,6.003449E-1,4.903799E-2,-6.5567285E-1,-1.6963622E-2,-1.32943E-1,1.4297508E-2,2.1583505E-1,-9.138357E-2,-1.0391444E-3,-1.514562E-1,-2.1946272E-3,-1.905305E-1,-3.7679873E-2,-2.661818E-1,-1.6541502E-1,1.3522884E-1,-2.6469707E-1,-1.0928941E-1,1.6923668E-2,-2.3031247E-1,2.356156E-1,-5.5912282E-2,-2.1553323E-1,-2.3528786E-2,2.0422727E-1,-6.2119823E-2,-1.1167284E-1,-1.563355E-2,1.7615916E-2,-1.8577379E-1,4.305595E-2,6.7315865E-1,-2.752617E-1,-1.97614E-3],"categories":[],"categories_nodes":[],"categories_segments":[],"categories_sizes":[],"default_left":[0,0,0,0,0,0,1,0,0,0,0,0,0,0,0,0,0,0,0,0,0,0,0,0,0,0,0,0,0,0,0,0,0,0,0,0,0,0,0,0,1,0,0,0,0,0,0,0,0,0,0,0,0,0,0,0,0,0,0,0,0,0,0,0,0,0,0,0,0,0,0],"id":13,"left_children":[1,3,5,7,9,11,13,15,17,19,-1,21,23,25,-1,27,-1,-1,-1,29,31,33,35,37,39,41,43,45,-1,47,-1,-1,49,51,53,-1,55,-1,57,59,61,63,65,67,69,-1,-1,-1,-1,-1,-1,-1,-1,-1,-1,-1,-1,-1,-1,-1,-1,-1,-1,-1,-1,-1,-1,-1,-1,-1,-1],"loss_changes":[2.9183678E1,1.6075897E0,5.0243616E0,1.0423622E0,1.1791711E0,3.0257277E0,2.5741405E0,4.1052628E-1,1.0339205E0,1.27425E0,0E0,2.7129145E0,6.427703E0,2.4167867E0,0E0,2.479477E-1,0E0,0E0,0E0,1.7343069E0,5.4816103E-1,1.0226288E0,2.3234665E0,7.402473E0,3.9874053E0,2.700558E0,3.8438993E0,1.6577378E-1,0E0,2.8314304E-1,0E0,0E0,4.6083403E-1,1.0641259E0,1.5807152E-2,0E0,1.2994282E0,0E0,1.6071749E0,6.360798E-1,2.9422479E0,5.185009E0,6.5831456E0,1.2714909E1,5.2736716E0,0E0,0E0,0E0,0E0,0E0,0E0,0E0,0E0,0E0,0E0,0E0,0E0,0E0,0E0,0E0,0E0,0E0,0E0,0E0,0E0,0E0,0E0,0E0,0E0,0E0,0E0],"parents":[2147483647,0,0,1,1,2,2,3,3,4,4,5,5,6,6,7,7,8,8,9,9,11,11,12,12,13,13,15,15,19,19,20,20,21,21,22,22,23,23,24,24,25,25,26,26,27,27,29,29,32,32,33,33,34,34,36,36,38,38,39,39,40,40,41,41,42,42,43,43,44,44],"right_children":[2,4,6,8,10,12,14,16,18,20,-1,22,24,26,-1,28,-1,-1,-1,30,32,34,36,38,40,42,44,46,-1,48,-1,-1,50,52,54,-1,56,-1,58,60,62,64,66,68,70,-1,-1,-1,-1,-1,-1,-1,-1,-1,-1,-1,-1,-1,-1,-1,-1,-1,-1,-1,-1,-1,-1,-1,-1,-1,-1],"split_conditions":[3.7E1,3.2E1,5E1,1.9520001E2,1.8624E2,2.7507E4,5.09E1,7.1793E4,3.6904E4,1E0,8.615804E-2,4.06E1,3.6372E4,1E0,-2.4029414E-1,5.84E1,-7.0704944E-2,-1.7689863E-1,1.1629894E-1,3.77E1,2.22E1,1E0,4.46E1,4E1,1E0,3.06E1,3.17E1,1.7E1,-2.929755E-1,2.7507E4,1.9075778E-1,-4.468359E-3,3.3E1,2.97E1,1.2044E2,2.0489381E-1,1E0,6.003449E-1,2.58E1,5.32E1,2.32E1,6.5E1,6.8066E4,3.14E1,3.25E1,-1.0391444E-3,-1.514562E-1,-2.1946272E-3,-1.905305E-1,-3.7679873E-2,-2.661818E-1,-1.6541502E-1,1.3522884E-1,-2.6469707E-1,-1.0928941E-1,1.6923668E-2,-2.3031247E-1,2.356156E-1,-5.5912282E-2,-2.1553323E-1,-2.3528786E-2,2.0422727E-1,-6.2119823E-2,-1.1167284E-1,-1.563355E-2,1.7615916E-2,-1.8577379E-1,4.305595E-2,6.7315865E-1,-2.752617E-1,-1.97614E-3],"split_indices":[2,2,2,9,8,0,9,0,0,5,0,9,0,3,0,8,0,0,0,9,9,5,9,2,7,9,9,2,0,0,0,0,2,9,8,0,7,0,9,9,9,2,0,9,9,0,0,0,0,0,0,0,0,0,0,0,0,0,0,0,0,0,0,0,0,0,0,0,0,0,0],"split_type":[0,0,0,0,0,0,0,0,0,0,0,0,0,0,0,0,0,0,0,0,0,0,0,0,0,0,0,0,0,0,0,0,0,0,0,0,0,0,0,0,0,0,0,0,0,0,0,0,0,0,0,0,0,0,0,0,0,0,0,0,0,0,0,0,0,0,0,0,0,0,0],"sum_hessian":[7.9869E2,5.8469833E1,7.4022015E2,4.3437088E1,1.5032744E1,7.4912346E1,6.653078E2,4.0984386E1,2.4527025E0,1.3730951E1,1.3017935E0,2.7599653E1,4.7312695E1,6.619422E2,3.3655975E0,3.9383682E1,1.6007024E0,1.3860724E0,1.06663E0,4.039553E0,9.691398E0,1.9245895E1,8.353757E0,9.083254E0,3.8229443E1,4.9968292E2,1.6225926E2,2.0122757E0,3.7371407E1,2.7227175E0,1.3168359E0,1.0232714E0,8.668126E0,2.266651E0,1.6979244E1,1.949454E0,6.4043026E0,1.6561407E0,7.427113E0,1.8109735E1,2.0119705E1,2.6806058E2,2.3162234E2,8.7894E1,7.4365265E1,1.002034E0,1.0102417E0,1.0091413E0,1.7135761E0,1.2799296E0,7.3881965E0,1.2052975E0,1.0613534E0,1.4916501E1,2.0627437E0,3.52503E0,2.879273E0,1.233289E0,6.1938243E0,1.6112953E1,1.9967818E0,3.7554197E0,1.6364286E1,6.677343E1,2.0128717E2,2.1729366E2,1.432868E1,8.590169E1,1.9923064E0,6.008185E0,6.835708E1],"tree_param":{"num_deleted":"0","num_feature":"11","num_nodes":"71","size_leaf_vector":"1"}},{"base_weights":[-9.153541E-2,-8.2621557E-1,-5.2924562E-2,-5.297746E-1,-9.2962027E-1,-2.660396E-1,-2.728098E-2,-7.741847E-1,5.3584583E-2,-2.8935108E-1,-1.5094016E-2,-2.6348343E-1,-1.9919625E-1,-2.3176637E-2,-2.2548208E-1,-2.618956E-1,-3.6305762E-3,2.2863515E-1,-1.9487505E-1,-4.0101892E-1,-2.4104869E-2,-5.235196E-1,-1.7661529E-2,-5.666376E-1,2.3940867E-1,2.573588E-1,-2.6306736E-1,-2.6030955E-1,1.2201195E-1,5.0692E-1,-2.5727574E-2,1.0326051E-1,-1.8683243E-1,2.1756561E-1,-1.547468E-1,3.1378382E-1,7.3634274E-3,1.14135824E-1,-1.2760863E-1,2.8594077E-1,-1.9158918E-1,4.1141784E-1,7.39024E-2,-2.3094203E-2,8.177135E-3],"categories":[],"categories_nodes":[],"categories_segments":[],"categories_sizes":[],"default_left":[0,0,0,0,0,0,1,0,1,0,0,0,0,0,0,0,0,0,0,0,0,0,0,0,0,0,0,0,0,0,0,0,0,0,0,0,0,0,0,0,0,0,0,0,0],"id":14,"left_children":[1,3,5,7,9,11,13,15,17,-1,-1,-1,19,21,-1,-1,-1,-1,-1,23,25,27,29,31,33,35,37,-1,39,41,43,-1,-1,-1,-1,-1,-1,-1,-1,-1,-1,-1,-1,-1,-1],"loss_changes":[2.1972797E1,6.9332886E-1,4.0284343E0,1.7993779E0,7.9055023E-1,3.0661888E0,1.94545E0,6.4853287E-1,2.774728E0,0E0,0E0,0E0,2.559238E0,1.8052825E0,0E0,0E0,0E0,0E0,0E0,3.7107878E0,2.7574043E0,1.6909417E0,2.769461E0,1.5988989E0,3.173029E0,3.4383085E0,2.4722972E0,0E0,2.7313998E0,1.8952463E0,1.7469511E0,0E0,0E0,0E0,0E0,0E0,0E0,0E0,0E0,0E0,0E0,0E0,0E0,0E0,0E0],"parents":[2147483647,0,0,1,1,2,2,3,3,4,4,5,5,6,6,7,7,8,8,12,12,13,13,19,19,20,20,21,21,22,22,23,23,24,24,25,25,26,26,28,28,29,29,30,30],"right_children":[2,4,6,8,10,12,14,16,18,-1,-1,-1,20,22,-1,-1,-1,-1,-1,24,26,28,30,32,34,36,38,-1,40,42,44,-1,-1,-1,-1,-1,-1,-1,-1,-1,-1,-1,-1,-1,-1],"split_conditions":[3.4E1,7.636E1,5E1,2.99E1,1.8624E2,6.132E3,5.09E1,6.8325E4,3.1E1,-2.8935108E-1,-1.5094016E-2,-2.6348343E-1,1E0,5.65E2,-2.2548208E-1,-2.618956E-1,-3.6305762E-3,2.2863515E-1,-1.9487505E-1,4.69E1,8.715E1,3E0,1.387E3,5.84E1,4.1131E4,1E0,0E0,-2.6030955E-1,9.159E1,5.7E1,1.0438E2,1.0326051E-1,-1.8683243E-1,2.1756561E-1,-1.547468E-1,3.1378382E-1,7.3634274E-3,1.14135824E-1,-1.2760863E-1,2.8594077E-1,-1.9158918E-1,4.1141784E-1,7.39024E-2,-2.3094203E-2,8.177135E-3],"split_indices":[2,8,2,9,8,0,9,0,9,0,0,0,7,0,0,0,0,0,0,9,8,6,0,8,0,5,10,0,8,2,8,0,0,0,0,0,0,0,0,0,0,0,0,0,0],"split_type":[0,0,0,0,0,0,0,0,0,0,0,0,0,0,0,0,0,0,0,0,0,0,0,0,0,0,0,0,0,0,0,0,0,0,0,0,0,0,0,0,0,0,0,0,0],"sum_hessian":[7.7514185E2,3.7684757E1,7.374571E2,1.1329273E1,2.6355484E1,7.819883E1,6.5925824E2,7.7536225E0,3.575651E0,2.525663E1,1.0988549E0,6.5023627E0,7.169647E1,6.565699E2,2.6884108E0,6.7349424E0,1.0186802E0,1.7392741E0,1.8363768E0,3.2706413E1,3.8990055E1,6.134231E0,6.504356E2,2.6077759E1,6.628654E0,1.7867598E1,2.1122458E1,3.7765315E0,2.3576999E0,8.913192E0,6.4152246E2,1.2160248E0,2.4861734E1,4.0580277E0,2.5706265E0,3.2765727E0,1.4591024E1,3.9834268E0,1.713903E1,1.0057213E0,1.3519785E0,1.0770832E0,7.836109E0,3.2585947E2,3.1566296E2],"tree_param":{"num_deleted":"0","num_feature":"11","num_nodes":"45","size_leaf_vector":"1"}},{"base_weights":[-6.968723E-2,-8.0618364E-1,-3.997232E-2,-4.539699E-1,-2.8549263E-1,-3.0004564E-1,-2.3793738E-2,-2.4769738E-1,-1.4272444E-2,-4.929993E-2,-4.3398023E-1,-7.161438E-2,2.7078304E-2,5.4292005E-1,-4.971715E-1,6.0581857E-1,-5.2336144E-1,-6.292092E-1,-1.5724093E-1,-2.4406032E-1,-6.1627273E-2,1.5433788E-1,-2.4321526E-2,2.994155E-1,-3.6942966E-2,-1.951431E-1,-1.4611467E-2,1.2225817E0,-2.3530945E-1,-7.140391E-1,-8.719837E-2,-7.757055E-1,3.6098182E-2,1.3897584E-1,-6.233391E-1,2.2553182E-3,-1.9621432E-1,2.3500842E-1,-4.459846E-1,-1.8988334E-1,5.7615444E-2,1.0510899E-1,5.2677053E-1,-1.9816785E-1,1.4570071E-1,-2.5135103E-1,-4.8190993E-3,-1.7504886E-1,1.10627875E-1,-2.517355E-1,-4.693358E-3,-1.6823602E-1,1.6412808E-1,2.0337069E-1,-3.569979E-2,-1.9662037E-2,-2.28918E-1,-1.5310886E-2,7.7679455E-2,-1.3468452E-1,-1.3004943E-2,3.2000426E-2,1.665875E-1,1.9238442E-1,-1.9489363E-1,3.498308E-1,-7.246132E-2,5.4982734E-1,9.215645E-3],"categories":[],"categories_nodes":[],"categories_segments":[],"categories_sizes":[],"default_left":[0,0,0,0,0,1,0,0,0,0,0,0,0,0,0,0,0,0,0,0,1,0,0,0,0,0,0,0,1,1,0,0,0,0,0,1,0,0,0,0,0,0,0,0,0,0,0,0,0,0,0,0,0,0,0,0,0,0,0,0,0,0,0,0,0,0,0,0,0],"id":15,"left_children":[1,3,5,7,-1,9,11,-1,13,15,17,19,21,23,25,27,29,31,33,-1,35,37,39,-1,-1,-1,-1,41,43,45,47,49,51,53,55,57,59,61,63,65,67,-1,-1,-1,-1,-1,-1,-1,-1,-1,-1,-1,-1,-1,-1,-1,-1,-1,-1,-1,-1,-1,-1,-1,-1,-1,-1,-1,-1],"loss_changes":[1.656566E1,1.0721931E0,3.0646567E0,1.7031851E0,0E0,1.4115906E0,1.6766002E0,0E0,1.8371371E0,5.2812734E0,1.39681E0,2.5810952E0,2.1903005E0,1.0876008E0,2.1873671E-1,4.0094833E0,7.5361705E-1,1.5776901E0,1.8518022E0,0E0,3.0223417E0,4.7687855E0,3.252724E0,0E0,0E0,0E0,0E0,1.3852825E0,1.5084575E0,5.643449E-1,1.1482252E0,6.1706257E-1,1.473388E0,1.2811557E0,3.5137868E-1,3.286965E0,4.3516974E0,3.4574523E0,3.0192473E0,5.8392835E0,7.6127486E0,0E0,0E0,0E0,0E0,0E0,0E0,0E0,0E0,0E0,0E0,0E0,0E0,0E0,0E0,0E0,0E0,0E0,0E0,0E0,0E0,0E0,0E0,0E0,0E0,0E0,0E0,0E0,0E0],"parents":[2147483647,0,0,1,1,2,2,3,3,5,5,6,6,8,8,9,9,10,10,11,11,12,12,13,13,14,14,15,15,16,16,17,17,18,18,20,20,21,21,22,22,27,27,28,28,29,29,30,30,31,31,32,32,33,33,34,34,35,35,36,36,37,37,38,38,39,39,40,40],"right_children":[2,4,6,8,-1,10,12,-1,14,16,18,20,22,24,26,28,30,32,34,-1,36,38,40,-1,-1,-1,-1,42,44,46,48,50,52,54,56,58,60,62,64,66,68,-1,-1,-1,-1,-1,-1,-1,-1,-1,-1,-1,-1,-1,-1,-1,-1,-1,-1,-1,-1,-1,-1,-1,-1,-1,-1,-1,-1],"split_conditions":[3.3E1,7.636E1,4.5E1,2.57E1,-2.8549263E-1,2.72E1,7.2E1,-2.4769738E-1,1E0,1E0,3.77E1,1.97E1,8.303E1,3.2E1,6.892E1,3.9E1,2E0,3E0,4.2291E4,-2.4406032E-1,3.26E1,8.2E1,1.0438E2,2.994155E-1,-3.6942966E-2,-1.951431E-1,-1.4611467E-2,0E0,2.41E1,2.59E1,3.4068E4,6.7186E4,9.75E1,8.084E1,4.06E1,3.05E1,3.57E1,8E1,5.936E1,1.091E3,1.0476E2,1.0510899E-1,5.2677053E-1,-1.9816785E-1,1.4570071E-1,-2.5135103E-1,-4.8190993E-3,-1.7504886E-1,1.10627875E-1,-2.517355E-1,-4.693358E-3,-1.6823602E-1,1.6412808E-1,2.0337069E-1,-3.569979E-2,-1.9662037E-2,-2.28918E-1,-1.5310886E-2,7.7679455E-2,-1.3468452E-1,-1.3004943E-2,3.2000426E-2,1.665875E-1,1.9238442E-1,-1.9489363E-1,3.498308E-1,-7.246132E-2,5.4982734E-1,9.215645E-3],"split_indices":[2,8,2,9,0,9,2,0,7,10,9,9,8,9,8,2,10,6,0,0,9,2,8,0,0,0,0,10,9,9,0,0,8,8,9,9,9,2,8,0,8,0,0,0,0,0,0,0,0,0,0,0,0,0,0,0,0,0,0,0,0,0,0,0,0,0,0,0,0],"split_type":[0,0,0,0,0,0,0,0,0,0,0,0,0,0,0,0,0,0,0,0,0,0,0,0,0,0,0,0,0,0,0,0,0,0,0,0,0,0,0,0,0,0,0,0,0,0,0,0,0,0,0,0,0,0,0,0,0,0,0,0,0,0,0,0,0,0,0,0,0],"sum_hessian":[7.574163E2,2.8360443E1,7.290559E2,9.493585E0,1.8866858E1,4.16693E1,6.873866E2,4.668982E0,4.824602E0,1.4984378E1,2.6684921E1,3.5410953E2,3.3327707E2,2.1822836E0,2.6423185E0,6.1741796E0,8.810199E0,1.4899936E1,1.1784986E1,3.6347332E0,3.504748E2,9.5306755E1,2.3797034E2,1.0003175E0,1.1819662E0,1.6334776E0,1.008841E0,3.3005352E0,2.873644E0,5.6869426E0,3.1232562E0,1.2075134E1,2.8248012E0,7.6347485E0,4.1502376E0,2.3833217E2,1.1214262E2,8.455315E1,1.0753609E1,7.834634E1,1.59624E2,1.881076E0,1.4194592E0,1.8602351E0,1.013409E0,4.660027E0,1.0269156E0,1.3615412E0,1.7617152E0,1.1049267E1,1.0258676E0,1.25796E0,1.5668414E0,1.9445916E0,5.690157E0,1.1256104E0,3.024627E0,1.9802003E2,4.0312134E1,4.153502E1,7.06076E1,6.131623E1,2.3236912E1,1.3575268E0,9.396082E0,2.0832627E0,7.626307E1,1.3803735E0,1.5824362E2],"tree_param":{"num_deleted":"0","num_feature":"11","num_nodes":"69","size_leaf_vector":"1"}},{"base_weights":[-5.3769864E-2,-7.864755E-1,-3.1173864E-2,-2.8607732E-1,-2.8235084E-1,-2.526903E-1,-1.7846268E-2,-2.1363778E-1,1.2907597E-1,-8.867045E-2,-4.745844E-1,-3.769394E-1,-1.0417631E-2,2.0235427E-1,-9.8861896E-2,-4.5861447E-1,5.570611E-1,-6.572635E-1,1.852412E-2,2.7940324E-1,-5.532065E-1,-5.152019E-1,-4.992475E-3,-6.8519276E-1,2.1337545E-1,1.1672256E0,-9.716281E-3,4.696585E-2,-2.701768E-1,-3.3535415E-1,1.7851093E-1,9.209651E-2,-6.689088E-1,-2.4896482E-1,3.1910283E-3,1.2384167E-2,-1.4755696E-1,-2.4803872E-1,9.4087206E-2,1.9929495E-1,-9.702108E-2,5.8678144E-1,-6.711351E-2,-1.8389882E-1,4.2439777E-1,-1.7273656E-1,1.6248143E-1,-1.771468E-1,3.9579086E-3,-2.6033238E-1,-5.5184368E-2,1.7429644E-1,-1.8418671E-1,-7.2138815E-4,1.0599188E-1,-1.00939E-1,1.9776575E-2],"categories":[],"categories_nodes":[],"categories_segments":[],"categories_sizes":[],"default_left":[0,0,0,0,0,0,0,0,1,0,0,0,0,0,0,1,0,1,0,0,0,0,1,0,0,0,0,0,0,0,0,0,1,0,0,1,0,0,0,0,0,0,0,0,0,0,0,0,0,0,0,0,0,0,0,0,0],"id":16,"left_children":[1,3,5,7,-1,9,11,-1,13,15,17,19,21,-1,-1,23,25,27,29,-1,31,33,35,37,39,41,43,45,-1,47,-1,-1,49,-1,51,53,55,-1,-1,-1,-1,-1,-1,-1,-1,-1,-1,-1,-1,-1,-1,-1,-1,-1,-1,-1,-1],"loss_changes":[1.2311752E1,1.4530888E0,2.132541E0,1.2753602E0,0E0,1.4502571E0,1.8203198E0,0E0,1.2817237E0,6.1813245E0,1.561343E0,3.7049875E0,1.8350612E0,0E0,0E0,2.63098E0,3.2921565E0,2.1973076E0,1.3464075E0,0E0,1.4809811E0,1.1650004E0,1.6489859E0,2.0190282E0,1.3954866E0,5.4585657E0,5.9456563E0,1.5994204E0,0E0,3.7442213E-1,0E0,0E0,9.602618E-1,0E0,1.6716727E0,2.9936156E0,2.9384696E0,0E0,0E0,0E0,0E0,0E0,0E0,0E0,0E0,0E0,0E0,0E0,0E0,0E0,0E0,0E0,0E0,0E0,0E0,0E0,0E0],"parents":[2147483647,0,0,1,1,2,2,3,3,5,5,6,6,8,8,9,9,10,10,11,11,12,12,15,15,16,16,17,17,18,18,20,20,21,21,22,22,23,23,24,24,25,25,26,26,27,27,29,29,32,32,34,34,35,35,36,36],"right_children":[2,4,6,8,-1,10,12,-1,14,16,18,20,22,-1,-1,24,26,28,30,-1,32,34,36,38,40,42,44,46,-1,48,-1,-1,50,-1,52,54,56,-1,-1,-1,-1,-1,-1,-1,-1,-1,-1,-1,-1,-1,-1,-1,-1,-1,-1,-1,-1],"split_conditions":[3.2E1,7.051E1,4.5E1,2.57E1,-2.8235084E-1,4.2291E4,5.84E1,-2.1363778E-1,2.58E1,3.0036E4,4.2E1,3.6904E4,5.65E2,2.0235427E-1,-9.8861896E-2,4.06E1,8.38E1,2.43E1,6.255E4,2.7940324E-1,2.1E1,3E0,3.71E1,1.1958E2,4E1,3.6372E4,3E0,2.31E1,-2.701768E-1,3.17E1,1.7851093E-1,9.209651E-2,3.08E1,-2.4896482E-1,9.159E1,3.57E1,1.8911E2,-2.4803872E-1,9.4087206E-2,1.9929495E-1,-9.702108E-2,5.8678144E-1,-6.711351E-2,-1.8389882E-1,4.2439777E-1,-1.7273656E-1,1.6248143E-1,-1.771468E-1,3.9579086E-3,-2.6033238E-1,-5.5184368E-2,1.7429644E-1,-1.8418671E-1,-7.2138815E-4,1.0599188E-1,-1.00939E-1,1.9776575E-2],"split_indices":[2,8,2,9,0,0,8,0,9,0,2,0,0,0,0,9,8,9,0,0,9,6,9,8,2,0,6,9,0,9,0,0,9,0,8,9,8,0,0,0,0,0,0,0,0,0,0,0,0,0,0,0,0,0,0,0,0],"split_type":[0,0,0,0,0,0,0,0,0,0,0,0,0,0,0,0,0,0,0,0,0,0,0,0,0,0,0,0,0,0,0,0,0,0,0,0,0,0,0,0,0,0,0,0,0,0,0,0,0,0,0,0,0,0,0,0,0],"sum_hessian":[7.441141E2,2.1249952E1,7.228641E2,5.6908193E0,1.5559133E1,4.0003906E1,6.8286017E2,2.455522E0,3.2352972E0,2.3806332E1,1.6197575E1,1.28320055E1,6.700282E2,1.2627404E0,1.9725568E0,1.5319475E1,8.486857E0,1.1576133E1,4.621442E0,1.0149763E0,1.181703E1,6.1253877E0,6.6390283E2,1.1441902E1,3.8775728E0,3.5768206E0,4.9100366E0,3.179901E0,8.396232E0,3.1228566E0,1.4985855E0,1.2050153E0,1.0612015E1,3.437713E0,2.687675E0,5.925877E2,7.131512E1,1.0172031E1,1.2698706E0,1.978154E0,1.8994188E0,2.0233219E0,1.5534989E0,3.8493304E0,1.0607061E0,1.3350297E0,1.8448712E0,1.4022619E0,1.7205948E0,6.96609E0,3.645924E0,1.4183499E0,1.269325E0,5.6890234E2,2.368536E1,3.752943E1,3.378569E1],"tree_param":{"num_deleted":"0","num_feature":"11","num_nodes":"57","size_leaf_vector":"1"}},{"base_weights":[-4.1774422E-2,-7.392527E-1,-2.4273526E-2,-8.2852525E-1,2.8845085E-2,-3.982168E-1,-1.8024812E-2,-7.304402E-3,-2.8059658E-1,-1.1387938E-2,-2.5686792E-1,-1.2603368E-2,-4.5931163E-1,-6.3374263E-1,6.1092234E-1,-3.556155E-3,-2.3323359E-1,3.545489E-2,-6.108974E-1,-4.978201E-2,-2.2616418E-1,3.859306E-1,-1.6961638E-2,-2.3788E-2,1.3575654E-1,2.0429498E-1,-4.8445162E-1,-2.3718636E-1,-2.3305146E-1,-1.7123736E-1,1.630806E-1,-1.8258035E-2,2.7549298E-2,6.2499277E-2,-1.1773349E-1,1.584678E-1,-2.3227137E-1,-4.787831E-2,-2.4325345E-1,-1.7288794E-1,6.0247675E-2],"categories":[],"categories_nodes":[],"categories_segments":[],"categories_sizes":[],"default_left":[0,0,0,0,0,0,1,0,0,0,0,0,0,0,0,0,1,0,0,0,0,0,0,0,1,0,0,0,0,0,0,0,0,0,0,0,0,0,0,0,0],"id":17,"left_children":[1,3,5,7,-1,9,11,-1,-1,13,-1,15,17,19,21,23,25,-1,27,-1,-1,-1,29,31,33,35,37,-1,39,-1,-1,-1,-1,-1,-1,-1,-1,-1,-1,-1,-1],"loss_changes":[8.962016E0,1.4200954E0,1.6721767E0,1.3807478E0,0E0,2.0746467E0,1.6878772E0,0E0,0E0,3.24989E0,0E0,1.3971691E0,8.2185185E-1,1.10183954E-1,1.8053714E0,1.9023597E0,3.129628E0,0E0,2.873764E-1,0E0,0E0,0E0,1.2932976E0,2.5310547E0,3.3628793E0,3.8197856E0,1.7592511E0,0E0,6.6029894E-1,0E0,0E0,0E0,0E0,0E0,0E0,0E0,0E0,0E0,0E0,0E0,0E0],"parents":[2147483647,0,0,1,1,2,2,3,3,5,5,6,6,9,9,11,11,12,12,13,13,14,14,15,15,16,16,18,18,22,22,23,23,24,24,25,25,26,26,28,28],"right_children":[2,4,6,8,-1,10,12,-1,-1,14,-1,16,18,20,22,24,26,-1,28,-1,-1,-1,30,32,34,36,38,-1,40,-1,-1,-1,-1,-1,-1,-1,-1,-1,-1,-1,-1],"split_conditions":[3.2E1,6.9527E4,1.93E1,6.087E1,2.8845085E-2,1.81E1,4.93E1,-7.304402E-3,-2.8059658E-1,3.9172E4,-2.5686792E-1,7.0104E4,3.9E1,8.21E1,4.9386E4,6.1418E4,2.57E1,3.545489E-2,4.0848E4,-4.978201E-2,-2.2616418E-1,3.859306E-1,3E0,1E0,3.66E1,1.9498E2,1E0,-2.3718636E-1,1.708E2,-1.7123736E-1,1.630806E-1,-1.8258035E-2,2.7549298E-2,6.2499277E-2,-1.1773349E-1,1.584678E-1,-2.3227137E-1,-4.787831E-2,-2.4325345E-1,-1.7288794E-1,6.0247675E-2],"split_indices":[2,0,9,8,0,9,9,0,0,0,0,0,2,8,0,0,9,0,0,0,0,0,6,3,9,8,1,0,8,0,0,0,0,0,0,0,0,0,0,0,0],"split_type":[0,0,0,0,0,0,0,0,0,0,0,0,0,0,0,0,0,0,0,0,0,0,0,0,0,0,0,0,0,0,0,0,0,0,0,0,0,0,0,0,0],"sum_hessian":[7.346708E2,1.6973427E1,7.176974E2,1.5342169E1,1.6312574E0,1.0764869E1,7.069325E2,1.942576E0,1.3399592E1,6.3915305E0,4.3733387E0,6.9936896E2,7.56356E0,3.186466E0,3.2050643E0,6.727962E2,2.6572716E1,1.6183829E0,5.945177E0,1.1376888E0,2.0487773E0,1.0387146E0,2.1663496E0,5.88203E2,8.459321E1,9.760439E0,1.6812279E1,3.2885325E0,2.6566448E0,1.0805426E0,1.0858072E0,4.4575092E2,1.4245212E2,7.4906685E1,9.686521E0,7.6786904E0,2.0817482E0,9.172202E0,7.640076E0,1.2999829E0,1.3566618E0],"tree_param":{"num_deleted":"0","num_feature":"11","num_nodes":"41","size_leaf_vector":"1"}},{"base_weights":[-3.302697E-2,-6.805835E-1,-1.9617744E-2,-1.6766281E-1,-2.7051413E-1,-4.020841E-1,-1.4594886E-2,-1.9165976E-1,2.0778958E-1,1.9526288E-1,-6.646465E-1,-4.6483988E-1,-1.0339947E-2,1.8197763E-1,-6.895025E-2,-1.6093364E-2,-7.490738E-1,-2.3471136E-1,-5.471506E-3,-7.859942E-3,-1.9474772E-1,-2.6130268E-1,-1.7828815E-2,-1.770888E-1,1.4501587E-1,-3.202667E-1,-3.1847914E-3,-1.9119075E-1,8.7011755E-2,2.2270072E-2,-7.937031E-3],"categories":[],"categories_nodes":[],"categories_segments":[],"categories_sizes":[],"default_left":[0,0,0,0,0,0,0,0,1,0,0,0,1,0,0,0,0,0,1,0,0,0,0,0,0,0,1,0,0,0,0],"id":18,"left_children":[1,3,5,7,-1,9,11,-1,13,-1,15,17,19,-1,-1,-1,21,-1,23,25,-1,-1,-1,-1,-1,27,29,-1,-1,-1,-1],"loss_changes":[6.3122525E0,1.5217185E0,1.3671918E0,1.1361355E0,0E0,2.9836125E0,1.348698E0,0E0,8.2199854E-1,0E0,3.6632276E-1,9.5717263E-1,1.105343E0,0E0,0E0,0E0,5.2396774E-1,0E0,1.3434623E0,1.020223E0,0E0,0E0,0E0,0E0,0E0,2.1776705E0,1.2449768E0,0E0,0E0,0E0,0E0],"parents":[2147483647,0,0,1,1,2,2,3,3,5,5,6,6,8,8,10,10,11,11,12,12,16,16,18,18,19,19,25,25,26,26],"right_children":[2,4,6,8,-1,10,12,-1,14,-1,16,18,20,-1,-1,-1,22,-1,24,26,-1,-1,-1,-1,-1,28,30,-1,-1,-1,-1],"split_conditions":[3.2E1,7.051E1,5.745E1,2.57E1,-2.7051413E-1,3.8112E4,5.65E2,-1.9165976E-1,2.58E1,1.9526288E-1,2.15E1,3E0,5.67E1,1.8197763E-1,-6.895025E-2,-1.6093364E-2,5.701E1,-2.3471136E-1,2.43E1,1.93E1,-1.9474772E-1,-2.6130268E-1,-1.7828815E-2,-1.770888E-1,1.4501587E-1,8.1E1,2.32E1,-1.9119075E-1,8.7011755E-2,2.2270072E-2,-7.937031E-3],"split_indices":[2,8,8,9,0,0,0,0,9,0,9,6,9,0,0,0,8,0,9,9,0,0,0,0,0,2,9,0,0,0,0],"split_type":[0,0,0,0,0,0,0,0,0,0,0,0,0,0,0,0,0,0,0,0,0,0,0,0,0,0,0,0,0,0,0],"sum_hessian":[7.2748505E2,1.3749331E1,7.137357E2,4.671592E0,9.07774E0,8.227149E0,7.0550854E2,1.760512E0,2.9110801E0,1.346861E0,6.880288E0,5.5914445E0,6.999171E2,1.3210844E0,1.5899959E0,1.0338299E0,5.846458E0,2.8903732E0,2.7010713E0,6.982188E2,1.6983017E0,4.7445903E0,1.1018679E0,1.1353464E0,1.5657248E0,9.299447E0,6.889194E2,6.0910783E0,3.208369E0,1.5871983E2,5.301995E2],"tree_param":{"num_deleted":"0","num_feature":"11","num_nodes":"31","size_leaf_vector":"1"}},{"base_weights":[-2.57758E-2,-6.252218E-1,-1.5317088E-2,-1.461085E-1,-2.6237673E-1,-1.8588349E-1,-5.823275E-3,-1.7802498E-1,1.6661647E-1,-6.607418E-1,-9.67964E-2,3.5999352E-1,-1.0162068E-2,1.6097876E-1,-8.302134E-2,-2.329662E-1,-5.1835675E-2,9.479791E-2,-3.9059782E-1,7.584303E-1,-1.9588143E-1,-6.158705E-3,-6.010491E-1,-2.7745494E-1,5.736345E-1,-2.3802283E-1,-1.5396324E-1,-4.626018E-1,1.7472881E0,7.286696E-3,-1.2959449E-1,-2.1912275E-1,-2.399779E-2,-1.519702E-1,1.4572777E-1,3.528347E-1,7.683762E-4,5.96306E-2,-1.7182466E-1,-1.7698148E-3,-1.9214721E-1,1.14904106E-1,6.678773E-1,-3.5360115E-4,1.6913213E-1,8.167514E-2,-7.558333E-2],"categories":[],"categories_nodes":[],"categories_segments":[],"categories_sizes":[],"default_left":[0,0,0,0,0,0,0,0,0,0,0,0,1,0,0,0,0,0,0,0,0,0,0,0,1,0,1,0,0,0,0,0,0,0,0,0,0,0,0,0,0,0,0,0,0,0,0],"id":19,"left_children":[1,3,5,7,-1,9,11,-1,13,15,17,19,21,-1,-1,-1,-1,23,25,27,-1,29,31,33,35,-1,37,39,41,43,45,-1,-1,-1,-1,-1,-1,-1,-1,-1,-1,-1,-1,-1,-1,-1,-1],"loss_changes":[4.519128E0,1.3491387E0,1.1502336E0,8.587447E-1,0E0,1.5205249E0,1.0742749E0,0E0,8.0098206E-1,1.9048834E-1,1.8782815E0,3.697278E0,1.5755205E0,0E0,0E0,0E0,0E0,3.8316653E0,1.1271366E0,8.242193E0,0E0,1.1031367E0,2.4369633E-1,2.3908834E0,3.2096775E0,0E0,1.5167333E0,2.8427798E-1,1.5070076E0,2.8263688E0,3.2784739E0,0E0,0E0,0E0,0E0,0E0,0E0,0E0,0E0,0E0,0E0,0E0,0E0,0E0,0E0,0E0,0E0],"parents":[2147483647,0,0,1,1,2,2,3,3,5,5,6,6,8,8,9,9,10,10,11,11,12,12,17,17,18,18,19,19,21,21,22,22,23,23,24,24,26,26,27,27,28,28,29,29,30,30],"right_children":[2,4,6,8,-1,10,12,-1,14,16,18,20,22,-1,-1,-1,-1,24,26,28,-1,30,32,34,36,-1,38,40,42,44,46,-1,-1,-1,-1,-1,-1,